{"learner":{"attributes":{"best_iteration":"107","best_score":"0.7474308746572351"},"feature_names":["NumSaturatedHeterocycles","fr_Ar_N","NumN","NumSaturatedRings","fr_NH0","fr_sulfide","fr_ether","NumAromaticRings","NumAromaticHeterocycles","fr_amidine","fr_Al_COO","PEOE_VSA5","fr_aldehyde","fr_C_O","fr_thiazole","SlogP_VSA2","fr_halogen","EState_VSA1","SMR_VSA3","NumAliphaticRings","fr_aryl_methyl","NumHDonors","SlogP_VSA12","PEOE_VSA3","EState_VSA10","PEOE_VSA12","BCUT2D_LOGPLOW","PEOE_VSA1","VSA_EState4","BCUT2D_MWHI","VSA_EState2","fr_hdrzone","FpDensityMorgan2","fr_thiophene","FractionCSP3","SlogP_VSA10","FpDensityMorgan3","SMR_VSA6","SMR_VSA1","BCUT2D_MRHI","MinEStateIndex","MolLogP","EState_VSA2","VSA_EState10"],"feature_types":["int","int","float","int","float","int","int","float","int","int","int","float","int","int","int","float","int","float","float","int","int","float","float","float","float","float","float","float","float","float","float","int","float","int","float","float","float","float","float","float","float","float","float","float"],"gradient_booster":{"model":{"cats":{"enc":[],"feature_segments":[],"sorted_idx":[]},"gbtree_model_param":{"num_parallel_tree":"1","num_trees":"128"},"iteration_indptr":[0,1,2,3,4,5,6,7,8,9,10,11,12,13,14,15,16,17,18,19,20,21,22,23,24,25,26,27,28,29,30,31,32,33,34,35,36,37,38,39,40,41,42,43,44,45,46,47,48,49,50,51,52,53,54,55,56,57,58,59,60,61,62,63,64,65,66,67,68,69,70,71,72,73,74,75,76,77,78,79,80,81,82,83,84,85,86,87,88,89,90,91,92,93,94,95,96,97,98,99,100,101,102,103,104,105,106,107,108,109,110,111,112,113,114,115,116,117,118,119,120,121,122,123,124,125,126,127,128],"tree_info":[0,0,0,0,0,0,0,0,0,0,0,0,0,0,0,0,0,0,0,0,0,0,0,0,0,0,0,0,0,0,0,0,0,0,0,0,0,0,0,0,0,0,0,0,0,0,0,0,0,0,0,0,0,0,0,0,0,0,0,0,0,0,0,0,0,0,0,0,0,0,0,0,0,0,0,0,0,0,0,0,0,0,0,0,0,0,0,0,0,0,0,0,0,0,0,0,0,0,0,0,0,0,0,0,0,0,0,0,0,0,0,0,0,0,0,0,0,0,0,0,0,0,0,0,0,0,0,0],"trees":[{"base_weights":[3.5119493E-2,-2.310149E-1,5.3588057E-1,-4.6056327E-1,8.954132E-2,-1.03090286E-1,7.951116E-1,-2.9137328E-1,-8.530996E-1,3.2139423E-1,-3.587896E-1,-5.059587E-1,5.738522E-1,8.881959E-1,-9.7726665E-2,-5.6063884E-1,1.6030222E-1,1.5200025E-2,-8.908524E-1,6.861849E-2,8.7021095E-1,-2.702947E-1,-5.5413853E-2,-6.27954E-1,3.1400558E-1,7.7372324E-1,-3.2195073E-2,1.000343E0,1.6825628E-1,-1.6806649E-2,3.3826273E-2,-2.0168858E-2,-4.8161205E-2,-3.3446604E-3,2.9615758E-2,-6.1514575E-2,-3.3503808E-2,-2.520695E-3,6.8272665E-2,6.579631E-2,6.1050104E-3,-8.668512E-3,-4.5485646E-2,-3.9558336E-2,-1.0581224E-3,2.62121E-2,-1.592941E-2,-7.912826E-3,4.975887E-2,3.97662E-2,8.2761146E-2,-3.7692226E-2,3.451478E-2],"categories":[],"categories_nodes":[],"categories_segments":[],"categories_sizes":[],"default_left":[0,0,0,0,0,0,0,0,0,0,0,0,0,0,0,0,0,0,0,0,0,0,0,0,0,0,0,0,0,0,0,0,0,0,0,0,0,0,0,0,0,0,0,0,0,0,0,0,0,0,0,0,0],"id":0,"left_children":[1,3,5,7,9,11,13,15,17,19,21,23,25,27,29,31,33,-1,35,37,39,41,-1,43,45,47,-1,49,51,-1,-1,-1,-1,-1,-1,-1,-1,-1,-1,-1,-1,-1,-1,-1,-1,-1,-1,-1,-1,-1,-1,-1,-1],"loss_changes":[8.677962E1,3.1351187E1,3.758606E1,1.6107464E1,1.8614109E1,1.8282991E1,1.3546425E1,2.1413515E1,3.5621033E0,1.6216255E1,3.608457E0,4.4299126E0,6.5960255E0,1.1502739E1,3.1467485E0,6.4390335E0,6.5701537E0,0E0,4.381256E0,1.28583E1,1.2032961E1,3.2045884E0,0E0,3.5663595E0,9.8554814E-1,4.781782E0,0E0,1.5355606E1,1.062285E1,0E0,0E0,0E0,0E0,0E0,0E0,0E0,0E0,0E0,0E0,0E0,0E0,0E0,0E0,0E0,0E0,0E0,0E0,0E0,0E0,0E0,0E0,0E0,0E0],"parents":[2147483647,0,0,1,1,2,2,3,3,4,4,5,5,6,6,7,7,8,8,9,9,10,10,11,11,12,12,13,13,14,14,15,15,16,16,18,18,19,19,20,20,21,21,23,23,24,24,25,25,27,27,28,28],"right_children":[2,4,6,8,10,12,14,16,18,20,22,24,26,28,30,32,34,-1,36,38,40,42,-1,44,46,48,-1,50,52,-1,-1,-1,-1,-1,-1,-1,-1,-1,-1,-1,-1,-1,-1,-1,-1,-1,-1,-1,-1,-1,-1,-1,-1],"split_conditions":[3.3333334E-1,-6.822251E-2,-1.9113904E-1,9.8168665E-1,5.009079E-1,4.5833975E-1,5.2808285E-1,5E-1,-3.9552185E-1,5E-1,1E0,9.2777073E-1,1.9917558E0,5.382063E-1,1.0519571E0,3.531197E-1,5.4090184E-1,1.5200025E-2,3.511692E-1,2.2752821E0,-7.351792E-2,8.404732E-1,-5.5413853E-2,-2.4879397E-1,1E0,2.4461839E-1,-3.2195073E-2,9.655638E-1,-1.19785E-1,-1.6806649E-2,3.3826273E-2,-2.0168858E-2,-4.8161205E-2,-3.3446604E-3,2.9615758E-2,-6.1514575E-2,-3.3503808E-2,-2.520695E-3,6.8272665E-2,6.579631E-2,6.1050104E-3,-8.668512E-3,-4.5485646E-2,-3.9558336E-2,-1.0581224E-3,2.62121E-2,-1.592941E-2,-7.912826E-3,4.975887E-2,3.97662E-2,8.2761146E-2,-3.7692226E-2,3.451478E-2],"split_indices":[2,32,26,25,17,17,26,21,42,24,12,11,18,15,26,38,26,0,42,11,18,32,0,26,13,30,0,39,32,0,0,0,0,0,0,0,0,0,0,0,0,0,0,0,0,0,0,0,0,0,0,0,0],"split_type":[0,0,0,0,0,0,0,0,0,0,0,0,0,0,0,0,0,0,0,0,0,0,0,0,0,0,0,0,0,0,0,0,0,0,0,0,0,0,0,0,0,0,0,0,0,0,0,0,0,0,0,0,0],"sum_hessian":[6.49E2,4.24E2,2.25E2,2.47E2,1.77E2,6.5E1,1.6E2,1.74E2,7.3E1,1.17E2,6E1,4.1E1,2.4E1,1.45E2,1.5E1,1.09E2,6.5E1,2E0,7.1E1,8.1E1,3.6E1,5.5E1,5E0,3.6E1,5E0,2.1E1,3E0,1.25E2,2E1,1.2E1,3E0,8E1,2.9E1,4.3E1,2.2E1,2.6E1,4.5E1,7.5E1,6E0,2.2E1,1.4E1,4.9E1,6E0,2.8E1,8E0,4E0,1E0,4E0,1.7E1,9.7E1,2.8E1,7E0,1.3E1],"tree_param":{"num_deleted":"0","num_feature":"44","num_nodes":"53","size_leaf_vector":"1"}},{"base_weights":[1.5647976E-2,-2.6921588E-1,5.446942E-1,-1.1317736E-1,-6.2170666E-1,6.928657E-1,-3.536014E-1,-1.6820754E-1,6.666277E-1,-7.2469807E-1,3.0947322E-2,7.947228E-1,-2.6577336E-1,-5.0178885E-1,2.6348425E-2,-4.3400943E-1,-5.231346E-3,9.2426246E-1,-1.098011E-2,-1.0532355E0,-4.6650827E-1,5.2144015E-1,-4.0359098E-1,6.4817387E-1,1.2482909E0,-6.2883043E-1,9.23404E-2,-5.5458826E-1,2.0594893E-2,-2.9313121E-2,1.0727044E-2,-2.1656444E-2,7.0022526E-3,5.1727768E-2,-1.2995931E-2,9.043823E-3,-5.43085E-2,-3.579719E-2,-8.246552E-3,-1.1035596E-2,4.7298413E-2,-2.905309E-2,-0E0,-4.111377E-3,3.9337557E-2,7.241719E-2,1.824766E-2,-4.244929E-2,3.2411177E-2,-3.0171683E-2,1.5384826E-2],"categories":[],"categories_nodes":[],"categories_segments":[],"categories_sizes":[],"default_left":[0,0,0,0,0,0,0,0,0,0,0,0,0,0,0,0,0,0,0,0,0,0,0,0,0,0,0,0,0,0,0,0,0,0,0,0,0,0,0,0,0,0,0,0,0,0,0,0,0,0,0],"id":1,"left_children":[1,3,5,7,9,11,13,15,17,19,21,23,25,27,-1,29,31,33,-1,35,37,39,41,43,45,47,-1,49,-1,-1,-1,-1,-1,-1,-1,-1,-1,-1,-1,-1,-1,-1,-1,-1,-1,-1,-1,-1,-1,-1,-1],"loss_changes":[9.557117E1,2.2517029E1,2.982753E1,1.2378265E1,8.561241E0,1.8914146E1,4.437569E0,1.1606717E1,4.6115856E0,8.602608E0,4.0587163E0,1.0500542E1,1.5612295E1,1.5934825E0,0E0,1.0234808E1,1.0533419E1,2.3054647E0,0E0,2.1973038E0,4.5329466E0,3.1168914E0,7.345729E-1,1.3597012E1,6.5353737E0,5.349965E0,0E0,1.3524513E0,0E0,0E0,0E0,0E0,0E0,0E0,0E0,0E0,0E0,0E0,0E0,0E0,0E0,0E0,0E0,0E0,0E0,0E0,0E0,0E0,0E0,0E0,0E0],"parents":[2147483647,0,0,1,1,2,2,3,3,4,4,5,5,6,6,7,7,8,8,9,9,10,10,11,11,12,12,13,13,15,15,16,16,17,17,19,19,20,20,21,21,22,22,23,23,24,24,25,25,27,27],"right_children":[2,4,6,8,10,12,14,16,18,20,22,24,26,28,-1,30,32,34,-1,36,38,40,42,44,46,48,-1,50,-1,-1,-1,-1,-1,-1,-1,-1,-1,-1,-1,-1,-1,-1,-1,-1,-1,-1,-1,-1,-1,-1,-1],"split_conditions":[3.3333334E-1,2.8158468E-1,1E0,1.8181798E-1,1E0,8.950716E-1,3E0,-2.4782608E-1,0E0,-3.5148555E-1,-8.7627244E-1,1.0219777E0,1E0,2E0,2.6348425E-2,5.5679893E-1,-4.7944388E-1,1.1514399E0,-1.098011E-2,-1.83585E-1,9.1571194E-1,-1.6748263E0,3.3043694E-1,-4.1304347E-1,1.2349362E-1,1.1937716E0,9.23404E-2,1.0652006E0,2.0594893E-2,-2.9313121E-2,1.0727044E-2,-2.1656444E-2,7.0022526E-3,5.1727768E-2,-1.2995931E-2,9.043823E-3,-5.43085E-2,-3.579719E-2,-8.246552E-3,-1.1035596E-2,4.7298413E-2,-2.905309E-2,-0E0,-4.111377E-3,3.9337557E-2,7.241719E-2,1.824766E-2,-4.244929E-2,3.2411177E-2,-3.0171683E-2,1.5384826E-2],"split_indices":[2,15,3,15,20,40,6,36,2,40,40,23,5,16,0,27,41,41,0,29,23,41,41,36,34,34,0,40,0,0,0,0,0,0,0,0,0,0,0,0,0,0,0,0,0,0,0,0,0,0,0],"split_type":[0,0,0,0,0,0,0,0,0,0,0,0,0,0,0,0,0,0,0,0,0,0,0,0,0,0,0,0,0,0,0,0,0,0,0,0,0,0,0,0,0,0,0,0,0,0,0,0,0,0,0],"sum_hessian":[6.32E2,4.11E2,2.21E2,2.86E2,1.25E2,1.9E2,3.1E1,2.68E2,1.8E1,1.08E2,1.7E1,1.72E2,1.8E1,2.7E1,4E0,1.01E2,1.67E2,1.4E1,4E0,4.6E1,6.2E1,8E0,9E0,1.32E2,4E1,1.6E1,2E0,2.6E1,1E0,8.2E1,1.9E1,4.2E1,1.25E2,1.3E1,1E0,1E0,4.5E1,3.3E1,2.9E1,3E0,5E0,6E0,3E0,2.1E1,1.11E2,3.2E1,8E0,1.4E1,2E0,2.5E1,1E0],"tree_param":{"num_deleted":"0","num_feature":"44","num_nodes":"51","size_leaf_vector":"1"}},{"base_weights":[-6.611492E-3,-2.680895E-1,5.098293E-1,5.8488934E-3,-5.143728E-1,-1.487704E-1,7.605097E-1,-4.275841E-1,1.8836729E-1,-6.539168E-1,-2.5376984E-1,4.4532728E-1,-6.8564737E-1,6.2351596E-1,1.3117665E0,1.432608E-3,-8.599819E-1,-1.8624729E-1,5.5150795E-1,-7.8133583E-1,-2.7193844E-1,-4.912478E-1,5.292513E-1,-1.7284846E-2,5.8971906E-1,-4.0494016E-1,-1.0570703E0,7.111417E-1,-7.1499184E-2,1.5493505E0,-2.9743358E-2,-7.5361924E-3,2.3511145E-2,5.2836323E-3,-4.681514E-2,-1.9453961E-2,2.6452748E-2,-2.7643933E-3,4.662603E-2,1.7698522E-3,-4.3302875E-2,-4.674768E-2,-7.0059686E-3,1.3750586E-2,-3.3193633E-2,5.722065E-2,-2.235738E-2,1.5425429E-2,5.681139E-2,-2.339333E-3,-4.1318685E-2,-5.6854613E-2,-0E0,3.89684E-2,-7.636785E-3,-1.6168298E-2,1.7176433E-2,4.308632E-2,9.198667E-2],"categories":[],"categories_nodes":[],"categories_segments":[],"categories_sizes":[],"default_left":[0,0,0,0,0,0,0,0,0,0,0,0,0,0,0,0,0,0,0,0,0,0,0,0,0,0,0,0,0,0,0,0,0,0,0,0,0,0,0,0,0,0,0,0,0,0,0,0,0,0,0,0,0,0,0,0,0,0,0],"id":2,"left_children":[1,3,5,7,9,11,13,15,17,19,21,23,25,27,29,31,33,35,37,39,41,43,45,-1,47,49,51,53,55,57,-1,-1,-1,-1,-1,-1,-1,-1,-1,-1,-1,-1,-1,-1,-1,-1,-1,-1,-1,-1,-1,-1,-1,-1,-1,-1,-1,-1,-1],"loss_changes":[8.640173E1,2.8727108E1,3.5670395E1,1.6036741E1,7.8891716E0,1.9466812E1,1.0769493E1,1.121744E1,1.9592648E1,6.73954E0,1.5132214E1,3.5405698E0,2.7621021E0,7.84927E0,1.4606674E1,2.314037E0,2.39299E0,1.0492963E1,1.7016655E1,7.5867767E0,3.0826132E0,8.422534E0,1.1993669E1,0E0,3.3470898E0,2.8927786E0,9.895792E-1,6.841816E0,1.6770452E0,3.5357132E0,0E0,0E0,0E0,0E0,0E0,0E0,0E0,0E0,0E0,0E0,0E0,0E0,0E0,0E0,0E0,0E0,0E0,0E0,0E0,0E0,0E0,0E0,0E0,0E0,0E0,0E0,0E0,0E0,0E0],"parents":[2147483647,0,0,1,1,2,2,3,3,4,4,5,5,6,6,7,7,8,8,9,9,10,10,11,11,12,12,13,13,14,14,15,15,16,16,17,17,18,18,19,19,20,20,21,21,22,22,24,24,25,25,26,26,27,27,28,28,29,29],"right_children":[2,4,6,8,10,12,14,16,18,20,22,24,26,28,30,32,34,36,38,40,42,44,46,-1,48,50,52,54,56,58,-1,-1,-1,-1,-1,-1,-1,-1,-1,-1,-1,-1,-1,-1,-1,-1,-1,-1,-1,-1,-1,-1,-1,-1,-1,-1,-1,-1,-1],"split_conditions":[3.3333334E-1,1E0,-1.9726577E-1,-1.9051638E-1,5.208805E-1,1.04387835E-1,9.655638E-1,-6.037274E-2,-2.4190672E-1,1E0,1.8277061E-1,0E0,8.6991054E-1,1E0,1E0,-3.7239325E-1,-1.3481132E0,3.607162E-1,-7.081104E-2,-2.8307829E-2,6.781156E-3,-3.17452E-1,1.3207052E0,-1.7284846E-2,6.729374E-1,3.2329693E-1,-4.2891073E-1,9.083398E-1,-4.126915E-2,-4.409105E-1,-2.9743358E-2,-7.5361924E-3,2.3511145E-2,5.2836323E-3,-4.681514E-2,-1.9453961E-2,2.6452748E-2,-2.7643933E-3,4.662603E-2,1.7698522E-3,-4.3302875E-2,-4.674768E-2,-7.0059686E-3,1.3750586E-2,-3.3193633E-2,5.722065E-2,-2.235738E-2,1.5425429E-2,5.681139E-2,-2.339333E-3,-4.1318685E-2,-5.6854613E-2,-0E0,3.89684E-2,-7.636785E-3,-1.6168298E-2,1.7176433E-2,4.308632E-2,9.198667E-2],"split_indices":[2,6,26,41,24,40,39,30,32,8,41,13,39,5,9,41,41,38,26,38,30,39,42,0,42,41,27,40,30,27,0,0,0,0,0,0,0,0,0,0,0,0,0,0,0,0,0,0,0,0,0,0,0,0,0,0,0,0,0],"split_type":[0,0,0,0,0,0,0,0,0,0,0,0,0,0,0,0,0,0,0,0,0,0,0,0,0,0,0,0,0,0,0,0,0,0,0,0,0,0,0,0,0,0,0,0,0,0,0,0,0,0,0,0,0,0,0,0,0,0,0],"sum_hessian":[6.38E2,4.24E2,2.14E2,2.01E2,2.23E2,5.9E1,1.55E2,5.9E1,1.42E2,1.44E2,7.9E1,2.8E1,3.1E1,1.26E2,2.9E1,3E1,2.9E1,7E1,7.2E1,1.07E2,3.7E1,6.1E1,1.8E1,4E0,2.4E1,1.9E1,1.2E1,1.12E2,1.4E1,2.6E1,3E0,2.3E1,7E0,2E0,2.7E1,5.5E1,1.5E1,2.8E1,4.4E1,1E1,9.7E1,5E0,3.2E1,1.1E1,5E1,1.1E1,7E0,1.7E1,7E0,1.1E1,8E0,1.1E1,1E0,1.04E2,8E0,9E0,5E0,9E0,1.7E1],"tree_param":{"num_deleted":"0","num_feature":"44","num_nodes":"59","size_leaf_vector":"1"}},{"base_weights":[-1.6178122E-2,-2.7455E-1,4.7493002E-1,-4.5421386E-1,4.7411844E-2,-1.8499666E-1,6.901122E-1,-5.6999106E-2,-5.573526E-1,-2.115562E-1,4.9357775E-1,-4.4838604E-1,1.0614331E0,5.454914E-1,1.0340636E0,-5.002894E-1,3.156833E-1,-5.8867574E-1,3.154224E-2,-1.2840341E-1,-7.884509E-1,1.0878487E0,-1.5666529E-3,-7.200427E-1,-1.5388E-1,1.2812985E0,-2.04339E-2,-3.6623776E-1,6.050422E-1,-5.635728E-3,1.1407264E0,2.9256677E-3,-3.3374783E-2,-9.545577E-3,4.546091E-2,-6.295487E-2,-2.7094444E-2,-2.259485E-3,-3.1819504E-2,-5.3602666E-2,-1.5475317E-2,2.4349827E-2,7.804682E-2,-1.1409194E-2,6.239016E-2,-3.9094288E-2,1.50586935E-2,3.5903044E-3,-3.1336397E-2,7.391035E-2,1.8070642E-2,-0E0,-3.008002E-2,3.221531E-2,-3.103046E-2,3.6210943E-2,7.066983E-2],"categories":[],"categories_nodes":[],"categories_segments":[],"categories_sizes":[],"default_left":[0,0,0,0,0,0,0,0,0,0,0,0,0,0,0,0,0,0,0,0,0,0,0,0,0,0,0,0,0,0,0,0,0,0,0,0,0,0,0,0,0,0,0,0,0,0,0,0,0,0,0,0,0,0,0,0,0],"id":3,"left_children":[1,3,5,7,9,11,13,15,17,19,21,23,25,27,29,31,33,35,-1,37,39,41,43,45,47,49,-1,51,53,-1,55,-1,-1,-1,-1,-1,-1,-1,-1,-1,-1,-1,-1,-1,-1,-1,-1,-1,-1,-1,-1,-1,-1,-1,-1,-1,-1],"loss_changes":[8.2841675E1,2.4819836E1,3.2129185E1,1.1173061E1,1.7926199E1,1.8799225E1,7.7341995E0,9.758369E0,8.48069E0,4.5081744E0,1.6882576E1,3.5620193E0,3.8431683E0,6.869362E0,6.224987E0,2.6227078E0,9.867225E0,5.8187637E0,0E0,3.5807002E0,1.1599951E0,6.425688E0,9.242887E0,1.7992802E0,2.6616597E0,9.11994E-1,0E0,7.3657477E-1,5.9364815E0,0E0,3.8732414E0,0E0,0E0,0E0,0E0,0E0,0E0,0E0,0E0,0E0,0E0,0E0,0E0,0E0,0E0,0E0,0E0,0E0,0E0,0E0,0E0,0E0,0E0,0E0,0E0,0E0,0E0],"parents":[2147483647,0,0,1,1,2,2,3,3,4,4,5,5,6,6,7,7,8,8,9,9,10,10,11,11,12,12,13,13,14,14,15,15,16,16,17,17,19,19,20,20,21,21,22,22,23,23,24,24,25,25,27,27,28,28,30,30],"right_children":[2,4,6,8,10,12,14,16,18,20,22,24,26,28,30,32,34,36,-1,38,40,42,44,46,48,50,-1,52,54,-1,56,-1,-1,-1,-1,-1,-1,-1,-1,-1,-1,-1,-1,-1,-1,-1,-1,-1,-1,-1,-1,-1,-1,-1,-1,-1,-1],"split_conditions":[3.3333334E-1,1.1991585E-1,-2.0198958E-1,-1.778193E-1,-2.3580326E-2,1.9569813E0,8.3221686E-1,3.1691736E-1,1.0336324E0,1.0412694E0,0E0,-3.8413557E-1,1E0,-4.2265344E-1,-2.3108242E-1,8.655867E-2,5.631659E-1,-1.3987013E0,3.154224E-2,1.0053921E0,2.0563962E0,3.374691E-1,1.0336324E0,9.2777073E-1,3.2814032E-1,1.0336324E0,-2.04339E-2,-3.48065E-2,1.0966213E0,-5.635728E-3,-1.4519807E-3,2.9256677E-3,-3.3374783E-2,-9.545577E-3,4.546091E-2,-6.295487E-2,-2.7094444E-2,-2.259485E-3,-3.1819504E-2,-5.3602666E-2,-1.5475317E-2,2.4349827E-2,7.804682E-2,-1.1409194E-2,6.239016E-2,-3.9094288E-2,1.50586935E-2,3.5903044E-3,-3.1336397E-2,7.391035E-2,1.8070642E-2,-0E0,-3.008002E-2,3.221531E-2,-3.103046E-2,3.6210943E-2,7.066983E-2],"split_indices":[2,36,26,29,28,23,29,42,22,23,2,38,3,42,41,26,26,26,0,43,17,28,22,11,42,22,0,28,42,0,37,0,0,0,0,0,0,0,0,0,0,0,0,0,0,0,0,0,0,0,0,0,0,0,0,0,0],"split_type":[0,0,0,0,0,0,0,0,0,0,0,0,0,0,0,0,0,0,0,0,0,0,0,0,0,0,0,0,0,0,0,0,0,0,0,0,0,0,0,0,0,0,0,0,0,0,0,0,0,0,0,0,0,0,0,0,0],"sum_hessian":[6.51E2,4.27E2,2.24E2,2.74E2,1.53E2,5.5E1,1.69E2,5.7E1,2.17E2,9.7E1,5.6E1,4.6E1,9E0,1.21E2,4.8E1,2.6E1,3.1E1,2.12E2,5E0,8.6E1,1.1E1,2.5E1,3.1E1,2.3E1,2.3E1,8E0,1E0,7E0,1.14E2,4E0,4.4E1,6E0,2E1,1.7E1,1.4E1,1.2E1,2E2,7.5E1,1.1E1,6E0,5E0,1.2E1,1.3E1,2.7E1,4E0,2.2E1,1E0,1.6E1,7E0,6E0,2E0,3E0,4E0,1.11E2,3E0,1.9E1,2.5E1],"tree_param":{"num_deleted":"0","num_feature":"44","num_nodes":"57","size_leaf_vector":"1"}},{"base_weights":[-6.1411797E-3,-2.2930035E-1,4.0337926E-1,-3.2579976E-3,-4.289975E-1,-2.0466746E-1,5.929705E-1,-2.1260647E-1,3.931221E-1,-2.441629E-1,-6.916176E-1,2.1674661E-1,-6.3739395E-1,6.462011E-1,-7.854061E-1,-3.853081E-1,1.9605745E-1,3.645821E-2,1.1650952E0,-1.7526928E-1,-5.890441E-2,-6.0358383E-2,-5.8370787E-1,6.5934956E-1,-1.285819E-1,5.293373E-3,-7.6984864E-1,5.179622E-1,1.1676326E0,-5.0496407E-2,-5.803377E-3,1.8654114E-2,-2.3067849E-2,-2.2414115E-3,3.0359438E-2,-2.460581E-2,3.2986067E-2,6.982322E-2,1.4935004E-2,3.0131154E-3,-2.16367E-2,2.263999E-2,-3.3823647E-2,5.6893315E-2,-3.5948826E-3,1.7908305E-2,-3.667221E-2,-4.498733E-2,-3.8143673E-3,3.0369285E-2,-5.8159153E-3,6.069189E-2,-5.273352E-3],"categories":[],"categories_nodes":[],"categories_segments":[],"categories_sizes":[],"default_left":[0,0,0,0,0,0,0,0,0,0,0,0,0,0,0,0,0,0,0,0,0,0,0,0,0,0,0,0,0,0,0,0,0,0,0,0,0,0,0,0,0,0,0,0,0,0,0,0,0,0,0,0,0],"id":4,"left_children":[1,3,5,7,9,11,13,15,17,19,21,23,25,27,29,31,33,35,37,39,-1,-1,41,43,45,-1,47,49,51,-1,-1,-1,-1,-1,-1,-1,-1,-1,-1,-1,-1,-1,-1,-1,-1,-1,-1,-1,-1,-1,-1,-1,-1],"loss_changes":[6.0391323E1,1.92753E1,2.7020508E1,1.6827806E1,1.0756432E1,1.039221E1,1.3553799E1,9.481198E0,1.9110813E1,8.344284E0,4.2901306E0,4.570316E0,2.904458E0,1.0727905E1,8.221488E-1,5.602378E0,4.0448813E0,1.6484026E1,3.8234177E0,7.764741E0,0E0,0E0,7.92465E0,4.7372885E0,5.3052864E0,0E0,1.9959679E0,8.060497E0,2.180046E0,0E0,0E0,0E0,0E0,0E0,0E0,0E0,0E0,0E0,0E0,0E0,0E0,0E0,0E0,0E0,0E0,0E0,0E0,0E0,0E0,0E0,0E0,0E0,0E0],"parents":[2147483647,0,0,1,1,2,2,3,3,4,4,5,5,6,6,7,7,8,8,9,9,10,10,11,11,12,12,13,13,14,14,15,15,16,16,17,17,18,18,19,19,22,22,23,23,24,24,26,26,27,27,28,28],"right_children":[2,4,6,8,10,12,14,16,18,20,22,24,26,28,30,32,34,36,38,40,-1,-1,42,44,46,-1,48,50,52,-1,-1,-1,-1,-1,-1,-1,-1,-1,-1,-1,-1,-1,-1,-1,-1,-1,-1,-1,-1,-1,-1,-1,-1],"split_conditions":[3.3333334E-1,1E0,-2.0198958E-1,3.1630075E-1,3.625794E-1,1.04387835E-1,1E0,9.6267855E-1,3.516624E-3,9.974025E-1,-1.3866771E0,1E0,2.3760523E-1,9.655638E-1,3E0,-3.9218876E-1,7.6254183E-1,5.631659E-1,9.2788535E-1,-9.2021026E-2,-5.890441E-2,-6.0358383E-2,-3.9918777E-1,1.185233E0,6.666667E-1,5.293373E-3,-2.4879397E-1,8.6991465E-1,1E0,-5.0496407E-2,-5.803377E-3,1.8654114E-2,-2.3067849E-2,-2.2414115E-3,3.0359438E-2,-2.460581E-2,3.2986067E-2,6.982322E-2,1.4935004E-2,3.0131154E-3,-2.16367E-2,2.263999E-2,-3.3823647E-2,5.6893315E-2,-3.5948826E-3,1.7908305E-2,-3.667221E-2,-4.498733E-2,-3.8143673E-3,3.0369285E-2,-5.8159153E-3,6.069189E-2,-5.273352E-3],"split_indices":[2,6,26,42,15,40,9,22,32,32,26,0,28,39,1,39,36,26,22,39,0,0,39,28,2,0,26,39,13,0,0,0,0,0,0,0,0,0,0,0,0,0,0,0,0,0,0,0,0,0,0,0,0],"split_type":[0,0,0,0,0,0,0,0,0,0,0,0,0,0,0,0,0,0,0,0,0,0,0,0,0,0,0,0,0,0,0,0,0,0,0,0,0,0,0,0,0,0,0,0,0,0,0,0,0,0,0,0,0],"sum_hessian":[6.59E2,4.27E2,2.32E2,2.01E2,2.26E2,5.5E1,1.77E2,1.32E2,6.9E1,1.34E2,9.2E1,2.8E1,2.7E1,1.71E2,6E0,9.3E1,3.9E1,4.8E1,2.1E1,1.26E2,8E0,1.4E1,7.8E1,1.2E1,1.6E1,4E0,2.3E1,1.39E2,3.2E1,4E0,2E0,8E0,8.5E1,2.5E1,1.4E1,2.6E1,2.2E1,1.6E1,5E0,6.6E1,6E1,6E0,7.2E1,7E0,5E0,9E0,7E0,1.9E1,4E0,1.22E2,1.7E1,3.1E1,1E0],"tree_param":{"num_deleted":"0","num_feature":"44","num_nodes":"53","size_leaf_vector":"1"}},{"base_weights":[-3.0792523E-3,-2.030955E-1,4.0941086E-1,-4.0156364E-1,3.3632927E-2,-1.2566474E-1,6.711645E-1,-2.2296171E-1,-7.318548E-1,2.2588229E-1,-3.2324272E-1,-3.4143528E-1,3.1593615E-1,1.7682362E-1,8.074986E-1,-3.087576E-1,6.866782E-1,9.810242E-3,-7.8134173E-1,3.6601033E-2,5.9720296E-1,3.100207E-3,-6.34732E-1,-5.241419E-1,1.4562719E-1,-3.0902192E-2,4.8355442E-1,-8.755862E-2,8.036586E-1,8.8229936E-1,-1.5209949E-1,-5.8047947E-2,-1.253192E-2,1.3418547E-3,5.195818E-2,-4.092E-2,2.1081988E-2,-9.150325E-3,2.0331565E-2,-2.1366721E-2,4.524973E-2,3.208844E-2,-2.6746154E-2,-3.886192E-2,1.0721202E-2,-4.451094E-2,-1.077526E-2,2.747256E-2,1.2101129E-3,3.0741787E-2,-2.3787275E-2,1.0095105E-2,-2.6149694E-2,4.794393E-2,-1.23330215E-2,4.8338003E-2,1.2553756E-2,-2.0522824E-2,4.5368906E-2],"categories":[],"categories_nodes":[],"categories_segments":[],"categories_sizes":[],"default_left":[0,0,0,0,0,0,0,0,0,0,0,0,0,0,0,0,0,0,0,0,0,0,0,0,0,0,0,0,0,0,0,0,0,0,0,0,0,0,0,0,0,0,0,0,0,0,0,0,0,0,0,0,0,0,0,0,0,0,0],"id":5,"left_children":[1,3,5,7,9,11,13,15,17,19,21,23,25,27,29,31,33,-1,35,37,39,41,43,45,47,-1,49,51,53,55,57,-1,-1,-1,-1,-1,-1,-1,-1,-1,-1,-1,-1,-1,-1,-1,-1,-1,-1,-1,-1,-1,-1,-1,-1,-1,-1,-1,-1],"loss_changes":[5.4845654E1,2.1098705E1,3.0531475E1,1.4135063E1,1.4128148E1,6.9709034E0,9.598526E0,1.2661164E1,4.115597E0,9.332824E0,7.3840995E0,4.474668E0,4.0426598E0,5.6108704E0,8.389984E0,6.8486595E0,3.1216922E0,0E0,3.995758E0,7.4103084E0,1.4624985E1,1.2724248E1,4.7003145E0,3.7650318E0,6.1581683E-1,0E0,2.951116E0,3.1626961E0,1.9380445E0,5.2867355E0,2.786258E0,0E0,0E0,0E0,0E0,0E0,0E0,0E0,0E0,0E0,0E0,0E0,0E0,0E0,0E0,0E0,0E0,0E0,0E0,0E0,0E0,0E0,0E0,0E0,0E0,0E0,0E0,0E0,0E0],"parents":[2147483647,0,0,1,1,2,2,3,3,4,4,5,5,6,6,7,7,8,8,9,9,10,10,11,11,12,12,13,13,14,14,15,15,16,16,18,18,19,19,20,20,21,21,22,22,23,23,24,24,26,26,27,27,28,28,29,29,30,30],"right_children":[2,4,6,8,10,12,14,16,18,20,22,24,26,28,30,32,34,-1,36,38,40,42,44,46,48,-1,50,52,54,56,58,-1,-1,-1,-1,-1,-1,-1,-1,-1,-1,-1,-1,-1,-1,-1,-1,-1,-1,-1,-1,-1,-1,-1,-1,-1,-1,-1,-1],"split_conditions":[3.3333334E-1,-6.822251E-2,-1.8996711E-1,9.8168665E-1,3.5184848E-1,4.5833975E-1,-4.040458E-1,1.3181205E0,-3.9552185E-1,4.769881E-2,-2.6279235E-1,-2.05365E-1,-1.664556E-1,1E0,5.2808285E-1,-1.4550753E0,-4.7474426E-1,9.810242E-3,2E0,3.1425247E-1,-1.0649962E-1,4.705517E-1,5E-1,-6.905312E-1,-9.7169876E-2,-3.0902192E-2,1.9917558E0,1.0068674E0,3.1185358E0,5.382063E-1,1.0519571E0,-5.8047947E-2,-1.253192E-2,1.3418547E-3,5.195818E-2,-4.092E-2,2.1081988E-2,-9.150325E-3,2.0331565E-2,-2.1366721E-2,4.524973E-2,3.208844E-2,-2.6746154E-2,-3.886192E-2,1.0721202E-2,-4.451094E-2,-1.077526E-2,2.747256E-2,1.2101129E-3,3.0741787E-2,-2.3787275E-2,1.0095105E-2,-2.6149694E-2,4.794393E-2,-1.23330215E-2,4.8338003E-2,1.2553756E-2,-2.0522824E-2,4.5368906E-2],"split_indices":[2,32,26,25,34,17,34,42,42,28,28,26,29,23,26,26,32,0,20,42,26,17,21,38,32,0,18,43,23,15,26,0,0,0,0,0,0,0,0,0,0,0,0,0,0,0,0,0,0,0,0,0,0,0,0,0,0,0,0],"split_type":[0,0,0,0,0,0,0,0,0,0,0,0,0,0,0,0,0,0,0,0,0,0,0,0,0,0,0,0,0,0,0,0,0,0,0,0,0,0,0,0,0,0,0,0,0,0,0,0,0,0,0,0,0,0,0,0,0,0,0],"sum_hessian":[6.63E2,4.47E2,2.16E2,2.43E2,2.04E2,7.1E1,1.45E2,1.59E2,8.4E1,1.33E2,7.1E1,4.8E1,2.3E1,3.2E1,1.13E2,1.46E2,1.3E1,4E0,8E1,8.9E1,4.4E1,3.5E1,3.6E1,3.5E1,1.3E1,3E0,2E1,2.3E1,9E0,1.05E2,8E0,8E0,1.38E2,5E0,8E0,7.8E1,2E0,5.6E1,3.3E1,1E1,3.4E1,1.6E1,1.9E1,3.1E1,5E0,1.5E1,2E1,2E0,1.1E1,1.8E1,2E0,1.4E1,9E0,8E0,1E0,9.2E1,1.3E1,7E0,1E0],"tree_param":{"num_deleted":"0","num_feature":"44","num_nodes":"59","size_leaf_vector":"1"}},{"base_weights":[-0E0,-2.315695E-1,4.0806115E-1,8.219877E-3,-4.4580808E-1,-2.8939304E-1,6.1107457E-1,-2.0506848E-1,3.136652E-1,-2.454798E-1,-7.684211E-1,-5.3184307E-1,2.1949829E-1,2.9195333E-1,7.240004E-1,-2.9889795E-1,5.608671E-1,1.09751485E-1,1.3798419E0,-6.9568354E-1,-6.008963E-2,-8.7002355E-1,6.04391E-2,-5.217151E-2,-3.000171E-1,-3.9122593E-2,7.5992715E-1,4.142505E-1,-1.4356766E-2,7.9892313E-1,-3.2884113E-2,-1.1610859E-2,-3.5429653E-2,-1.2276589E-2,4.1866995E-2,-4.447432E-3,3.4713563E-2,8.1618585E-2,1.892784E-2,-4.0605977E-2,4.1403603E-3,-9.441728E-3,1.9727778E-2,-8.887088E-3,-4.801087E-2,-1.325269E-2,2.2947138E-2,-3.3040207E-2,-2.212879E-4,4.7417725E-3,-2.7529726E-2,-0E0,4.5032583E-2,2.692748E-2,3.6851296E-3,-1.0587794E-2,2.0139633E-2,4.322065E-2,-1.19022485E-2,-2.4441062E-2,2.81923E-2],"categories":[],"categories_nodes":[],"categories_segments":[],"categories_sizes":[],"default_left":[0,0,0,0,0,0,0,0,0,0,0,0,0,0,0,0,0,0,0,0,0,0,0,0,0,0,0,0,0,0,0,0,0,0,0,0,0,0,0,0,0,0,0,0,0,0,0,0,0,0,0,0,0,0,0,0,0,0,0,0,0],"id":6,"left_children":[1,3,5,7,9,11,13,15,17,19,21,23,25,27,29,31,33,35,37,39,41,43,45,-1,47,49,51,53,55,57,59,-1,-1,-1,-1,-1,-1,-1,-1,-1,-1,-1,-1,-1,-1,-1,-1,-1,-1,-1,-1,-1,-1,-1,-1,-1,-1,-1,-1,-1,-1],"loss_changes":[6.1878815E1,2.1520975E1,3.3766434E1,1.2974474E1,1.3992882E1,6.810532E0,6.3178406E0,8.549921E0,1.7527061E1,1.1400561E1,7.207535E0,3.9407778E0,2.6176023E0,1.9189796E0,7.7584457E0,2.6098433E0,3.1630902E0,8.252377E0,2.468069E0,3.765955E0,5.8487263E0,4.3985023E0,1.4381347E0,0E0,2.809981E0,9.8849684E-1,5.909307E-1,1.422955E0,1.3013638E0,8.621445E0,3.8050456E0,0E0,0E0,0E0,0E0,0E0,0E0,0E0,0E0,0E0,0E0,0E0,0E0,0E0,0E0,0E0,0E0,0E0,0E0,0E0,0E0,0E0,0E0,0E0,0E0,0E0,0E0,0E0,0E0,0E0,0E0],"parents":[2147483647,0,0,1,1,2,2,3,3,4,4,5,5,6,6,7,7,8,8,9,9,10,10,11,11,12,12,13,13,14,14,15,15,16,16,17,17,18,18,19,19,20,20,21,21,22,22,24,24,25,25,26,26,27,27,28,28,29,29,30,30],"right_children":[2,4,6,8,10,12,14,16,18,20,22,24,26,28,30,32,34,36,38,40,42,44,46,-1,48,50,52,54,56,58,60,-1,-1,-1,-1,-1,-1,-1,-1,-1,-1,-1,-1,-1,-1,-1,-1,-1,-1,-1,-1,-1,-1,-1,-1,-1,-1,-1,-1,-1,-1],"split_conditions":[3.3333334E-1,1E0,-2.4879397E-1,3.0156518E-3,3.2935363E-1,8.769026E-2,-4.7428003E-1,9.531773E-1,3.2608697E-1,1.4682706E-2,1E0,9.1571194E-1,1.8921989E0,8.4782606E-1,9.0421915E-1,1E0,5.473931E-1,3.959781E-1,9.2777073E-1,5E-1,1E0,2.789363E-1,2E0,-5.217151E-2,-9.3716455E-1,6.666667E-1,-1.301892E0,-4.5808423E-3,7.9805183E-1,4.732676E-1,1.306086E0,-1.1610859E-2,-3.5429653E-2,-1.2276589E-2,4.1866995E-2,-4.447432E-3,3.4713563E-2,8.1618585E-2,1.892784E-2,-4.0605977E-2,4.1403603E-3,-9.441728E-3,1.9727778E-2,-8.887088E-3,-4.801087E-2,-1.325269E-2,2.2947138E-2,-3.3040207E-2,-2.212879E-4,4.7417725E-3,-2.7529726E-2,-0E0,4.5032583E-2,2.692748E-2,3.6851296E-3,-1.0587794E-2,2.0139633E-2,4.322065E-2,-1.19022485E-2,-2.4441062E-2,2.81923E-2],"split_indices":[2,6,26,38,15,27,41,36,36,27,20,23,23,36,40,13,26,40,11,7,20,38,21,0,27,2,26,38,40,15,40,0,0,0,0,0,0,0,0,0,0,0,0,0,0,0,0,0,0,0,0,0,0,0,0,0,0,0,0,0,0],"split_type":[0,0,0,0,0,0,0,0,0,0,0,0,0,0,0,0,0,0,0,0,0,0,0,0,0,0,0,0,0,0,0,0,0,0,0,0,0,0,0,0,0,0,0,0,0,0,0,0,0,0,0,0,0,0,0,0,0,0,0,0,0],"sum_hessian":[6.53E2,4.17E2,2.36E2,1.97E2,2.2E2,5.3E1,1.83E2,1.16E2,8.1E1,1.37E2,8.3E1,3.6E1,1.7E1,4.9E1,1.34E2,1.04E2,1.2E1,6.9E1,1.2E1,3.9E1,9.8E1,7.4E1,9E0,1E1,2.6E1,1.2E1,5E0,3.5E1,1.4E1,1.22E2,1.2E1,9.1E1,1.3E1,3E0,9E0,5.2E1,1.7E1,9E0,3E0,3.4E1,5E0,7.7E1,2.1E1,9E0,6.5E1,5E0,4E0,1.1E1,1.5E1,1E1,2E0,1E0,4E0,2.5E1,1E1,1E1,4E0,1.15E2,7E0,7E0,5E0],"tree_param":{"num_deleted":"0","num_feature":"44","num_nodes":"61","size_leaf_vector":"1"}},{"base_weights":[1.9259531E-2,-1.8621144E-1,3.9423782E-1,2.4753624E-1,-2.64505E-1,4.9924925E-1,-3.2614756E-1,-5.0558805E-1,7.031599E-1,-2.9184607E-1,5.4209423E-1,1.5487994E-1,6.990369E-1,3.5729434E-2,-5.668784E-1,4.2442776E-2,-7.3341465E-1,1.4392328E-1,1.130218E0,-1.7366916E-1,-4.8082623E-1,3.3173114E-3,8.581505E-1,4.333996E-1,-3.344894E-1,4.681717E-1,1.0364575E0,1.21204555E-2,-7.3733354E-1,-3.9663266E-2,-2.8302653E-3,5.771463E-2,-1.8480452E-3,6.758377E-2,-1.1731167E-2,-1.0478692E-2,3.321565E-2,-1.5764212E-2,-4.495583E-2,4.8799414E-2,1.2780881E-3,3.2853033E-2,7.3824855E-3,-2.9349128E-2,3.3624128E-2,4.08855E-2,1.09049715E-2,-2.3349784E-2,5.5469718E-2,-3.9251014E-3,-4.94483E-2],"categories":[],"categories_nodes":[],"categories_segments":[],"categories_sizes":[],"default_left":[0,0,0,0,0,0,0,0,0,0,0,0,0,0,0,0,0,0,0,0,0,0,0,0,0,0,0,0,0,0,0,0,0,0,0,0,0,0,0,0,0,0,0,0,0,0,0,0,0,0,0],"id":7,"left_children":[1,3,5,7,9,11,13,15,17,19,21,23,25,-1,27,-1,29,31,33,35,37,-1,39,41,43,45,47,-1,49,-1,-1,-1,-1,-1,-1,-1,-1,-1,-1,-1,-1,-1,-1,-1,-1,-1,-1,-1,-1,-1,-1],"loss_changes":[5.048305E1,1.4432102E1,1.773064E1,2.2679447E1,8.05031E0,1.3772892E1,7.906432E0,8.325478E0,9.50181E0,7.622959E0,1.654973E0,1.0513581E1,9.335323E0,0E0,3.6769094E0,0E0,7.612734E-1,3.6268334E0,7.380686E0,6.592641E0,8.804619E0,0E0,5.616698E-1,2.9541578E0,7.5052843E0,6.536045E0,6.1748314E0,0E0,3.2970686E0,0E0,0E0,0E0,0E0,0E0,0E0,0E0,0E0,0E0,0E0,0E0,0E0,0E0,0E0,0E0,0E0,0E0,0E0,0E0,0E0,0E0,0E0],"parents":[2147483647,0,0,1,1,2,2,3,3,4,4,5,5,6,6,7,7,8,8,9,9,10,10,11,11,12,12,14,14,16,16,17,17,18,18,19,19,20,20,22,22,23,23,24,24,25,25,26,26,28,28],"right_children":[2,4,6,8,10,12,14,16,18,20,22,24,26,-1,28,-1,30,32,34,36,38,-1,40,42,44,46,48,-1,50,-1,-1,-1,-1,-1,-1,-1,-1,-1,-1,-1,-1,-1,-1,-1,-1,-1,-1,-1,-1,-1,-1],"split_conditions":[3.3333334E-1,-1.8301256E-1,9.5547384E-1,-1.8389262E-1,1.303823E0,-7.0067324E-2,-4.961478E-2,-1.1121213E0,0E0,4.6880874E-1,4.868421E-1,1.0169249E0,3.805998E-2,3.5729434E-2,-1.2576962E-1,4.2442776E-2,1E0,-1.1121213E0,-3.2636873E-2,1.2677398E0,1E0,3.3173114E-3,2E0,6.536525E-1,1.9615177E0,6.666667E-1,-5E-1,1.21204555E-2,2.3760523E-1,-3.9663266E-2,-2.8302653E-3,5.771463E-2,-1.8480452E-3,6.758377E-2,-1.1731167E-2,-1.0478692E-2,3.321565E-2,-1.5764212E-2,-4.495583E-2,4.8799414E-2,1.2780881E-3,3.2853033E-2,7.3824855E-3,-2.9349128E-2,3.3624128E-2,4.08855E-2,1.09049715E-2,-2.3349784E-2,5.5469718E-2,-3.9251014E-3,-4.94483E-2],"split_indices":[2,29,37,29,22,30,28,15,13,37,41,43,37,0,41,0,21,15,18,40,13,0,6,32,22,2,21,0,28,0,0,0,0,0,0,0,0,0,0,0,0,0,0,0,0,0,0,0,0,0,0],"split_type":[0,0,0,0,0,0,0,0,0,0,0,0,0,0,0,0,0,0,0,0,0,0,0,0,0,0,0,0,0,0,0,0,0,0,0,0,0,0,0,0,0,0,0,0,0,0,0,0,0,0,0],"sum_hessian":[6.53E2,4.22E2,2.31E2,6.4E1,3.58E2,2.02E2,2.9E1,2.4E1,4E1,3.47E2,1.1E1,7.5E1,1.27E2,5E0,2.4E1,3E0,2.1E1,1.8E1,2.2E1,2.15E2,1.32E2,5E0,6E0,4.8E1,2.7E1,7.7E1,5E1,4E0,2E1,1.9E1,2E0,2E0,1.6E1,1.9E1,3E0,2.07E2,8E0,9.6E1,3.6E1,5E0,1E0,2.6E1,2.2E1,2.2E1,5E0,3.1E1,4.6E1,2E0,4.8E1,6E0,1.4E1],"tree_param":{"num_deleted":"0","num_feature":"44","num_nodes":"51","size_leaf_vector":"1"}},{"base_weights":[-1.53286215E-2,-1.03388496E-1,7.9515034E-1,-1.9901977E-1,3.7190422E-1,-2.1681888E-1,9.884191E-1,-2.5387338E-1,4.7968996E-1,-1.1535196E-1,5.76844E-1,-2.0370303E-2,3.6683455E-3,1.097529E0,2.1134554E-1,-9.440917E-2,-4.004061E-1,-1.0058478E-1,9.829527E-1,-4.615021E-1,1.0407718E-1,1.503385E-1,6.8861204E-1,1.158452E0,6.3997316E-3,-3.994969E-3,2.7378267E-2,9.068921E-3,-1.51194325E-2,-2.6131187E-2,-7.164391E-3,8.405759E-3,-4.2641383E-2,1.344956E-2,5.9817024E-2,-4.193178E-2,1.9368641E-3,1.4752428E-2,-3.3041384E-2,-0E0,2.4518503E-2,3.9773434E-2,1.1554334E-2,6.2045664E-2,1.2353577E-2],"categories":[],"categories_nodes":[],"categories_segments":[],"categories_sizes":[],"default_left":[0,0,0,0,0,0,0,0,0,0,0,0,0,0,0,0,0,0,0,0,0,0,0,0,0,0,0,0,0,0,0,0,0,0,0,0,0,0,0,0,0,0,0,0,0],"id":8,"left_children":[1,3,5,7,9,11,13,15,17,19,21,-1,-1,23,25,27,29,31,33,35,37,39,41,43,-1,-1,-1,-1,-1,-1,-1,-1,-1,-1,-1,-1,-1,-1,-1,-1,-1,-1,-1,-1,-1],"loss_changes":[4.6618088E1,2.6873909E1,1.2808716E1,1.8416199E1,9.998647E0,6.7165655E-1,4.215622E0,1.056794E1,1.0992242E1,2.362437E0,3.149456E0,0E0,0E0,2.4992218E0,8.738952E-1,1.2685743E1,7.306099E0,3.850142E0,2.5786724E0,2.3763607E0,2.9338217E0,8.406874E-1,2.4024525E0,2.8513641E0,0E0,0E0,0E0,0E0,0E0,0E0,0E0,0E0,0E0,0E0,0E0,0E0,0E0,0E0,0E0,0E0,0E0,0E0,0E0,0E0,0E0],"parents":[2147483647,0,0,1,1,2,2,3,3,4,4,5,5,6,6,7,7,8,8,9,9,10,10,13,13,14,14,15,15,16,16,17,17,18,18,19,19,20,20,21,21,22,22,23,23],"right_children":[2,4,6,8,10,12,14,16,18,20,22,-1,-1,24,26,28,30,32,34,36,38,40,42,44,-1,-1,-1,-1,-1,-1,-1,-1,-1,-1,-1,-1,-1,-1,-1,-1,-1,-1,-1,-1,-1],"split_conditions":[2E0,1.7033645E0,9.764869E-1,1.2903209E0,1.4844416E-1,8.3221686E-1,1.4259231E0,1E0,-3.0191733E-2,-2.4879397E-1,-1.8996711E-1,-2.0370303E-2,3.6683455E-3,1E0,1.8541448E0,-7.351792E-2,5.208805E-1,2.4209757E0,-8.2288004E-2,-4.595894E-1,4.271465E-3,-4.6301967E-1,8.404732E-1,5E-1,6.3997316E-3,-3.994969E-3,2.7378267E-2,9.068921E-3,-1.51194325E-2,-2.6131187E-2,-7.164391E-3,8.405759E-3,-4.2641383E-2,1.344956E-2,5.9817024E-2,-4.193178E-2,1.9368641E-3,1.4752428E-2,-3.3041384E-2,-0E0,2.4518503E-2,3.9773434E-2,1.1554334E-2,6.2045664E-2,1.2353577E-2],"split_indices":[8,28,23,11,32,29,18,6,18,26,26,0,0,12,28,18,24,11,28,24,30,15,32,21,0,0,0,0,0,0,0,0,0,0,0,0,0,0,0,0,0,0,0,0,0],"split_type":[0,0,0,0,0,0,0,0,0,0,0,0,0,0,0,0,0,0,0,0,0,0,0,0,0,0,0,0,0,0,0,0,0,0,0,0,0,0,0,0,0,0,0,0,0],"sum_hessian":[6.52E2,5.89E2,6.3E1,4.91E2,9.8E1,1E1,5.3E1,4.55E2,3.6E1,2.9E1,6.9E1,6E0,4E0,4.6E1,7E0,2.19E2,2.36E2,1.7E1,1.9E1,1.1E1,1.8E1,1.5E1,5.4E1,4.3E1,3E0,4E0,3E0,9.4E1,1.25E2,1.59E2,7.7E1,1.3E1,4E0,5E0,1.4E1,6E0,5E0,1.5E1,3E0,1.1E1,4E0,4.3E1,1.1E1,3.9E1,4E0],"tree_param":{"num_deleted":"0","num_feature":"44","num_nodes":"45","size_leaf_vector":"1"}},{"base_weights":[4.5120157E-3,-2.1041119E-1,2.6144537E-1,-4.6946898E-1,-6.8378046E-2,4.0249646E-1,-4.938405E-2,-1.3186905E-1,-6.072142E-1,-1.2452978E-1,8.7944955E-1,5.8481395E-2,6.477199E-1,-3.3579257E-1,5.402782E-1,-3.6473262E-1,3.363096E-1,-2.2846289E-1,-6.9207966E-1,-2.716488E-1,3.0938396E-1,5.412007E-2,-6.2261806E-3,3.4353578E-1,-2.0088306E-1,9.4062966E-1,4.515783E-1,-3.8565463E-1,3.8664356E-2,3.2959446E-1,6.7326404E-2,-3.0010981E-2,1.7295307E-2,2.5112947E-4,2.6511809E-2,-4.1533373E-3,-3.457914E-2,-3.9037466E-2,-1.1095287E-2,-4.4739754E-3,-3.2651763E-2,-4.6988172E-4,3.4070823E-2,-2.808084E-2,2.8798608E-2,-2.2324976E-2,2.2462932E-2,1.6526744E-2,5.5754412E-2,2.413383E-2,-2.0598626E-2,-2.3824839E-2,1.2114481E-3,2.3365093E-2,-1.6111856E-2],"categories":[],"categories_nodes":[],"categories_segments":[],"categories_sizes":[],"default_left":[0,0,0,0,0,0,0,0,0,0,0,0,0,0,0,0,0,0,0,0,0,0,0,0,0,0,0,0,0,0,0,0,0,0,0,0,0,0,0,0,0,0,0,0,0,0,0,0,0,0,0,0,0,0,0],"id":9,"left_children":[1,3,5,7,9,11,13,15,17,19,21,23,25,27,29,31,33,35,37,39,41,-1,-1,43,45,47,49,51,-1,53,-1,-1,-1,-1,-1,-1,-1,-1,-1,-1,-1,-1,-1,-1,-1,-1,-1,-1,-1,-1,-1,-1,-1,-1,-1],"loss_changes":[3.622983E1,1.3049855E1,1.3164192E1,5.70537E0,1.2381567E1,1.7269772E1,1.6036097E1,4.268332E0,2.610546E0,1.4124403E1,2.879427E0,6.5154448E0,6.330223E0,3.7987204E0,4.654355E0,4.584051E0,7.7900064E-1,1.0771326E0,2.7281723E0,1.1331002E1,6.7150445E0,0E0,0E0,9.161306E0,7.54585E0,4.4893646E0,2.1931849E0,2.365323E0,0E0,2.4989014E0,0E0,0E0,0E0,0E0,0E0,0E0,0E0,0E0,0E0,0E0,0E0,0E0,0E0,0E0,0E0,0E0,0E0,0E0,0E0,0E0,0E0,0E0,0E0,0E0,0E0],"parents":[2147483647,0,0,1,1,2,2,3,3,4,4,5,5,6,6,7,7,8,8,9,9,10,10,11,11,12,12,13,13,14,14,15,15,16,16,17,17,18,18,19,19,20,20,23,23,24,24,25,25,26,26,27,27,29,29],"right_children":[2,4,6,8,10,12,14,16,18,20,22,24,26,28,30,32,34,36,38,40,42,-1,-1,44,46,48,50,52,-1,54,-1,-1,-1,-1,-1,-1,-1,-1,-1,-1,-1,-1,-1,-1,-1,-1,-1,-1,-1,-1,-1,-1,-1,-1,-1],"split_conditions":[3.6386498E-3,0E0,1.0169249E0,-2.3944953E-1,5.4276717E-1,1.8534237E-1,9.2777073E-1,0E0,-3.877424E-1,1E0,4.0236747E-1,-2.9409412E-1,5.179769E-1,2.4434912E0,7.6254183E-1,-2.7828372E-1,5.632411E-1,1E0,-1.9594198E-8,1.4599637E0,0E0,5.412007E-2,-6.2261806E-3,-9.0707004E-1,1.7033645E0,-2.2529644E-1,1E0,8.71677E-1,3.8664356E-2,1E0,6.7326404E-2,-3.0010981E-2,1.7295307E-2,2.5112947E-4,2.6511809E-2,-4.1533373E-3,-3.457914E-2,-3.9037466E-2,-1.1095287E-2,-4.4739754E-3,-3.2651763E-2,-4.6988172E-4,3.4070823E-2,-2.808084E-2,2.8798608E-2,-2.2324976E-2,2.2462932E-2,1.6526744E-2,5.5754412E-2,2.413383E-2,-2.0598626E-2,-2.3824839E-2,1.2114481E-3,2.3365093E-2,-1.6111856E-2],"split_indices":[39,24,43,28,18,40,11,7,42,20,37,27,40,37,36,28,36,3,29,17,13,0,0,27,28,36,3,39,0,13,0,0,0,0,0,0,0,0,0,0,0,0,0,0,0,0,0,0,0,0,0,0,0,0,0],"split_type":[0,0,0,0,0,0,0,0,0,0,0,0,0,0,0,0,0,0,0,0,0,0,0,0,0,0,0,0,0,0,0,0,0,0,0,0,0,0,0,0,0,0,0,0,0,0,0,0,0,0,0,0,0,0,0],"sum_hessian":[6.54E2,3.56E2,2.98E2,1.25E2,2.31E2,2.05E2,9.3E1,3.7E1,8.8E1,2.19E2,1.2E1,8.6E1,1.19E2,6.3E1,3E1,2.5E1,1.2E1,1.7E1,7.1E1,1.64E2,5.5E1,1E1,2E0,4.1E1,4.5E1,4.6E1,7.3E1,6.1E1,2E0,2.5E1,5E0,1.9E1,6E0,5E0,7E0,1.4E1,3E0,5.9E1,1.2E1,1.12E2,5.2E1,3E1,2.5E1,8E0,3.3E1,3.3E1,1.2E1,1.1E1,3.5E1,7.1E1,2E0,5E1,1.1E1,2.1E1,4E0],"tree_param":{"num_deleted":"0","num_feature":"44","num_nodes":"55","size_leaf_vector":"1"}},{"base_weights":[1.0973833E-2,-1.6367768E-1,3.3958197E-1,-2.6257506E-1,1.9302313E-1,1.3024321E-1,6.3374686E-1,-3.7920296E-1,-1.5545786E-2,-5.314794E-3,8.9694315E-1,3.1838417E-1,-2.8612038E-1,-2.2684266E-1,7.376159E-1,-2.7747878E-1,-6.645209E-1,-1.3523419E-1,8.1624067E-1,-3.125996E-1,2.994783E-1,4.7898084E-2,1.0880187E0,4.4083175E-1,-2.7847383E-2,-4.119543E-2,-2.2281867E-2,-2.9090127E-2,2.573939E-2,8.028157E-1,-4.930642E-3,-1.6912898E-2,1.1384609E-2,-2.1235941E-2,-4.1623306E-2,5.753875E-3,-2.4423717E-2,-1.1564478E-3,4.8319817E-2,-2.0309938E-2,1.8319732E-2,-1.6067112E-2,3.0110816E-2,2.0172222E-2,-1.4514047E-2,-4.989932E-3,5.873723E-2,2.4243144E-2,-4.3814797E-2,-3.9007913E-2,6.0237222E-3,4.2583093E-2,-1.5658824E-2],"categories":[],"categories_nodes":[],"categories_segments":[],"categories_sizes":[],"default_left":[0,0,0,0,0,0,0,0,0,0,0,0,0,0,0,0,0,0,0,0,0,0,0,0,0,0,0,0,0,0,0,0,0,0,0,0,0,0,0,0,0,0,0,0,0,0,0,0,0,0,0,0,0],"id":10,"left_children":[1,3,5,7,9,11,13,15,17,19,21,23,25,27,29,31,33,35,37,39,41,43,45,47,-1,-1,49,-1,-1,51,-1,-1,-1,-1,-1,-1,-1,-1,-1,-1,-1,-1,-1,-1,-1,-1,-1,-1,-1,-1,-1,-1,-1],"loss_changes":[3.8353577E1,1.5438311E1,1.4127644E1,9.807823E0,1.3357265E1,1.0826223E1,8.7997055E0,6.454914E0,1.109291E1,7.1193004E0,3.2411575E0,1.0416224E1,5.9982605E0,3.2019458E0,4.838478E0,5.399846E0,1.9371338E0,8.758725E0,1.8811836E0,2.5678346E0,7.363552E0,7.296201E-1,1.9759827E0,5.257288E0,0E0,0E0,3.405707E0,0E0,0E0,4.681526E0,0E0,0E0,0E0,0E0,0E0,0E0,0E0,0E0,0E0,0E0,0E0,0E0,0E0,0E0,0E0,0E0,0E0,0E0,0E0,0E0,0E0,0E0,0E0],"parents":[2147483647,0,0,1,1,2,2,3,3,4,4,5,5,6,6,7,7,8,8,9,9,10,10,11,11,12,12,13,13,14,14,15,15,16,16,17,17,18,18,19,19,20,20,21,21,22,22,23,23,26,26,29,29],"right_children":[2,4,6,8,10,12,14,16,18,20,22,24,26,28,30,32,34,36,38,40,42,44,46,48,-1,-1,50,-1,-1,52,-1,-1,-1,-1,-1,-1,-1,-1,-1,-1,-1,-1,-1,-1,-1,-1,-1,-1,-1,-1,-1,-1,-1],"split_conditions":[3.3333334E-1,3.959781E-1,9.2777073E-1,5.208805E-1,3.597653E-1,8.146242E-1,-9.3716455E-1,1E0,2.3177749E-1,3.516624E-3,-4.7474426E-1,1.0217221E0,-3.675023E-1,1.0030534E0,5E-1,6.32478E-1,4.0236747E-1,9.8168665E-1,1E0,1.4976407E0,-4.0024826E-1,0E0,-5.968858E-1,1E0,-2.7847383E-2,-4.119543E-2,-1.7091888E-1,-2.9090127E-2,2.573939E-2,5E0,-4.930642E-3,-1.6912898E-2,1.1384609E-2,-2.1235941E-2,-4.1623306E-2,5.753875E-3,-2.4423717E-2,-1.1564478E-3,4.8319817E-2,-2.0309938E-2,1.8319732E-2,-1.6067112E-2,3.0110816E-2,2.0172222E-2,-1.4514047E-2,-4.989932E-3,5.873723E-2,2.4243144E-2,-4.3814797E-2,-3.9007913E-2,6.0237222E-3,4.2583093E-2,-1.5658824E-2],"split_indices":[2,40,11,24,24,25,27,13,32,32,32,43,27,11,24,30,37,25,19,34,41,13,34,9,0,0,29,0,0,1,0,0,0,0,0,0,0,0,0,0,0,0,0,0,0,0,0,0,0,0,0,0,0],"split_type":[0,0,0,0,0,0,0,0,0,0,0,0,0,0,0,0,0,0,0,0,0,0,0,0,0,0,0,0,0,0,0,0,0,0,0,0,0,0,0,0,0,0,0,0,0,0,0,0,0,0,0,0,0],"sum_hessian":[6.66E2,4.35E2,2.31E2,3.41E2,9.4E1,1.36E2,9.5E1,2.31E2,1.1E2,7.4E1,2E1,9.4E1,4.2E1,1E1,8.5E1,1.72E2,5.9E1,9.7E1,1.3E1,3.7E1,3.7E1,4E0,1.6E1,8.3E1,1.1E1,1.3E1,2.9E1,7E0,3E0,7.9E1,6E0,1.54E2,1.8E1,2.6E1,3.3E1,5.7E1,4E1,2E0,1.1E1,3.3E1,4E0,1.2E1,2.5E1,2E0,2E0,1E0,1.5E1,8.1E1,2E0,4E0,2.5E1,7.6E1,3E0],"tree_param":{"num_deleted":"0","num_feature":"44","num_nodes":"53","size_leaf_vector":"1"}},{"base_weights":[1.8565115E-2,-1.5284899E-1,3.196112E-1,-3.191613E-2,-4.2202777E-1,-1.5528086E-1,5.0939256E-1,-1.319428E-1,2.9700637E-1,-4.8837576E-2,-6.225666E-1,-3.650921E-1,2.6674518E-1,2.4523398E-1,6.479391E-1,-1.9234112E-1,6.47682E-1,-3.57332E-1,4.9455267E-1,7.655147E-2,-3.8632765E-2,-7.350254E-1,9.573355E-2,-5.351936E-1,1.546395E-2,-1.550507E-2,4.6419468E-2,2.2185544E-2,5.987386E-1,7.836611E-1,2.189082E-1,-5.873057E-3,-3.040179E-2,5.190181E-3,5.2402686E-2,7.577847E-3,-2.2399938E-2,2.9476557E-2,-3.8378574E-2,-4.9721114E-3,1.9158524E-2,-4.238826E-2,-1.5726406E-2,-4.9615814E-3,5.8508765E-2,-3.650942E-2,-7.050996E-3,8.055373E-3,-1.44022275E-2,-1.0827432E-2,2.4515461E-2,1.0085163E-2,-1.8762236E-2,1.6246883E-2,3.883336E-2,1.7643986E-2,4.70623E-2,-2.8417189E-2,1.700561E-2],"categories":[],"categories_nodes":[],"categories_segments":[],"categories_sizes":[],"default_left":[0,0,0,0,0,0,0,0,0,0,0,0,0,0,0,0,0,0,0,0,0,0,0,0,0,0,0,0,0,0,0,0,0,0,0,0,0,0,0,0,0,0,0,0,0,0,0,0,0,0,0,0,0,0,0,0,0,0,0],"id":11,"left_children":[1,3,5,7,9,11,13,15,17,19,21,23,25,27,29,31,33,35,37,39,-1,41,43,45,47,49,-1,51,53,55,57,-1,-1,-1,-1,-1,-1,-1,-1,-1,-1,-1,-1,-1,-1,-1,-1,-1,-1,-1,-1,-1,-1,-1,-1,-1,-1,-1,-1],"loss_changes":[3.3556232E1,1.3417895E1,2.1384163E1,9.465274E0,9.481861E0,6.128336E0,5.9368973E0,1.04854965E1,8.851004E0,4.3036637E0,6.8389664E0,3.0379753E0,4.400915E0,4.6555443E0,6.1333694E0,6.2682343E0,3.2600794E0,8.357706E-1,6.6681814E0,2.2249966E0,0E0,3.0304108E0,2.7369573E0,2.2694864E0,6.9677293E-1,1.8075417E0,0E0,2.7694736E0,7.579622E-1,5.172867E0,2.842183E0,0E0,0E0,0E0,0E0,0E0,0E0,0E0,0E0,0E0,0E0,0E0,0E0,0E0,0E0,0E0,0E0,0E0,0E0,0E0,0E0,0E0,0E0,0E0,0E0,0E0,0E0,0E0,0E0],"parents":[2147483647,0,0,1,1,2,2,3,3,4,4,5,5,6,6,7,7,8,8,9,9,10,10,11,11,12,12,13,13,14,14,15,15,16,16,17,17,18,18,19,19,21,21,22,22,23,23,24,24,25,25,27,27,28,28,29,29,30,30],"right_children":[2,4,6,8,10,12,14,16,18,20,22,24,26,28,30,32,34,36,38,40,-1,42,44,46,48,50,-1,52,54,56,58,-1,-1,-1,-1,-1,-1,-1,-1,-1,-1,-1,-1,-1,-1,-1,-1,-1,-1,-1,-1,-1,-1,-1,-1,-1,-1,-1,-1],"split_conditions":[3.3333334E-1,2.9313782E-1,-1.9092186E-1,5.3054816E-1,4.4323665E-1,4.5833975E-1,-3.6621988E-1,1.0336324E0,-2.2373386E-1,7.8318864E-1,1E0,-2.4879397E-1,-2.2496417E-1,2.203886E-1,2.8164434E-1,1E0,5.0789005E-1,4.8983705E-1,6.9550174E-1,-2.6435042E-2,-3.8632765E-2,1.0573337E0,1E0,1E0,1E0,1.688966E0,4.6419468E-2,-3.3491415E-1,8.844684E-1,-3.7802768E-1,4.1672263E-1,-5.873057E-3,-3.040179E-2,5.190181E-3,5.2402686E-2,7.577847E-3,-2.2399938E-2,2.9476557E-2,-3.8378574E-2,-4.9721114E-3,1.9158524E-2,-4.238826E-2,-1.5726406E-2,-4.9615814E-3,5.8508765E-2,-3.650942E-2,-7.050996E-3,8.055373E-3,-1.44022275E-2,-1.0827432E-2,2.4515461E-2,1.0085163E-2,-1.8762236E-2,1.6246883E-2,3.883336E-2,1.7643986E-2,4.70623E-2,-2.8417189E-2,1.700561E-2],"split_indices":[2,15,26,24,27,17,42,22,41,30,20,26,40,34,38,13,40,17,34,38,0,42,13,4,20,38,0,27,40,34,17,0,0,0,0,0,0,0,0,0,0,0,0,0,0,0,0,0,0,0,0,0,0,0,0,0,0,0,0],"split_type":[0,0,0,0,0,0,0,0,0,0,0,0,0,0,0,0,0,0,0,0,0,0,0,0,0,0,0,0,0,0,0,0,0,0,0,0,0,0,0,0,0,0,0,0,0,0,0,0,0,0,0,0,0,0,0,0,0,0,0],"sum_hessian":[6.48E2,4.13E2,2.35E2,2.86E2,1.27E2,6.7E1,1.68E2,2.2E2,6.6E1,4.5E1,8.2E1,4.5E1,2.2E1,5.9E1,1.09E2,2.05E2,1.5E1,1.5E1,5.1E1,3.9E1,6E0,7.1E1,1.1E1,3.1E1,1.4E1,1.6E1,6E0,3.7E1,2.2E1,8.2E1,2.7E1,1.75E2,3E1,7E0,8E0,2E0,1.3E1,4.8E1,3E0,2.5E1,1.4E1,5.5E1,1.6E1,1E1,1E0,2E1,1.1E1,1E1,4E0,1.2E1,4E0,2.6E1,1.1E1,1E1,1.2E1,2.3E1,5.9E1,3E0,2.4E1],"tree_param":{"num_deleted":"0","num_feature":"44","num_nodes":"59","size_leaf_vector":"1"}},{"base_weights":[2.802421E-2,-1.4120288E-1,3.5201302E-1,-1.46346595E-2,-3.9355415E-1,1.3556679E-1,5.881413E-1,-1.6288872E-1,2.7212456E-1,-2.5326228E-1,-7.56496E-1,2.5709325E-1,-5.68562E-1,6.8311816E-1,2.8083347E-2,-3.0308157E-1,1.9510926E-1,4.789678E-1,-1.7926E-1,-3.2364464E-1,2.7285966E-1,-8.5786605E-1,-3.5659945E-1,4.2359704E-1,-6.640278E-2,-1.5370156E-1,-4.3754008E-2,8.10467E-1,1.3920854E-1,3.843875E-1,-2.0415364E-2,-1.806806E-2,1.200519E-2,1.5399266E-3,4.6071388E-2,2.7871495E-2,-1.4066487E-2,5.2324235E-2,-1.4959623E-2,-1.9534795E-2,2.667089E-3,2.7529278E-3,4.7358863E-2,-4.465128E-2,2.422998E-3,-2.997221E-2,6.626438E-3,3.3997513E-2,1.1475171E-2,6.78277E-3,-1.824973E-2,-1.3320151E-2,1.619775E-2,4.386344E-2,1.39264045E-2,3.9729707E-2,-1.5049127E-2,2.4134642E-2,-1.0009012E-2],"categories":[],"categories_nodes":[],"categories_segments":[],"categories_sizes":[],"default_left":[0,0,0,0,0,0,0,0,0,0,0,0,0,0,0,0,0,0,0,0,0,0,0,0,0,0,0,0,0,0,0,0,0,0,0,0,0,0,0,0,0,0,0,0,0,0,0,0,0,0,0,0,0,0,0,0,0,0,0],"id":12,"left_children":[1,3,5,7,9,11,13,15,17,19,21,23,25,27,29,31,33,35,37,39,41,43,45,47,49,51,-1,53,55,57,-1,-1,-1,-1,-1,-1,-1,-1,-1,-1,-1,-1,-1,-1,-1,-1,-1,-1,-1,-1,-1,-1,-1,-1,-1,-1,-1,-1,-1],"loss_changes":[3.6586025E1,1.394299E1,1.1551876E1,1.2489776E1,7.14143E0,1.0469029E1,5.7076836E0,9.806552E0,9.452412E0,4.0555663E0,1.1941376E0,5.6656327E0,2.0515404E0,6.2339706E0,2.7978485E0,4.530822E0,6.4402037E0,4.3006E0,4.9425826E0,2.4559298E0,1.7568986E0,1.1155777E0,1.3139573E0,3.186204E0,2.2444324E0,5.650407E-1,0E0,2.3051643E0,5.7699227E0,6.99538E-1,0E0,0E0,0E0,0E0,0E0,0E0,0E0,0E0,0E0,0E0,0E0,0E0,0E0,0E0,0E0,0E0,0E0,0E0,0E0,0E0,0E0,0E0,0E0,0E0,0E0,0E0,0E0,0E0,0E0],"parents":[2147483647,0,0,1,1,2,2,3,3,4,4,5,5,6,6,7,7,8,8,9,9,10,10,11,11,12,12,13,13,14,14,15,15,16,16,17,17,18,18,19,19,20,20,21,21,22,22,23,23,24,24,25,25,27,27,28,28,29,29],"right_children":[2,4,6,8,10,12,14,16,18,20,22,24,26,28,30,32,34,36,38,40,42,44,46,48,50,52,-1,54,56,58,-1,-1,-1,-1,-1,-1,-1,-1,-1,-1,-1,-1,-1,-1,-1,-1,-1,-1,-1,-1,-1,-1,-1,-1,-1,-1,-1,-1,-1],"split_conditions":[3.3333334E-1,4.6880874E-1,9.2777073E-1,6.413547E-1,1E0,1.0217221E0,1E0,4.8287657E-1,9.5189345E-1,3.5818532E-1,1.5644832E0,8.146242E-1,8.699114E-1,1.0156349E0,6.666667E-1,8.715109E-1,3.1630075E-1,7.851539E-1,6.6541207E-1,1E0,4.1672263E-1,3.4978297E-1,3.53258E-2,5.960075E-1,7.871252E-2,0E0,-4.3754008E-2,5.2808285E-1,6.666667E-1,1.15852825E-1,-2.0415364E-2,-1.806806E-2,1.200519E-2,1.5399266E-3,4.6071388E-2,2.7871495E-2,-1.4066487E-2,5.2324235E-2,-1.4959623E-2,-1.9534795E-2,2.667089E-3,2.7529278E-3,4.7358863E-2,-4.465128E-2,2.422998E-3,-2.997221E-2,6.626438E-3,3.3997513E-2,1.1475171E-2,6.78277E-3,-1.824973E-2,-1.3320151E-2,1.619775E-2,4.386344E-2,1.39264045E-2,3.9729707E-2,-1.5049127E-2,2.4134642E-2,-1.0009012E-2],"split_indices":[2,37,11,42,13,43,13,40,17,43,17,25,39,25,2,39,42,41,42,20,17,26,26,40,37,13,0,26,2,39,0,0,0,0,0,0,0,0,0,0,0,0,0,0,0,0,0,0,0,0,0,0,0,0,0,0,0,0,0],"split_type":[0,0,0,0,0,0,0,0,0,0,0,0,0,0,0,0,0,0,0,0,0,0,0,0,0,0,0,0,0,0,0,0,0,0,0,0,0,0,0,0,0,0,0,0,0,0,0,0,0,0,0,0,0,0,0,0,0,0,0],"sum_hessian":[6.65E2,4.37E2,2.28E2,2.92E2,1.45E2,1.2E2,1.08E2,1.93E2,9.9E1,1.06E2,3.9E1,1.03E2,1.7E1,9.2E1,1.6E1,1.39E2,5.4E1,6.8E1,3.1E1,9.4E1,1.2E1,3E1,9E0,6.8E1,3.5E1,8E0,9E0,7.4E1,1.8E1,9E0,7E0,1.26E2,1.3E1,4.5E1,9E0,6.2E1,6E0,2E0,2.9E1,8E1,1.4E1,1E1,2E0,2.9E1,1E0,6E0,3E0,2.8E1,4E1,2.1E1,1.4E1,7E0,1E0,6.5E1,9E0,7E0,1.1E1,8E0,1E0],"tree_param":{"num_deleted":"0","num_feature":"44","num_nodes":"59","size_leaf_vector":"1"}},{"base_weights":[-2.5944475E-2,-1.8701153E-1,2.8200713E-1,-8.281885E-3,-3.3795157E-1,6.5603875E-2,5.374803E-1,-2.1555191E-1,1.8183248E-1,-3.678461E-1,5.2136576E-1,1.7660607E-1,-6.179746E-1,6.0404253E-1,-5.9320233E-3,-5.911583E-1,-6.177362E-2,5.9660846E-1,-1.487382E-2,-7.3248416E-1,-2.7813897E-1,3.6830362E-2,4.8486223E-3,-7.492227E-1,2.412949E-1,-8.5444313E-1,3.685131E-2,1.12546325E-1,7.0471877E-1,-1.7608328E-2,-4.06876E-2,6.5471865E-3,-1.7266607E-2,3.9890107E-2,-1.251842E-2,-4.294663E-3,5.767101E-2,-3.8455363E-2,1.764215E-2,-1.0566654E-2,-4.139225E-2,4.2961575E-3,-4.5970045E-2,1.515157E-2,-7.4017965E-3,-3.8364553E-3,-4.8024844E-2,-1.333186E-2,5.4795712E-2,-2.927398E-3,4.0480677E-2],"categories":[],"categories_nodes":[],"categories_segments":[],"categories_sizes":[],"default_left":[0,0,0,0,0,0,0,0,0,0,0,0,0,0,0,0,0,0,0,0,0,0,0,0,0,0,0,0,0,0,0,0,0,0,0,0,0,0,0,0,0,0,0,0,0,0,0,0,0,0,0],"id":13,"left_children":[1,3,5,7,9,11,13,15,17,19,21,23,25,27,-1,29,31,33,35,37,39,-1,-1,41,43,45,-1,47,49,-1,-1,-1,-1,-1,-1,-1,-1,-1,-1,-1,-1,-1,-1,-1,-1,-1,-1,-1,-1,-1,-1],"loss_changes":[3.193659E1,1.1374042E1,1.2122463E1,7.726543E0,6.059189E0,9.2463255E0,4.531164E0,5.3276386E0,8.389131E0,6.9569664E0,5.759878E-1,6.4185247E0,6.0885434E0,4.3913E0,0E0,1.0331783E0,3.7826295E0,5.877898E0,5.800329E0,2.0221672E0,6.331381E0,0E0,0E0,1.1572111E0,2.4399142E0,1.0597715E0,0E0,6.714047E0,6.2072716E0,0E0,0E0,0E0,0E0,0E0,0E0,0E0,0E0,0E0,0E0,0E0,0E0,0E0,0E0,0E0,0E0,0E0,0E0,0E0,0E0,0E0,0E0],"parents":[2147483647,0,0,1,1,2,2,3,3,4,4,5,5,6,6,7,7,8,8,9,9,10,10,11,11,12,12,13,13,15,15,16,16,17,17,18,18,19,19,20,20,23,23,24,24,25,25,27,27,28,28],"right_children":[2,4,6,8,10,12,14,16,18,20,22,24,26,28,-1,30,32,34,36,38,40,-1,-1,42,44,46,-1,48,50,-1,-1,-1,-1,-1,-1,-1,-1,-1,-1,-1,-1,-1,-1,-1,-1,-1,-1,-1,-1,-1,-1],"split_conditions":[3.3333334E-1,1E0,9.2777073E-1,-2.3118547E-1,1.6513841E0,8.6991465E-1,5E-1,-1.8370473E-1,-1.7900711E-1,-7.4347824E-1,-3.281055E-2,-1.8138734E-1,3E0,8.146242E-1,-5.9320233E-3,-8.015558E-1,4.8983705E-1,1E0,1.3245877E0,2E0,1.0232328E0,3.6830362E-2,4.8486223E-3,2.3760523E-1,2.55359E0,5.586111E-1,3.685131E-2,1.923038E-1,-3.8192186E-1,-1.7608328E-2,-4.06876E-2,6.5471865E-3,-1.7266607E-2,3.9890107E-2,-1.251842E-2,-4.294663E-3,5.767101E-2,-3.8455363E-2,1.764215E-2,-1.0566654E-2,-4.139225E-2,4.2961575E-3,-4.5970045E-2,1.515157E-2,-7.4017965E-3,-3.8364553E-3,-4.8024844E-2,-1.333186E-2,5.4795712E-2,-2.927398E-3,4.0480677E-2],"split_indices":[2,6,11,32,34,39,24,29,29,36,42,29,1,25,0,32,17,1,36,20,34,0,0,28,28,28,0,32,42,0,0,0,0,0,0,0,0,0,0,0,0,0,0,0,0,0,0,0,0,0,0],"split_type":[0,0,0,0,0,0,0,0,0,0,0,0,0,0,0,0,0,0,0,0,0,0,0,0,0,0,0,0,0,0,0,0,0,0,0,0,0,0,0,0,0,0,0,0,0,0,0,0,0,0,0],"sum_hessian":[6.42E2,4.22E2,2.2E2,1.94E2,2.28E2,1.2E2,1E2,9.3E1,1.01E2,2.21E2,7E0,1.04E2,1.6E1,9.1E1,9E0,2.6E1,6.7E1,3.2E1,6.9E1,4.2E1,1.79E2,4E0,3E0,6E0,9.8E1,1.4E1,2E0,1.6E1,7.5E1,1.4E1,1.2E1,4E1,2.7E1,2.6E1,6E0,6.6E1,3E0,4.1E1,1E0,1.61E2,1.8E1,1E0,5E0,8.5E1,1.3E1,2E0,1.2E1,1.2E1,4E0,9E0,6.6E1],"tree_param":{"num_deleted":"0","num_feature":"44","num_nodes":"51","size_leaf_vector":"1"}},{"base_weights":[3.0959647E-2,-7.62549E-2,4.512769E-1,-2.2462653E-1,1.1612025E-1,5.5729735E-1,-3.9203292E-1,-1.1967975E-1,-4.5306855E-1,-3.8883916E-1,2.1324548E-1,4.4459373E-1,1.041214E0,4.407994E-4,-3.0166952E-2,-1.6461568E-1,4.787319E-1,2.4750878E-1,-5.449846E-1,-7.9804885E-1,1.40352575E-2,-1.21468164E-1,4.3439838E-1,-2.0869103E-1,5.506346E-1,1.2920945E-2,1.1517677E0,-9.713593E-3,3.0360112E-2,5.3475857E-2,-2.3528395E-2,4.1288923E-2,-9.330684E-3,-2.9713878E-2,2.5757605E-2,-5.4787505E-2,-1.3822678E-2,9.561379E-3,-3.3662144E-2,1.6256303E-3,-3.4877714E-2,5.4721177E-2,1.6059307E-2,-3.6258306E-2,1.2840551E-2,3.009881E-2,-1.7534493E-2,6.408972E-2,2.686697E-2],"categories":[],"categories_nodes":[],"categories_segments":[],"categories_sizes":[],"default_left":[0,0,0,0,0,0,0,0,0,0,0,0,0,0,0,0,0,0,0,0,0,0,0,0,0,0,0,0,0,0,0,0,0,0,0,0,0,0,0,0,0,0,0,0,0,0,0,0,0],"id":14,"left_children":[1,3,5,7,9,11,13,15,17,19,21,23,25,-1,-1,27,29,31,33,35,37,39,41,43,45,-1,47,-1,-1,-1,-1,-1,-1,-1,-1,-1,-1,-1,-1,-1,-1,-1,-1,-1,-1,-1,-1,-1,-1],"loss_changes":[2.8822824E1,1.4565329E1,1.1858055E1,6.793086E0,1.0953194E1,5.715046E0,1.3352983E0,5.3985415E0,5.960121E0,6.0245667E0,1.3926339E1,6.7994957E0,1.3787022E0,0E0,0E0,4.334053E0,8.414827E0,2.9794567E0,4.494644E0,2.354888E0,2.3943686E0,6.7421474E0,7.950617E0,3.5989485E0,4.0771008E0,0E0,5.673847E-1,0E0,0E0,0E0,0E0,0E0,0E0,0E0,0E0,0E0,0E0,0E0,0E0,0E0,0E0,0E0,0E0,0E0,0E0,0E0,0E0,0E0,0E0],"parents":[2147483647,0,0,1,1,2,2,3,3,4,4,5,5,6,6,7,7,8,8,9,9,10,10,11,11,12,12,15,15,16,16,17,17,18,18,19,19,20,20,21,21,22,22,23,23,24,24,26,26],"right_children":[2,4,6,8,10,12,14,16,18,20,22,24,26,-1,-1,28,30,32,34,36,38,40,42,44,46,-1,48,-1,-1,-1,-1,-1,-1,-1,-1,-1,-1,-1,-1,-1,-1,-1,-1,-1,-1,-1,-1,-1,-1],"split_conditions":[1E0,6.9277495E-2,1E0,2E0,-4.0209505E-1,1.9615177E0,-1.1772077E-1,1.4023484E0,-3.3937725E-1,-2.1497117E-1,-4.1691095E-1,2E0,-9.6975267E-1,4.407994E-4,-3.0166952E-2,1.6335822E0,-1.2704776E-1,-6.3541E-1,1.5612116E0,1.7852692E-2,2.1346515E-1,1E0,-1.7900711E-1,-2.2873957E-1,1.0000271E0,1.2920945E-2,-2.3236929E-2,-9.713593E-3,3.0360112E-2,5.3475857E-2,-2.3528395E-2,4.1288923E-2,-9.330684E-3,-2.9713878E-2,2.5757605E-2,-5.4787505E-2,-1.3822678E-2,9.561379E-3,-3.3662144E-2,1.6256303E-3,-3.4877714E-2,5.4721177E-2,1.6059307E-2,-3.6258306E-2,1.2840551E-2,3.009881E-2,-1.7534493E-2,6.408972E-2,2.686697E-2],"split_indices":[11,32,3,6,40,22,28,42,39,28,27,1,27,0,0,34,28,32,30,42,15,6,29,15,39,0,42,0,0,0,0,0,0,0,0,0,0,0,0,0,0,0,0,0,0,0,0,0,0],"split_type":[0,0,0,0,0,0,0,0,0,0,0,0,0,0,0,0,0,0,0,0,0,0,0,0,0,0,0,0,0,0,0,0,0,0,0,0,0,0,0,0,0,0,0,0,0,0,0,0,0],"sum_hessian":[6.37E2,5.08E2,1.29E2,2.87E2,2.21E2,1.15E2,1.4E1,1.98E2,8.9E1,3.5E1,1.86E2,9.5E1,2E1,5E0,9E0,1.85E2,1.3E1,1E1,7.9E1,1.7E1,1.8E1,7.4E1,1.12E2,1.3E1,8.2E1,3E0,1.7E1,1.79E2,6E0,8E0,5E0,4E0,6E0,7.6E1,3E0,1E1,7E0,1.5E1,3E0,5.9E1,1.5E1,1.5E1,9.7E1,6E0,7E0,7.8E1,4E0,1.3E1,4E0],"tree_param":{"num_deleted":"0","num_feature":"44","num_nodes":"49","size_leaf_vector":"1"}},{"base_weights":[-1.1677525E-2,-3.2741043E-1,1.2343943E-1,-3.7890208E-1,1.8583679E-1,-5.8243137E-2,4.4829124E-1,-4.280857E-1,1.303655E-1,3.7802964E-1,-1.5589911E-1,-2.8813595E-1,1.1920924E-1,3.3400553E-1,8.473196E-1,-5.1712286E-1,-1.3601866E-1,-2.9422316E-1,5.044037E-1,-5.9612276E-4,2.6022477E-2,1.50900455E-2,-1.4957462E-2,-2.2856341E-1,-3.9034232E-2,4.6844333E-1,-2.3025914E-1,4.7693363E-1,6.978577E-2,9.740118E-1,-1.765238E-2,-1.3029898E-2,-2.9484918E-2,-1.8847555E-2,1.3396832E-2,-4.4839516E-2,1.1333761E-2,1.6503173E-4,3.164094E-2,-1.6547462E-2,9.5685286E-4,2.5764233E-2,-2.743919E-2,-2.2793818E-2,6.6694454E-3,1.8014235E-2,4.836399E-2,1.9501941E-2,-7.9762534E-4,5.409071E-2,1.549495E-2],"categories":[],"categories_nodes":[],"categories_segments":[],"categories_sizes":[],"default_left":[0,0,0,0,0,0,0,0,0,0,0,0,0,0,0,0,0,0,0,0,0,0,0,0,0,0,0,0,0,0,0,0,0,0,0,0,0,0,0,0,0,0,0,0,0,0,0,0,0,0,0],"id":15,"left_children":[1,3,5,7,9,11,13,15,17,19,21,23,25,27,29,31,33,35,37,-1,-1,-1,-1,39,-1,41,43,45,47,49,-1,-1,-1,-1,-1,-1,-1,-1,-1,-1,-1,-1,-1,-1,-1,-1,-1,-1,-1,-1,-1],"loss_changes":[2.7321108E1,5.163885E0,2.6506037E1,4.468914E0,1.2633731E0,1.1800208E1,6.940975E0,4.02512E0,2.710423E0,7.2350097E-1,5.489776E-1,3.417779E0,2.0025223E1,4.708126E0,5.728668E0,2.0326233E0,3.9076118E0,2.7813015E0,5.1344204E-1,0E0,0E0,0E0,0E0,2.928671E0,0E0,4.18659E0,6.8207693E0,4.209013E0,1.3066962E0,1.8165493E0,0E0,0E0,0E0,0E0,0E0,0E0,0E0,0E0,0E0,0E0,0E0,0E0,0E0,0E0,0E0,0E0,0E0,0E0,0E0,0E0,0E0],"parents":[2147483647,0,0,1,1,2,2,3,3,4,4,5,5,6,6,7,7,8,8,9,9,10,10,11,11,12,12,13,13,14,14,15,15,16,16,17,17,18,18,23,23,25,25,26,26,27,27,28,28,29,29],"right_children":[2,4,6,8,10,12,14,16,18,20,22,24,26,28,30,32,34,36,38,-1,-1,-1,-1,40,-1,42,44,46,48,50,-1,-1,-1,-1,-1,-1,-1,-1,-1,-1,-1,-1,-1,-1,-1,-1,-1,-1,-1,-1,-1],"split_conditions":[-1.9543843E-1,1.0822304E0,3.3333334E-1,1.6335822E0,-5.2329186E-2,-2.5239742E-1,9.655638E-1,1E0,-9.758193E-1,8.38158E-2,-5E-1,-3.1038064E-1,9.7990125E-2,6.666667E-1,1E0,7.295271E-2,-1.0573406E-1,-5E-1,-1.3706546E0,-5.9612276E-4,2.6022477E-2,1.50900455E-2,-1.4957462E-2,3.6386498E-3,-3.9034232E-2,1.2972691E0,2.344416E-2,4.9325415E-1,1.7622194E-1,1.4259231E0,-1.765238E-2,-1.3029898E-2,-2.9484918E-2,-1.8847555E-2,1.3396832E-2,-4.4839516E-2,1.1333761E-2,1.6503173E-4,3.164094E-2,-1.6547462E-2,9.5685286E-4,2.5764233E-2,-2.743919E-2,-2.2793818E-2,6.6694454E-3,1.8014235E-2,4.836399E-2,1.9501941E-2,-7.9762534E-4,5.409071E-2,1.549495E-2],"split_indices":[26,43,2,34,38,34,39,16,41,39,21,34,37,2,9,34,39,7,26,0,0,0,0,39,0,41,32,26,32,18,0,0,0,0,0,0,0,0,0,0,0,0,0,0,0,0,0,0,0,0,0],"split_type":[0,0,0,0,0,0,0,0,0,0,0,0,0,0,0,0,0,0,0,0,0,0,0,0,0,0,0,0,0,0,0,0,0,0,0,0,0,0,0,0,0,0,0,0,0,0,0,0,0,0,0],"sum_hessian":[6.38E2,1.91E2,4.47E2,1.74E2,1.7E1,2.87E2,1.6E2,1.59E2,1.5E1,1.1E1,6E0,1.25E2,1.62E2,1.26E2,3.4E1,1.21E2,3.8E1,7E0,8E0,3E0,8E0,1E0,5E0,1.13E2,1.2E1,8.1E1,8.1E1,8.1E1,4.5E1,3.1E1,3E0,2.8E1,9.3E1,2.4E1,1.4E1,3E0,4E0,2E0,6E0,8E1,3.3E1,7.8E1,3E0,5E1,3.1E1,6.7E1,1.4E1,9E0,3.6E1,2.6E1,5E0],"tree_param":{"num_deleted":"0","num_feature":"44","num_nodes":"51","size_leaf_vector":"1"}},{"base_weights":[2.3886722E-3,-9.222918E-2,4.2819524E-1,-1.5503113E-1,1.7031865E-1,-3.1589445E-2,5.0437915E-1,-4.530781E-1,-7.404285E-2,3.3421502E-1,-4.139648E-1,7.76344E-1,2.6826632E-1,4.9849454E-1,-5.176125E-1,2.1949196E-2,-3.0291006E-1,4.774594E-1,4.225496E-2,-3.1072399E-2,1.1311582E-2,5.894768E-1,1.1539445E0,4.065276E-1,-2.4454491E-1,3.2967664E-2,-5.1449756E-3,-2.7522027E-2,2.5397435E-2,-4.321989E-3,1.2721452E-2,-2.355336E-2,2.5512252E-2,1.637484E-2,3.173017E-2,-2.3744628E-2,1.260006E-2,3.4962032E-2,-9.447698E-3,3.0122912E-2,6.797209E-2,2.9139353E-2,-2.1712948E-3,-1.9644706E-2,3.5891138E-2],"categories":[],"categories_nodes":[],"categories_segments":[],"categories_sizes":[],"default_left":[0,0,0,0,0,0,0,0,0,0,0,0,0,0,0,0,0,0,0,0,0,0,0,0,0,0,0,0,0,0,0,0,0,0,0,0,0,0,0,0,0,0,0,0,0],"id":16,"left_children":[1,3,5,7,9,-1,11,13,15,17,19,21,23,25,27,29,31,33,35,-1,-1,37,39,41,43,-1,-1,-1,-1,-1,-1,-1,-1,-1,-1,-1,-1,-1,-1,-1,-1,-1,-1,-1,-1],"loss_changes":[2.525365E1,8.466995E0,9.511847E0,9.907001E0,9.61081E0,0E0,6.5582104E0,5.663946E0,7.21875E0,3.1899424E0,3.102373E0,2.60293E0,4.2988267E0,7.039293E-1,3.0782204E0,5.8595886E0,1.3500008E1,9.213772E-1,3.0260677E0,0E0,0E0,3.1736774E0,6.8473625E-1,3.806746E0,2.1054997E0,0E0,0E0,0E0,0E0,0E0,0E0,0E0,0E0,0E0,0E0,0E0,0E0,0E0,0E0,0E0,0E0,0E0,0E0,0E0,0E0],"parents":[2147483647,0,0,1,1,2,2,3,3,4,4,6,6,7,7,8,8,9,9,10,10,11,11,12,12,13,13,14,14,15,15,16,16,17,17,18,18,21,21,22,22,23,23,24,24],"right_children":[2,4,6,8,10,-1,12,14,16,18,20,22,24,26,28,30,32,34,36,-1,-1,38,40,42,44,-1,-1,-1,-1,-1,-1,-1,-1,-1,-1,-1,-1,-1,-1,-1,-1,-1,-1,-1,-1],"split_conditions":[1E0,1E0,-1.0913674E0,-1.7656702E-1,1.0169249E0,-3.1589445E-2,-4.694518E-1,-1.1124498E0,9.8168665E-1,-1.5527426E-1,-6.943082E-2,-3.6174047E-1,9.844949E-2,1E0,2.1828966E0,5.782972E-1,2.067775E-1,1E0,4.4652277E-1,-3.1072399E-2,1.1311582E-2,-3.7645978E-1,-1.4637478E-1,5E-1,1.1692775E0,3.2967664E-2,-5.1449756E-3,-2.7522027E-2,2.5397435E-2,-4.321989E-3,1.2721452E-2,-2.355336E-2,2.5512252E-2,1.637484E-2,3.173017E-2,-2.3744628E-2,1.260006E-2,3.4962032E-2,-9.447698E-3,3.0122912E-2,6.797209E-2,2.9139353E-2,-2.1712948E-3,-1.9644706E-2,3.5891138E-2],"split_indices":[11,31,26,42,43,0,24,15,25,26,42,38,40,16,34,26,32,6,40,0,0,38,26,24,32,0,0,0,0,0,0,0,0,0,0,0,0,0,0,0,0,0,0,0,0],"split_type":[0,0,0,0,0,0,0,0,0,0,0,0,0,0,0,0,0,0,0,0,0,0,0,0,0,0,0,0,0,0,0,0,0,0,0,0,0,0,0,0,0,0,0,0,0],"sum_hessian":[6.24E2,5.11E2,1.13E2,4.13E2,9.8E1,7E0,1.06E2,8.7E1,3.26E2,7.7E1,2.1E1,4.8E1,5.8E1,5E0,8.2E1,2.3E2,9.6E1,5.1E1,2.6E1,1.6E1,5E0,3.4E1,1.4E1,4.6E1,1.2E1,4E0,1E0,8E1,2E0,1.57E2,7.3E1,8E1,1.6E1,2.8E1,2.3E1,7E0,1.9E1,3E1,4E0,5E0,9E0,3.3E1,1.3E1,1.1E1,1E0],"tree_param":{"num_deleted":"0","num_feature":"44","num_nodes":"45","size_leaf_vector":"1"}},{"base_weights":[-4.46188E-3,-2.4471237E-1,1.6041234E-1,-2.774256E-1,5.7450414E-1,-1.0044219E-1,2.3745841E-1,-1.9647636E-1,-5.666091E-1,7.107105E-1,-1.3783834E-2,-1.9723009E-1,7.276811E-1,3.6488438E-1,8.7677E-3,-4.103501E-1,-9.454665E-2,-6.22723E-1,1.2573366E-2,-0E0,3.9721865E-2,1.6051842E-3,-3.9357227E-1,-4.764818E-3,5.858596E-2,2.926866E-1,8.5319525E-1,-7.0165914E-1,9.287331E-2,5.0878064E-3,-2.7516628E-2,-1.068535E-2,7.050243E-3,-1.2771047E-2,-3.4734074E-2,-2.8487195E-3,3.7844244E-2,-2.7395098E-2,-0E0,1.9762395E-2,-1.2757167E-2,5.702124E-2,1.7787715E-2,-4.1037805E-2,9.732757E-3,-7.893526E-3,1.9183509E-2],"categories":[],"categories_nodes":[],"categories_segments":[],"categories_sizes":[],"default_left":[0,0,0,0,0,0,0,0,0,0,0,0,0,0,0,0,0,0,0,0,0,0,0,0,0,0,0,0,0,0,0,0,0,0,0,0,0,0,0,0,0,0,0,0,0,0,0],"id":17,"left_children":[1,3,5,7,9,11,13,15,17,19,-1,21,23,25,27,29,31,33,-1,-1,-1,35,37,-1,-1,39,41,43,45,-1,-1,-1,-1,-1,-1,-1,-1,-1,-1,-1,-1,-1,-1,-1,-1,-1,-1],"loss_changes":[2.4804626E1,6.963475E0,7.493843E0,5.571022E0,1.39743E0,6.9034214E0,8.322941E0,4.1399307E0,2.626711E0,5.0305986E-1,0E0,3.0458894E0,3.508203E0,6.1226063E0,6.218379E0,4.5453806E0,3.7705011E0,1.0490799E0,0E0,0E0,0E0,1.8386286E0,2.364437E0,0E0,0E0,9.217008E0,2.7309055E0,1.396606E0,6.9372096E0,0E0,0E0,0E0,0E0,0E0,0E0,0E0,0E0,0E0,0E0,0E0,0E0,0E0,0E0,0E0,0E0,0E0,0E0],"parents":[2147483647,0,0,1,1,2,2,3,3,4,4,5,5,6,6,7,7,8,8,9,9,11,11,12,12,13,13,14,14,15,15,16,16,17,17,21,21,22,22,25,25,26,26,27,27,28,28],"right_children":[2,4,6,8,10,12,14,16,18,20,-1,22,24,26,28,30,32,34,-1,-1,-1,36,38,-1,-1,40,42,44,46,-1,-1,-1,-1,-1,-1,-1,-1,-1,-1,-1,-1,-1,-1,-1,-1,-1,-1],"split_conditions":[-1.7701863E-1,5.3207785E-1,-1.8996711E-1,1E0,1.5E0,1.1591681E0,1.9069802E-2,-8.426087E-1,4.620065E0,-1.301892E0,-1.3783834E-2,-1.4519807E-3,2.4461839E-1,9.448665E-1,-7.508441E-1,0E0,-4.198871E-2,-9.293478E-1,1.2573366E-2,-0E0,3.9721865E-2,2E0,-3.3045405E-1,-4.764818E-3,5.858596E-2,5.009079E-1,1.4259231E0,1E0,1E0,5.0878064E-3,-2.7516628E-2,-1.068535E-2,7.050243E-3,-1.2771047E-2,-3.4734074E-2,-2.8487195E-3,3.7844244E-2,-2.7395098E-2,-0E0,1.9762395E-2,-1.2757167E-2,5.702124E-2,1.7787715E-2,-4.1037805E-2,9.732757E-3,-7.893526E-3,1.9183509E-2],"split_indices":[36,18,26,13,4,35,30,36,17,26,0,37,30,18,41,7,39,36,0,0,0,8,26,0,0,17,18,0,23,0,0,0,0,0,0,0,0,0,0,0,0,0,0,0,0,0,0],"split_type":[0,0,0,0,0,0,0,0,0,0,0,0,0,0,0,0,0,0,0,0,0,0,0,0,0,0,0,0,0,0,0,0,0,0,0,0,0,0,0,0,0,0,0,0,0,0,0],"sum_hessian":[6.24E2,2.54E2,3.7E2,2.45E2,9E0,8.4E1,2.86E2,1.93E2,5.2E1,8E0,1E0,7.6E1,8E0,1.83E2,1.03E2,6.1E1,1.32E2,4.9E1,3E0,1E0,7E0,3.8E1,3.8E1,3E0,5E0,1.61E2,2.2E1,1E1,9.3E1,1.3E1,4.8E1,8.8E1,4.4E1,9E0,4E1,3.6E1,2E0,2.7E1,1.1E1,1.36E2,2.5E1,1.3E1,9E0,9E0,1E0,5E1,4.3E1],"tree_param":{"num_deleted":"0","num_feature":"44","num_nodes":"47","size_leaf_vector":"1"}},{"base_weights":[-3.52322E-2,-1.3216734E-1,3.698263E-1,-1.9238965E-1,1.928379E-1,4.7757435E-1,-2.9165235E-1,-4.0624827E-2,-3.2547346E-1,2.404864E-1,-2.6547164E-1,3.5300493E-1,9.1824365E-1,6.0993726E-3,-2.8752917E-2,-2.5786763E-1,1.1078578E-1,1.22266345E-1,-3.65887E-1,1.5053041E-1,1.9556463E-2,-2.0817285E-2,1.7266175E-2,2.8198892E-1,5.4995086E-2,4.867415E-2,-4.925571E-3,1.6830286E-2,-1.8485682E-2,-8.313631E-3,1.5872605E-2,-1.61414E-2,2.2711579E-2,-1.9943023E-2,1.3789387E-2,9.641198E-3,-2.6445596E-2,1.9343682E-2,-7.7739754E-3],"categories":[],"categories_nodes":[],"categories_segments":[],"categories_sizes":[],"default_left":[0,0,0,0,0,0,0,0,0,0,0,0,0,0,0,0,0,0,0,0,0,0,0,0,0,0,0,0,0,0,0,0,0,0,0,0,0,0,0],"id":18,"left_children":[1,3,5,7,9,11,13,15,17,19,21,23,25,-1,-1,27,29,31,33,35,-1,-1,-1,37,-1,-1,-1,-1,-1,-1,-1,-1,-1,-1,-1,-1,-1,-1,-1],"loss_changes":[2.5429182E1,1.0273508E1,9.067005E0,8.877438E0,1.8520408E0,5.477274E0,2.2255607E0,6.884992E0,4.3213615E0,9.0329885E-1,8.881015E-1,4.1132326E0,1.4751892E0,0E0,0E0,5.8458533E0,7.1107144E0,3.1148958E0,4.6924896E0,1.4764433E0,0E0,0E0,0E0,3.7539897E0,0E0,0E0,0E0,0E0,0E0,0E0,0E0,0E0,0E0,0E0,0E0,0E0,0E0,0E0,0E0],"parents":[2147483647,0,0,1,1,2,2,3,3,4,4,5,5,6,6,7,7,8,8,9,9,10,10,11,11,12,12,15,15,16,16,17,17,18,18,19,19,23,23],"right_children":[2,4,6,8,10,12,14,16,18,20,22,24,26,-1,-1,28,30,32,34,36,-1,-1,-1,38,-1,-1,-1,-1,-1,-1,-1,-1,-1,-1,-1,-1,-1,-1,-1],"split_conditions":[1E0,1.6395503E0,1E0,5.9930146E-2,2.6007152E0,2.3068483E0,-1.1772077E-1,-2.2373386E-1,-3.17452E-1,6.887144E-1,2E0,8.3628374E-1,2E0,6.0993726E-3,-2.8752917E-2,-2.3106982E-1,4.2988265E-1,5E-1,2E0,7.736499E-1,1.9556463E-2,-2.0817285E-2,1.7266175E-2,1E0,5.4995086E-2,4.867415E-2,-4.925571E-3,1.6830286E-2,-1.8485682E-2,-8.313631E-3,1.5872605E-2,-1.61414E-2,2.2711579E-2,-1.9943023E-2,1.3789387E-2,9.641198E-3,-2.6445596E-2,1.9343682E-2,-7.7739754E-3],"split_indices":[11,28,3,37,28,11,28,41,39,34,6,37,6,0,0,39,24,21,16,30,0,0,0,20,0,0,0,0,0,0,0,0,0,0,0,0,0,0,0],"split_type":[0,0,0,0,0,0,0,0,0,0,0,0,0,0,0,0,0,0,0,0,0,0,0,0,0,0,0,0,0,0,0,0,0,0,0,0,0,0,0],"sum_hessian":[6.46E2,5.22E2,1.24E2,4.41E2,8.1E1,1.07E2,1.7E1,2.07E2,2.34E2,7.4E1,7E0,8.5E1,2.2E1,7E0,1E1,8.5E1,1.22E2,1.9E1,2.15E2,4.8E1,2.6E1,6E0,1E0,7.9E1,6E0,2.1E1,1E0,1.3E1,7.2E1,5.2E1,7E1,8E0,1.1E1,2.05E2,1E1,4.6E1,2E0,6.4E1,1.5E1],"tree_param":{"num_deleted":"0","num_feature":"44","num_nodes":"39","size_leaf_vector":"1"}},{"base_weights":[2.1769402E-3,-1.2037729E-1,2.3613308E-1,-2.3017061E-1,7.02987E-2,-1.1469732E-1,3.6739555E-1,-6.045958E-1,-1.9061632E-1,-2.6454318E-1,3.0979785E-1,4.4413722E-1,-2.2188286E-1,2.5391927E-1,7.1620744E-1,-7.345339E-1,4.2063504E-2,-2.781075E-1,-8.805701E-3,-4.0107283E-1,1.3866255E-1,1.3448283E-1,7.8944886E-1,-0E0,4.37401E-2,-2.6245257E-1,2.4745336E-2,3.3216098E-1,-1.6454554E-1,-1.816915E-2,7.56812E-1,-4.036782E-2,-0E0,1.4996277E-2,-2.2234617E-2,-1.16910115E-2,-4.0747594E-2,-1.6115783E-2,1.1135943E-2,-2.9956624E-2,-3.9464864E-3,2.009105E-2,-9.755916E-3,4.4508096E-2,1.5766695E-3,4.7315445E-2,-0E0,1.0248345E-2,-2.3936812E-2,-1.9371897E-2,2.4171222E-3,1.9084753E-2,-2.6605034E-2,-1.2426917E-2,3.3282947E-2,3.9271683E-2,-5.054746E-3],"categories":[],"categories_nodes":[],"categories_segments":[],"categories_sizes":[],"default_left":[0,0,0,0,0,0,0,0,0,0,0,0,0,0,0,0,0,0,0,0,0,0,0,0,0,0,0,0,0,0,0,0,0,0,0,0,0,0,0,0,0,0,0,0,0,0,0,0,0,0,0,0,0,0,0,0,0],"id":19,"left_children":[1,3,5,7,9,11,13,15,17,19,21,23,25,27,29,31,33,35,37,39,41,43,45,47,-1,49,-1,51,53,-1,55,-1,-1,-1,-1,-1,-1,-1,-1,-1,-1,-1,-1,-1,-1,-1,-1,-1,-1,-1,-1,-1,-1,-1,-1,-1,-1],"loss_changes":[1.850497E1,8.887651E0,1.0290702E1,3.789155E0,1.2516604E1,3.7301588E0,6.1333904E0,2.2007856E0,3.8660326E0,3.6600747E0,7.4536314E0,1.853814E0,1.6188018E0,4.13135E0,2.0239735E0,1.0543213E0,7.464772E-1,3.6275072E0,5.961151E0,3.0112786E0,1.592306E0,5.1699386E0,2.9524994E0,6.684339E-1,0E0,1.9948807E0,0E0,4.683153E0,1.5183537E0,0E0,1.0809155E0,0E0,0E0,0E0,0E0,0E0,0E0,0E0,0E0,0E0,0E0,0E0,0E0,0E0,0E0,0E0,0E0,0E0,0E0,0E0,0E0,0E0,0E0,0E0,0E0,0E0,0E0],"parents":[2147483647,0,0,1,1,2,2,3,3,4,4,5,5,6,6,7,7,8,8,9,9,10,10,11,11,12,12,13,13,14,14,15,15,16,16,17,17,18,18,19,19,20,20,21,21,22,22,23,23,25,25,27,27,28,28,30,30],"right_children":[2,4,6,8,10,12,14,16,18,20,22,24,26,28,30,32,34,36,38,40,42,44,46,48,-1,50,-1,52,54,-1,56,-1,-1,-1,-1,-1,-1,-1,-1,-1,-1,-1,-1,-1,-1,-1,-1,-1,-1,-1,-1,-1,-1,-1,-1,-1,-1],"split_conditions":[3.3333334E-1,6.9277495E-2,-1.8996711E-1,-1.2018794E0,-3.4329692E-1,-1.1208954E0,9.655638E-1,1E0,5.208805E-1,2.9471642E-1,7.10882E-1,5E-1,3E0,8.6991435E-1,9.2777073E-1,1.0219777E0,0E0,1.2036989E0,-2.993366E-2,-2.1497117E-1,1.3416895E-2,-2.1987382E-1,1.290601E0,6.666667E-1,4.37401E-2,2.2171953E0,2.4745336E-2,1.0120159E0,1.0519571E0,-1.816915E-2,2E0,-4.036782E-2,-0E0,1.4996277E-2,-2.2234617E-2,-1.16910115E-2,-4.0747594E-2,-1.6115783E-2,1.1135943E-2,-2.9956624E-2,-3.9464864E-3,2.009105E-2,-9.755916E-3,4.4508096E-2,1.5766695E-3,4.7315445E-2,-0E0,1.0248345E-2,-2.3936812E-2,-1.9371897E-2,2.4171222E-3,1.9084753E-2,-2.6605034E-2,-1.2426917E-2,3.3282947E-2,3.9271683E-2,-5.054746E-3],"split_indices":[2,32,26,26,41,26,39,20,24,42,26,7,6,39,11,23,7,26,26,28,15,39,32,2,0,28,0,41,26,0,4,0,0,0,0,0,0,0,0,0,0,0,0,0,0,0,0,0,0,0,0,0,0,0,0,0,0],"split_type":[0,0,0,0,0,0,0,0,0,0,0,0,0,0,0,0,0,0,0,0,0,0,0,0,0,0,0,0,0,0,0,0,0,0,0,0,0,0,0,0,0,0,0,0,0,0,0,0,0,0,0,0,0,0,0,0,0],"sum_hessian":[6.43E2,4.22E2,2.21E2,2.68E2,1.54E2,6E1,1.61E2,2.4E1,2.44E2,6.4E1,9E1,9E0,5.1E1,1.23E2,3.8E1,2E1,4E0,1.64E2,8E1,4.8E1,1.6E1,6.7E1,2.3E1,5E0,4E0,4.9E1,2E0,1.04E2,1.9E1,1E0,3.7E1,1.8E1,2E0,3E0,1E0,1.53E2,1.1E1,3.4E1,4.6E1,2.9E1,1.9E1,9E0,7E0,7E0,6E1,1.9E1,4E0,4E0,1E0,3.5E1,1.4E1,9.9E1,5E0,1.8E1,1E0,3.6E1,1E0],"tree_param":{"num_deleted":"0","num_feature":"44","num_nodes":"57","size_leaf_vector":"1"}},{"base_weights":[-1.0084249E-2,-2.3041031E-1,7.517865E-2,-2.8994295E-1,2.997141E-1,-3.7937053E-2,2.7294874E-1,-5.3224826E-1,-1.9812441E-1,1.1867233E-1,4.619763E-2,-1.9252467E-1,1.1323612E-1,3.9132193E-2,3.6091748E-1,-6.18728E-1,2.4192534E-2,-1.1777456E-1,-6.010374E-1,2.318825E-1,-1.2696438E-2,-2.902809E-1,2.2528714E-1,4.3465625E-2,6.670651E-1,1.8839914E-1,-4.2847413E-1,4.7944516E-1,8.165207E-2,-3.181064E-2,-0E0,3.2885305E-3,-1.2493821E-2,2.7699916E-2,-3.8285397E-2,1.6547058E-2,-8.764671E-3,2.2604745E-3,-1.8653935E-2,3.3149165E-3,7.738787E-2,-4.0546812E-2,4.121757E-3,-0E0,4.748844E-2,-0E0,1.8856205E-2,5.442481E-3,-3.1539377E-2,1.6193002E-2,3.2373037E-2,-7.4876654E-3,3.466944E-2],"categories":[],"categories_nodes":[],"categories_segments":[],"categories_sizes":[],"default_left":[0,0,0,0,0,0,0,0,0,0,0,0,0,0,0,0,0,0,0,0,0,0,0,0,0,0,0,0,0,0,0,0,0,0,0,0,0,0,0,0,0,0,0,0,0,0,0,0,0,0,0,0,0],"id":20,"left_children":[1,3,5,7,9,11,13,15,17,19,-1,21,23,25,27,29,-1,31,33,35,-1,37,39,41,43,45,47,49,51,-1,-1,-1,-1,-1,-1,-1,-1,-1,-1,-1,-1,-1,-1,-1,-1,-1,-1,-1,-1,-1,-1,-1,-1],"loss_changes":[1.2450152E1,5.924469E0,1.0704777E1,3.5369492E0,1.9333409E0,7.134058E0,3.5247993E0,4.2670975E0,3.839333E0,7.3159266E-1,0E0,6.2392974E0,5.8506536E0,3.476827E0,4.075428E0,5.168152E-1,0E0,2.5564976E0,4.249378E0,5.9792256E-1,0E0,3.4663296E0,5.833462E0,4.5887957E0,3.2601404E0,1.3534484E0,1.4253483E0,1.9935646E0,5.6790075E0,0E0,0E0,0E0,0E0,0E0,0E0,0E0,0E0,0E0,0E0,0E0,0E0,0E0,0E0,0E0,0E0,0E0,0E0,0E0,0E0,0E0,0E0,0E0,0E0],"parents":[2147483647,0,0,1,1,2,2,3,3,4,4,5,5,6,6,7,7,8,8,9,9,11,11,12,12,13,13,14,14,15,15,17,17,18,18,19,19,21,21,22,22,23,23,24,24,25,25,26,26,27,27,28,28],"right_children":[2,4,6,8,10,12,14,16,18,20,-1,22,24,26,28,30,-1,32,34,36,-1,38,40,42,44,46,48,50,52,-1,-1,-1,-1,-1,-1,-1,-1,-1,-1,-1,-1,-1,-1,-1,-1,-1,-1,-1,-1,-1,-1,-1,-1],"split_conditions":[-1.9543843E-1,1.0822304E0,3.0399123E-1,-5.433309E-2,1.1591681E0,3.1630075E-1,-4.8425025E-1,2.1249135E0,-3.522978E-1,-3.5770053E-1,4.619763E-2,2.203886E-1,8.0588835E-1,4.370342E-2,1.0822304E0,-2.0198958E-1,2.4192534E-2,4.434009E-1,-4.3226746E-3,6.887144E-1,-1.2696438E-2,-5.5675274E-1,1.0172733E0,-5E-1,1.4682706E-2,-1.0743944E-1,-4.0881045E-2,-7.081104E-2,1.7728682E0,-3.181064E-2,-0E0,3.2885305E-3,-1.2493821E-2,2.7699916E-2,-3.8285397E-2,1.6547058E-2,-8.764671E-3,2.2604745E-3,-1.8653935E-2,3.3149165E-3,7.738787E-2,-4.0546812E-2,4.121757E-3,-0E0,4.748844E-2,-0E0,1.8856205E-2,5.442481E-3,-3.1539377E-2,1.6193002E-2,3.2373037E-2,-7.4876654E-3,3.466944E-2],"split_indices":[26,43,43,42,35,42,41,34,26,38,0,34,26,26,43,26,0,34,30,34,0,41,38,21,27,34,18,26,43,0,0,0,0,0,0,0,0,0,0,0,0,0,0,0,0,0,0,0,0,0,0,0,0],"split_type":[0,0,0,0,0,0,0,0,0,0,0,0,0,0,0,0,0,0,0,0,0,0,0,0,0,0,0,0,0,0,0,0,0,0,0,0,0,0,0,0,0,0,0,0,0,0,0,0,0,0,0,0,0],"sum_hessian":[6.6E2,1.84E2,4.76E2,1.66E2,1.8E1,3.03E2,1.73E2,4.4E1,1.22E2,1.5E1,3E0,1.5E2,1.53E2,4.8E1,1.25E2,4.1E1,3E0,1.03E2,1.9E1,1.2E1,3E0,1.22E2,2.8E1,1.37E2,1.6E1,3.7E1,1.1E1,8.7E1,3.8E1,4E1,1E0,4.3E1,6E1,2E0,1.7E1,1E1,2E0,2.4E1,9.8E1,2.6E1,2E0,5E0,1.32E2,5E0,1.1E1,1.9E1,1.8E1,3E0,8E0,4.7E1,4E1,2.8E1,1E1],"tree_param":{"num_deleted":"0","num_feature":"44","num_nodes":"53","size_leaf_vector":"1"}},{"base_weights":[-7.51159E-4,-7.503524E-2,3.1269458E-1,-1.6969952E-1,1.2926948E-1,-4.3508253E-1,3.9610168E-1,-7.815299E-2,-3.1899595E-1,2.2214414E-1,-3.8623896E-1,-3.220126E-2,4.015436E-4,4.3564144E-1,-2.6649673E-2,-1.6315013E-1,2.1074402E-1,-2.1055837E-1,-5.5945903E-1,-1.0379086E-1,3.4946328E-1,-2.1383521E-1,-4.5430616E-2,5.120301E-1,6.129088E-2,-9.958937E-3,2.6020199E-2,-1.3654299E-2,3.1939E-2,-1.4244814E-2,1.2168306E-2,1.40501475E-2,-2.9462544E-2,2.8493996E-3,-3.0895203E-2,1.1296268E-2,3.4485195E-2,3.3699477E-3,-1.832047E-2,2.736415E-2,-1.8327055E-2,2.5927288E-2,-1.3921226E-2],"categories":[],"categories_nodes":[],"categories_segments":[],"categories_sizes":[],"default_left":[0,0,0,0,0,0,0,0,0,0,0,0,0,0,0,0,0,0,0,0,0,0,0,0,0,0,0,0,0,0,0,0,0,0,0,0,0,0,0,0,0,0,0],"id":21,"left_children":[1,3,5,7,9,11,13,15,17,19,21,-1,-1,23,-1,25,27,29,31,33,35,37,-1,39,41,-1,-1,-1,-1,-1,-1,-1,-1,-1,-1,-1,-1,-1,-1,-1,-1,-1,-1],"loss_changes":[1.5320589E1,1.0334392E1,8.027048E0,4.924018E0,8.160719E0,1.2723808E0,4.410385E0,5.6282587E0,3.4035835E0,6.036516E0,2.0349998E0,0E0,0E0,3.0568619E0,0E0,4.4305997E0,1.0980037E1,3.3466353E0,1.2480392E0,3.4803047E0,4.124009E0,9.55687E-1,0E0,3.0371456E0,3.2751186E0,0E0,0E0,0E0,0E0,0E0,0E0,0E0,0E0,0E0,0E0,0E0,0E0,0E0,0E0,0E0,0E0,0E0,0E0],"parents":[2147483647,0,0,1,1,2,2,3,3,4,4,5,5,6,6,7,7,8,8,9,9,10,10,13,13,15,15,16,16,17,17,18,18,19,19,20,20,21,21,23,23,24,24],"right_children":[2,4,6,8,10,12,14,16,18,20,22,-1,-1,24,-1,26,28,30,32,34,36,38,-1,40,42,-1,-1,-1,-1,-1,-1,-1,-1,-1,-1,-1,-1,-1,-1,-1,-1,-1,-1],"split_conditions":[1E0,2.9212233E-1,-5E-1,4.6880874E-1,1.6014727E-2,8.3074594E-1,8.299555E-1,1E0,1E0,-8.341433E-2,1E0,-3.220126E-2,4.015436E-4,1.0156349E0,-2.6649673E-2,2E0,4.9033234E-1,5E-1,-9.2893267E-1,7.712512E-1,-5.678527E-2,2.1066643E-1,-4.5430616E-2,5E0,0E0,-9.958937E-3,2.6020199E-2,-1.3654299E-2,3.1939E-2,-1.4244814E-2,1.2168306E-2,1.40501475E-2,-2.9462544E-2,2.8493996E-3,-3.0895203E-2,1.1296268E-2,3.4485195E-2,3.3699477E-3,-1.832047E-2,2.736415E-2,-1.8327055E-2,2.5927288E-2,-1.3921226E-2],"split_indices":[11,32,21,37,18,43,34,20,13,40,20,0,0,25,0,8,24,21,27,32,27,40,0,1,21,0,0,0,0,0,0,0,0,0,0,0,0,0,0,0,0,0,0],"split_type":[0,0,0,0,0,0,0,0,0,0,0,0,0,0,0,0,0,0,0,0,0,0,0,0,0,0,0,0,0,0,0,0,0,0,0,0,0,0,0,0,0,0,0],"sum_hessian":[6.57E2,5.32E2,1.25E2,3.64E2,1.68E2,1.2E1,1.13E2,2.27E2,1.37E2,1.43E2,2.5E1,8E0,4E0,1.09E2,4E0,1.76E2,5.1E1,9.6E1,4.1E1,4E1,1.03E2,2E1,5E0,9E1,1.9E1,1.68E2,8E0,2.4E1,2.7E1,8.3E1,1.3E1,1E0,4E1,3.1E1,9E0,7.7E1,2.6E1,7E0,1.3E1,8.7E1,3E0,8E0,1.1E1],"tree_param":{"num_deleted":"0","num_feature":"44","num_nodes":"43","size_leaf_vector":"1"}},{"base_weights":[-1.6056024E-2,-1.9757141E-1,1.1572392E-1,1.18818566E-1,-2.360364E-1,-3.4473842E-1,1.7252259E-1,5.0410498E-2,-1.8734662E-2,-3.2063904E-1,-5.239089E-2,9.95895E-3,-4.3098888E-1,-1.1672446E-2,2.638615E-1,-2.7250832E-2,4.641511E-1,-6.38742E-1,-2.5673229E-1,8.1878655E-2,-4.127101E-1,-6.031133E-1,-1.2257994E-1,-3.851418E-1,1.4238848E-1,2.9681924E-1,-3.1088118E-2,5.845892E-3,3.9019804E-2,-4.4169534E-2,-2.1218738E-2,-1.7161021E-2,-1.5128098E-3,9.0674525E-3,-2.2330834E-2,-2.8191049E-2,2.1185272E-3,-3.2676E-2,8.885692E-3,1.8777901E-2,-1.2261639E-2,1.4287827E-3,-3.7887495E-2,-3.379321E-2,1.1123213E-2,-1.836065E-2,1.6617848E-2],"categories":[],"categories_nodes":[],"categories_segments":[],"categories_sizes":[],"default_left":[0,0,0,0,0,0,0,0,0,0,0,0,0,0,0,0,0,0,0,0,0,0,0,0,0,0,0,0,0,0,0,0,0,0,0,0,0,0,0,0,0,0,0,0,0,0,0],"id":22,"left_children":[1,3,5,7,9,11,13,-1,15,17,19,-1,21,23,25,-1,27,29,31,33,35,37,39,41,43,45,-1,-1,-1,-1,-1,-1,-1,-1,-1,-1,-1,-1,-1,-1,-1,-1,-1,-1,-1,-1,-1],"loss_changes":[1.5005024E1,3.2526312E0,9.536028E0,3.665657E0,3.6126041E0,1.9855499E0,5.479331E0,0E0,6.8685427E0,3.0194244E0,3.7437472E0,0E0,1.7114654E0,6.293114E0,6.4858904E0,0E0,1.3563776E0,8.5789585E-1,2.616166E0,2.9983664E0,1.5201547E0,1.0296164E0,9.344391E-1,5.027514E0,5.150227E0,5.074175E0,0E0,0E0,0E0,0E0,0E0,0E0,0E0,0E0,0E0,0E0,0E0,0E0,0E0,0E0,0E0,0E0,0E0,0E0,0E0,0E0,0E0],"parents":[2147483647,0,0,1,1,2,2,3,3,4,4,5,5,6,6,8,8,9,9,10,10,12,12,13,13,14,14,16,16,17,17,18,18,19,19,20,20,21,21,22,22,23,23,24,24,25,25],"right_children":[2,4,6,8,10,12,14,-1,16,18,20,-1,22,24,26,-1,28,30,32,34,36,38,40,42,44,46,-1,-1,-1,-1,-1,-1,-1,-1,-1,-1,-1,-1,-1,-1,-1,-1,-1,-1,-1,-1,-1],"split_conditions":[-1.7701863E-1,-3.17452E-1,-5.9198743E-1,-9.0707004E-1,-1.9594198E-8,-2.3625186E-1,0E0,5.0410498E-2,4.0410616E-2,-4.5310783E-1,2.76946E-1,9.95895E-3,-3.0191733E-2,0E0,1E0,-2.7250832E-2,-3.8982996E-1,9.1571194E-1,5.9221786E-1,5.8256054E-1,4.2988265E-1,1.1526495E0,-4.694518E-1,1E0,-4.2265344E-1,-1.8375771E-1,-3.1088118E-2,5.845892E-3,3.9019804E-2,-4.4169534E-2,-2.1218738E-2,-1.7161021E-2,-1.5128098E-3,9.0674525E-3,-2.2330834E-2,-2.8191049E-2,2.1185272E-3,-3.2676E-2,8.885692E-3,1.8777901E-2,-1.2261639E-2,1.4287827E-3,-3.7887495E-2,-3.379321E-2,1.1123213E-2,-1.836065E-2,1.6617848E-2],"split_indices":[36,39,40,27,29,39,7,0,24,27,30,0,18,21,9,0,39,23,26,34,24,26,24,6,42,29,0,0,0,0,0,0,0,0,0,0,0,0,0,0,0,0,0,0,0,0,0],"split_type":[0,0,0,0,0,0,0,0,0,0,0,0,0,0,0,0,0,0,0,0,0,0,0,0,0,0,0,0,0,0,0,0,0,0,0,0,0,0,0,0,0,0,0,0,0,0,0],"sum_hessian":[6.25E2,2.63E2,3.62E2,2.8E1,2.35E2,3.9E1,3.23E2,3E0,2.5E1,1.6E2,7.5E1,5E0,3.4E1,1.07E2,2.16E2,1.2E1,1.3E1,2.5E1,1.35E2,5.5E1,2E1,2.1E1,1.3E1,3.1E1,7.6E1,2.09E2,7E0,7E0,6E0,1E1,1.5E1,9.7E1,3.8E1,4.7E1,8E0,1.5E1,5E0,2E1,1E0,2E0,1.1E1,1.5E1,1.6E1,6E0,7E1,1E1,1.99E2],"tree_param":{"num_deleted":"0","num_feature":"44","num_nodes":"47","size_leaf_vector":"1"}},{"base_weights":[5.961709E-4,-6.293994E-2,2.6792663E-1,-4.1619036E-2,-7.483508E-1,-1.3559029E-1,3.938562E-1,3.0364638E-2,-2.1289887E-1,-4.2774342E-2,-0E0,2.9311892E-2,-2.4740804E-2,1.3737676E-1,4.9305686E-1,-3.9558526E-2,5.8174323E-2,-9.6273005E-2,-5.6681865E-1,2.5445947E-2,-9.998517E-2,-3.4196937E-1,3.4103096E-1,5.7959384E-1,1.304483E-1,-4.02863E-3,1.08555695E-2,-2.5916401E-2,-1.4402746E-3,7.902107E-3,-2.966918E-2,-2.0632038E-2,5.838237E-4,-2.1931557E-2,8.283112E-3,2.8218886E-2,1.4455862E-3,3.3494364E-2,7.0110927E-3,1.8857008E-2,-9.553834E-3],"categories":[],"categories_nodes":[],"categories_segments":[],"categories_sizes":[],"default_left":[0,0,0,0,0,0,0,0,0,0,0,0,0,0,0,0,0,0,0,0,0,0,0,0,0,0,0,0,0,0,0,0,0,0,0,0,0,0,0,0,0],"id":23,"left_children":[1,3,5,7,9,11,13,15,17,-1,-1,19,-1,21,23,-1,25,27,29,-1,31,33,35,37,39,-1,-1,-1,-1,-1,-1,-1,-1,-1,-1,-1,-1,-1,-1,-1,-1],"loss_changes":[1.1315495E1,7.7373505E0,6.5835114E0,6.460639E0,1.2855453E0,1.8974049E0,2.36263E0,8.380287E0,6.2769327E0,0E0,0E0,1.456037E0,0E0,2.9475327E0,2.049923E0,0E0,7.9037204E0,3.2904062E0,8.690376E-1,0E0,6.733241E-1,5.4157853E-1,1.3882816E0,2.046711E0,1.2804328E0,0E0,0E0,0E0,0E0,0E0,0E0,0E0,0E0,0E0,0E0,0E0,0E0,0E0,0E0,0E0,0E0],"parents":[2147483647,0,0,1,1,2,2,3,3,4,4,5,5,6,6,7,7,8,8,11,11,13,13,14,14,16,16,17,17,18,18,20,20,21,21,22,22,23,23,24,24],"right_children":[2,4,6,8,10,12,14,16,18,-1,-1,20,-1,22,24,-1,26,28,30,-1,32,34,36,38,40,-1,-1,-1,-1,-1,-1,-1,-1,-1,-1,-1,-1,-1,-1,-1,-1],"split_conditions":[1E0,1E0,-2.3502465E-1,5.646317E-1,-5.9867278E-2,1E0,-4.706866E-2,-1.694853E0,1E0,-4.2774342E-2,-0E0,8.892035E-2,-2.4740804E-2,5.2227485E-1,8.4844416E-1,-3.9558526E-2,2.18542E-2,-1.1152174E0,-1.3643575E-1,2.5445947E-2,9.5189345E-1,-2.4751632E-2,0E0,1.0156349E0,-1.6278704E-1,-4.02863E-3,1.08555695E-2,-2.5916401E-2,-1.4402746E-3,7.902107E-3,-2.966918E-2,-2.0632038E-2,5.838237E-4,-2.1931557E-2,8.283112E-3,2.8218886E-2,1.4455862E-3,3.3494364E-2,7.0110927E-3,1.8857008E-2,-9.553834E-3],"split_indices":[11,12,40,37,39,0,32,40,13,0,0,32,0,39,32,0,38,36,39,0,17,37,36,25,34,0,0,0,0,0,0,0,0,0,0,0,0,0,0,0,0],"split_type":[0,0,0,0,0,0,0,0,0,0,0,0,0,0,0,0,0,0,0,0,0,0,0,0,0,0,0,0,0,0,0,0,0,0,0,0,0,0,0,0,0],"sum_hessian":[6.63E2,5.36E2,1.27E2,5.21E2,1.5E1,3E1,9.7E1,3.67E2,1.54E2,1.3E1,2E0,2.1E1,9E0,2.8E1,6.9E1,1.1E1,3.56E2,1.17E2,3.7E1,4E0,1.7E1,8E0,2E1,5.5E1,1.4E1,1.9E2,1.66E2,1.5E1,1.02E2,1E0,3.6E1,4E0,1.3E1,7E0,1E0,1.1E1,9E0,4.5E1,1E1,8E0,6E0],"tree_param":{"num_deleted":"0","num_feature":"44","num_nodes":"41","size_leaf_vector":"1"}},{"base_weights":[1.5538019E-2,-8.794086E-2,2.1006702E-1,-1.7583194E-1,9.100721E-2,-2.4925742E-2,3.1742993E-1,-1.431814E-1,-8.151597E-1,2.6930731E-3,4.951812E-1,2.6759398E-1,-2.2172637E-1,3.472977E-1,-2.990976E-2,-3.323495E-2,-1.1520168E-1,-1.31362965E-2,-5.1019143E-2,2.872076E-1,-1.6424078E-1,-1.0958723E-2,6.9996816E-1,4.669036E-1,-7.3784865E-2,-3.323345E-1,1.554531E-1,5.758385E-1,2.2846301E-1,-7.1775443E-3,2.2652468E-2,2.8355187E-2,-1.529746E-2,1.8743074E-2,-1.4096861E-2,1.3505171E-2,4.1352767E-2,3.900701E-2,-4.829848E-4,-1.9003397E-2,7.0621856E-3,-2.578028E-2,-3.5684407E-3,-7.7196225E-3,1.6229292E-2,-0E0,3.7000414E-2,3.0118278E-3,2.3942541E-2],"categories":[],"categories_nodes":[],"categories_segments":[],"categories_sizes":[],"default_left":[0,0,0,0,0,0,0,0,0,0,0,0,0,0,0,0,0,0,0,0,0,0,0,0,0,0,0,0,0,0,0,0,0,0,0,0,0,0,0,0,0,0,0,0,0,0,0,0,0],"id":24,"left_children":[1,3,5,7,9,11,13,15,17,19,21,23,25,27,-1,-1,29,-1,-1,31,33,-1,35,37,39,41,43,45,47,-1,-1,-1,-1,-1,-1,-1,-1,-1,-1,-1,-1,-1,-1,-1,-1,-1,-1,-1,-1],"loss_changes":[1.2631843E1,6.4572105E0,5.5371943E0,5.527911E0,4.7676067E0,4.0269423E0,4.284816E0,3.6831088E0,1.0774469E0,5.3789196E0,3.7124715E0,1.9788849E0,1.8215537E0,3.7531662E0,0E0,0E0,4.0775623E0,0E0,0E0,7.1725564E0,4.6013737E0,0E0,7.048693E-1,2.7715707E0,8.0202025E-1,1.482811E0,5.911832E-1,4.5613537E0,4.0451884E0,0E0,0E0,0E0,0E0,0E0,0E0,0E0,0E0,0E0,0E0,0E0,0E0,0E0,0E0,0E0,0E0,0E0,0E0,0E0,0E0],"parents":[2147483647,0,0,1,1,2,2,3,3,4,4,5,5,6,6,7,7,8,8,9,9,10,10,11,11,12,12,13,13,16,16,19,19,20,20,22,22,23,23,24,24,25,25,26,26,27,27,28,28],"right_children":[2,4,6,8,10,12,14,16,18,20,22,24,26,28,-1,-1,30,-1,-1,32,34,-1,36,38,40,42,44,46,48,-1,-1,-1,-1,-1,-1,-1,-1,-1,-1,-1,-1,-1,-1,-1,-1,-1,-1,-1,-1],"split_conditions":[3.3333334E-1,5.782972E-1,-1.8996711E-1,5.2808285E-1,2.817724E-1,1.04387835E-1,1E0,-1.3987013E0,-5.209351E-1,-1.7900711E-1,-6.0311854E-1,1E0,1.0425606E0,0E0,-2.990976E-2,-3.323495E-2,1.6335822E0,-1.31362965E-2,-5.1019143E-2,1.0519571E0,6.273418E-1,-1.0958723E-2,3.5818532E-1,1.185233E0,9.4627166E-1,2.3233695E-1,-5E-1,5E-1,7.295271E-2,-7.1775443E-3,2.2652468E-2,2.8355187E-2,-1.529746E-2,1.8743074E-2,-1.4096861E-2,1.3505171E-2,4.1352767E-2,3.900701E-2,-4.829848E-4,-1.9003397E-2,7.0621856E-3,-2.578028E-2,-3.5684407E-3,-7.7196225E-3,1.6229292E-2,-0E0,3.7000414E-2,3.0118278E-3,2.3942541E-2],"split_indices":[2,26,26,26,43,40,9,26,15,29,30,3,34,21,0,0,34,0,0,26,26,0,43,28,15,36,21,7,34,0,0,0,0,0,0,0,0,0,0,0,0,0,0,0,0,0,0,0,0],"split_type":[0,0,0,0,0,0,0,0,0,0,0,0,0,0,0,0,0,0,0,0,0,0,0,0,0,0,0,0,0,0,0,0,0,0,0,0,0,0,0,0,0,0,0,0,0,0,0,0,0],"sum_hessian":[6.25E2,4.08E2,2.17E2,2.74E2,1.34E2,6.8E1,1.49E2,2.62E2,1.2E1,1.11E2,2.3E1,2.7E1,4.1E1,1.45E2,4E0,1.2E1,2.5E2,4E0,8E0,4.1E1,7E1,5E0,1.8E1,1.7E1,1E1,3.2E1,9E0,4.8E1,9.7E1,2.39E2,1.1E1,2.8E1,1.3E1,1.2E1,5.8E1,5E0,1.3E1,1E1,7E0,4E0,6E0,1.8E1,1.4E1,3E0,6E0,1.1E1,3.7E1,5.9E1,3.8E1],"tree_param":{"num_deleted":"0","num_feature":"44","num_nodes":"49","size_leaf_vector":"1"}},{"base_weights":[-2.0049862E-3,-1.5952307E-1,1.0955449E-1,-7.59006E-2,-3.177799E-1,2.5209378E-2,2.867578E-1,-1.2324768E-1,3.5414505E-1,-4.3397722E-1,-9.661442E-3,4.988799E-1,-4.213407E-2,-1.9953368E-2,3.1976783E-1,-1.5544862E-1,5.1160175E-1,7.355359E-2,3.8514055E-2,7.413949E-2,-4.9514046E-1,2.284306E-1,-3.0809194E-2,-2.9548917E-2,7.666624E-1,-1.0383188E-1,2.4387605E-1,5.3284794E-1,1.5619023E-1,-4.1495073E-3,-1.6056946E-2,3.4449145E-2,-1.5751658E-2,2.2418203E-2,-7.869857E-3,1.9028567E-2,-1.512176E-2,-2.5597394E-2,1.0332606E-2,2.6506407E-2,-4.2725564E-4,1.9485977E-2,5.9851553E-2,-2.7883544E-3,-2.158962E-2,-3.022834E-3,1.9545201E-2,3.344269E-2,-1.3464523E-2,1.7445272E-2,-1.9065215E-3],"categories":[],"categories_nodes":[],"categories_segments":[],"categories_sizes":[],"default_left":[0,0,0,0,0,0,0,0,0,0,0,0,0,0,0,0,0,0,0,0,0,0,0,0,0,0,0,0,0,0,0,0,0,0,0,0,0,0,0,0,0,0,0,0,0,0,0,0,0,0,0],"id":25,"left_children":[1,3,5,7,9,11,13,15,17,19,21,23,25,-1,27,29,31,33,-1,35,37,39,-1,-1,41,43,45,47,49,-1,-1,-1,-1,-1,-1,-1,-1,-1,-1,-1,-1,-1,-1,-1,-1,-1,-1,-1,-1,-1,-1],"loss_changes":[1.1602839E1,3.56258E0,5.7308207E0,3.7059722E0,3.3168821E0,8.456028E0,2.9269276E0,3.3965235E0,1.9607153E0,2.1921177E0,4.078551E0,1.0101533E1,4.0875893E0,0E0,3.9956312E0,1.8178256E0,1.4274831E0,1.1384208E0,0E0,1.0460676E0,8.558378E-1,1.486588E0,0E0,0E0,3.754879E0,2.937965E0,1.8912394E0,5.783946E0,2.6283314E0,0E0,0E0,0E0,0E0,0E0,0E0,0E0,0E0,0E0,0E0,0E0,0E0,0E0,0E0,0E0,0E0,0E0,0E0,0E0,0E0,0E0,0E0],"parents":[2147483647,0,0,1,1,2,2,3,3,4,4,5,5,6,6,7,7,8,8,9,9,10,10,11,11,12,12,14,14,15,15,16,16,17,17,19,19,20,20,21,21,24,24,25,25,26,26,27,27,28,28],"right_children":[2,4,6,8,10,12,14,16,18,20,22,24,26,-1,28,30,32,34,-1,36,38,40,-1,-1,42,44,46,48,50,-1,-1,-1,-1,-1,-1,-1,-1,-1,-1,-1,-1,-1,-1,-1,-1,-1,-1,-1,-1,-1,-1],"split_conditions":[-1.9063546E-1,2E0,9.2777073E-1,8.713029E-1,1.5831767E0,-1.822942E-1,-5E-1,1.717567E0,4.95432E-1,-3.9552185E-1,3.438477E0,-1.8434526E-1,1.9619418E0,-1.9953368E-2,0E0,9.8168665E-1,1E0,8.71691E-1,3.8514055E-2,2.7594975E-1,2.0260923E0,-7.744565E-1,-3.0809194E-2,-2.9548917E-2,-2.2355036E-1,1.1316612E0,-1.8996711E-1,5.2808285E-1,-2.9409412E-1,-4.1495073E-3,-1.6056946E-2,3.4449145E-2,-1.5751658E-2,2.2418203E-2,-7.869857E-3,1.9028567E-2,-1.512176E-2,-2.5597394E-2,1.0332606E-2,2.6506407E-2,-4.2725564E-4,1.9485977E-2,5.9851553E-2,-2.7883544E-3,-2.158962E-2,-3.022834E-3,1.9545201E-2,3.344269E-2,-1.3464523E-2,1.7445272E-2,-1.9065215E-3],"split_indices":[36,6,11,39,27,29,21,42,41,42,27,29,28,0,21,25,7,39,0,15,28,36,0,0,15,23,26,26,27,0,0,0,0,0,0,0,0,0,0,0,0,0,0,0,0,0,0,0,0,0,0],"split_type":[0,0,0,0,0,0,0,0,0,0,0,0,0,0,0,0,0,0,0,0,0,0,0,0,0,0,0,0,0,0,0,0,0,0,0,0,0,0,0,0,0,0,0,0,0,0,0,0,0,0,0],"sum_hessian":[6.58E2,2.73E2,3.85E2,1.8E2,9.3E1,2.62E2,1.23E2,1.63E2,1.7E1,6.7E1,2.6E1,3.2E1,2.3E2,5E0,1.18E2,1.56E2,7E0,1.1E1,6E0,7E0,6E1,1.9E1,7E0,6E0,2.6E1,1.9E2,4E1,5E1,6.8E1,1.1E2,4.6E1,6E0,1E0,4E0,7E0,4E0,3E0,5.9E1,1E0,8E0,1.1E1,1.5E1,1.1E1,1.67E2,2.3E1,1.3E1,2.7E1,4.3E1,7E0,3.4E1,3.4E1],"tree_param":{"num_deleted":"0","num_feature":"44","num_nodes":"51","size_leaf_vector":"1"}},{"base_weights":[-1.7897287E-2,-7.520862E-2,2.4632172E-1,-1.4245637E-1,1.07417025E-1,-5.2132323E-2,3.2342696E-1,3.8935775E-1,-1.6677633E-1,-6.244658E-2,3.2299912E-1,3.420217E-2,-1.5469572E-1,3.6037526E-1,-2.7264614E-2,7.378102E-1,-4.1188784E-3,-3.84121E-1,-9.723572E-2,1.3495944E-1,-2.466463E-1,4.7498482E-1,-1.1031428E-1,-0E0,-1.5689457E-2,3.3093736E-1,5.2540135E-2,4.365742E-2,-9.50583E-3,-2.109212E-2,2.4895964E-2,-7.832578E-3,8.649698E-3,1.1229482E-3,3.666511E-2,-2.6554395E-2,-4.868819E-3,2.7461419E-2,-1.1925317E-2,5.840039E-3,-1.9645942E-2,-2.355517E-2,1.07377125E-2,1.994947E-2,3.2350966E-3],"categories":[],"categories_nodes":[],"categories_segments":[],"categories_sizes":[],"default_left":[0,0,0,0,0,0,0,0,0,0,0,0,0,0,0,0,0,0,0,0,0,0,0,0,0,0,0,0,0,0,0,0,0,0,0,0,0,0,0,0,0,0,0,0,0],"id":26,"left_children":[1,3,5,7,9,11,13,15,17,19,21,-1,23,25,-1,27,-1,29,31,33,35,37,39,41,-1,43,-1,-1,-1,-1,-1,-1,-1,-1,-1,-1,-1,-1,-1,-1,-1,-1,-1,-1,-1],"loss_changes":[9.69277E0,6.490979E0,2.6674004E0,5.035084E0,5.2462015E0,1.8649962E0,3.0989075E0,2.920737E0,5.5067997E0,2.9534268E0,4.2378836E0,0E0,5.56623E-1,1.3026514E0,0E0,1.4901423E0,0E0,3.1636238E0,4.553237E0,2.5331945E0,1.6686981E0,2.6517553E0,1.1646286E0,1.3028282E0,0E0,1.4859514E0,0E0,0E0,0E0,0E0,0E0,0E0,0E0,0E0,0E0,0E0,0E0,0E0,0E0,0E0,0E0,0E0,0E0,0E0,0E0],"parents":[2147483647,0,0,1,1,2,2,3,3,4,4,5,5,6,6,7,7,8,8,9,9,10,10,12,12,13,13,15,15,17,17,18,18,19,19,20,20,21,21,22,22,23,23,25,25],"right_children":[2,4,6,8,10,12,14,16,18,20,22,-1,24,26,-1,28,-1,30,32,34,36,38,40,42,-1,44,-1,-1,-1,-1,-1,-1,-1,-1,-1,-1,-1,-1,-1,-1,-1,-1,-1,-1,-1],"split_conditions":[1.5160714E0,5E-1,-4.1691095E-1,-1.1121213E0,4.705517E-1,-1.1921549E0,1.0966213E0,-4.8930472E-1,-5.433309E-2,-1.6528133E-1,1E0,3.420217E-2,1.0169249E0,1.0959969E0,-2.7264614E-2,-4.620762E-2,-4.1188784E-3,2.1828966E0,3.5163057E-1,1.1611696E0,3.516624E-3,8.404732E-1,8.38158E-2,9.869063E-1,-1.5689457E-2,6.536525E-1,5.2540135E-2,4.365742E-2,-9.50583E-3,-2.109212E-2,2.4895964E-2,-7.832578E-3,8.649698E-3,1.1229482E-3,3.666511E-2,-2.6554395E-2,-4.868819E-3,2.7461419E-2,-1.1925317E-2,5.840039E-3,-1.9645942E-2,-2.355517E-2,1.07377125E-2,1.994947E-2,3.2350966E-3],"split_indices":[28,4,27,15,17,41,42,27,42,32,13,0,43,40,0,42,0,34,40,11,32,32,39,43,0,32,0,0,0,0,0,0,0,0,0,0,0,0,0,0,0,0,0,0,0],"split_type":[0,0,0,0,0,0,0,0,0,0,0,0,0,0,0,0,0,0,0,0,0,0,0,0,0,0,0,0,0,0,0,0,0,0,0,0,0,0,0,0,0,0,0,0,0],"sum_hessian":[6.39E2,5.26E2,1.13E2,3.85E2,1.41E2,2.3E1,9E1,1.6E1,3.69E2,7.9E1,6.2E1,2E0,2.1E1,8.7E1,3E0,9E0,7E0,8.8E1,2.81E2,3.8E1,4.1E1,4.6E1,1.6E1,1.1E1,1E1,8.5E1,2E0,8E0,1E0,8.5E1,3E0,2.31E2,5E1,3.3E1,5E0,1.3E1,2.8E1,4.2E1,4E0,9E0,7E0,3E0,8E0,6.7E1,1.8E1],"tree_param":{"num_deleted":"0","num_feature":"44","num_nodes":"45","size_leaf_vector":"1"}},{"base_weights":[1.466301E-2,-6.682664E-2,1.7915519E-1,-4.415115E-2,-3.106165E-2,-4.1104022E-1,2.1601628E-1,-2.8414342E-1,-1.0854368E-3,-2.409044E-2,8.454559E-3,2.3314953E-1,-3.4125015E-2,7.282258E-2,-4.1693586E-1,-1.9489111E-1,7.3820174E-2,1.3589671E-1,4.0681928E-1,2.51705E-2,-6.1909757E-3,-2.3426557E-2,1.14923045E-2,-7.403412E-6,-2.3303712E-2,4.271355E-4,1.402681E-2,-3.2056798E-3,1.02112265E-2,2.6126638E-2,-3.0530386E-3],"categories":[],"categories_nodes":[],"categories_segments":[],"categories_sizes":[],"default_left":[0,0,0,0,0,0,0,0,0,0,0,0,0,0,0,0,0,0,0,0,0,0,0,0,0,0,0,0,0,0,0],"id":27,"left_children":[1,3,5,7,-1,9,11,13,15,-1,-1,17,-1,19,21,23,25,27,29,-1,-1,-1,-1,-1,-1,-1,-1,-1,-1,-1,-1],"loss_changes":[8.816498E0,5.4248943E0,4.811934E0,4.3430586E0,0E0,6.4645696E-1,3.2854586E0,3.0985265E0,5.2526617E0,0E0,0E0,3.319088E0,0E0,1.6243799E0,1.6999903E0,5.287222E0,3.4771094E0,1.8310516E0,3.9761353E0,0E0,0E0,0E0,0E0,0E0,0E0,0E0,0E0,0E0,0E0,0E0,0E0],"parents":[2147483647,0,0,1,1,2,2,3,3,5,5,6,6,7,7,8,8,11,11,13,13,14,14,15,15,16,16,17,17,18,18],"right_children":[2,4,6,8,-1,10,12,14,16,-1,-1,18,-1,20,22,24,26,28,30,-1,-1,-1,-1,-1,-1,-1,-1,-1,-1,-1,-1],"split_conditions":[3.3333334E-1,1E0,-1.7024976E-1,-9.293478E-1,-3.106165E-2,2.0660706E0,1E0,-7.6236993E-1,0E0,-2.409044E-2,8.454559E-3,-1.4152923E-1,-3.4125015E-2,0E0,1.5207893E0,4.271465E-3,3.4649822E-1,-4.6647194E-1,1.0156349E0,2.51705E-2,-6.1909757E-3,-2.3426557E-2,1.14923045E-2,-7.403412E-6,-2.3303712E-2,4.271355E-4,1.402681E-2,-3.2056798E-3,1.02112265E-2,2.6126638E-2,-3.0530386E-3],"split_indices":[2,12,29,36,0,15,9,40,7,0,0,26,0,7,42,30,40,15,25,0,0,0,0,0,0,0,0,0,0,0,0],"split_type":[0,0,0,0,0,0,0,0,0,0,0,0,0,0,0,0,0,0,0,0,0,0,0,0,0,0,0,0,0,0,0],"sum_hessian":[6.55E2,4.38E2,2.17E2,4.22E2,1.6E1,1.2E1,2.05E2,6.3E1,3.59E2,1.1E1,1E0,2.02E2,3E0,1.7E1,4.6E1,1E2,2.59E2,1.31E2,7.1E1,5E0,1.2E1,4.3E1,3E0,5.9E1,4.1E1,1.98E2,6.1E1,3.3E1,9.8E1,5.7E1,1.4E1],"tree_param":{"num_deleted":"0","num_feature":"44","num_nodes":"31","size_leaf_vector":"1"}},{"base_weights":[5.9096282E-3,-1.4912595E-1,1.1516405E-1,-2.4977432E-1,3.785551E-2,-1.4512774E-1,1.9801326E-1,-2.666178E-1,2.5807483E-2,3.0415886E-4,4.3353636E-2,-1.629922E-2,-4.2542866E-1,1.5251943E-1,6.737866E-1,-3.326158E-1,-2.8762722E-2,-5.1080503E-2,4.9097165E-1,2.554088E-2,-4.6142083E-2,-6.8402946E-1,-2.6985684E-1,1.8020642E-1,-2.8491272E-2,3.621005E-1,5.882753E-2,-1.3814877E-2,-3.5069775E-2,9.001642E-3,-2.9284993E-2,3.582696E-3,-1.5827203E-2,-1.3044793E-3,7.83562E-2,-1.3517693E-2,6.707543E-3,-4.235984E-2,-1.01239635E-2,-8.456084E-3,-3.754911E-2,1.0275325E-2,-3.1338565E-2,2.665756E-2,-1.1842124E-3],"categories":[],"categories_nodes":[],"categories_segments":[],"categories_sizes":[],"default_left":[0,0,0,0,0,0,0,0,0,0,0,0,0,0,0,0,0,0,0,0,0,0,0,0,0,0,0,0,0,0,0,0,0,0,0,0,0,0,0,0,0,0,0,0,0],"id":28,"left_children":[1,3,5,7,9,11,13,15,-1,17,-1,19,21,23,25,27,29,31,33,35,-1,37,39,41,-1,43,-1,-1,-1,-1,-1,-1,-1,-1,-1,-1,-1,-1,-1,-1,-1,-1,-1,-1,-1],"loss_changes":[1.1074502E1,5.1118803E0,8.314976E0,2.3832054E0,2.87113E0,3.307193E0,6.1348705E0,2.670042E0,0E0,2.3886442E0,0E0,2.578739E0,8.867202E-1,5.423604E0,3.337719E0,2.5122557E0,4.681166E0,2.7840176E0,5.2029195E0,2.0472867E0,0E0,5.0922537E-1,7.5030696E-1,5.3745747E0,0E0,1.1853826E0,0E0,0E0,0E0,0E0,0E0,0E0,0E0,0E0,0E0,0E0,0E0,0E0,0E0,0E0,0E0,0E0,0E0,0E0,0E0],"parents":[2147483647,0,0,1,1,2,2,3,3,4,4,5,5,6,6,7,7,9,9,11,11,12,12,13,13,14,14,15,15,16,16,17,17,18,18,19,19,21,21,22,22,23,23,25,25],"right_children":[2,4,6,8,10,12,14,16,-1,18,-1,20,22,24,26,28,30,32,34,36,-1,38,40,42,-1,44,-1,-1,-1,-1,-1,-1,-1,-1,-1,-1,-1,-1,-1,-1,-1,-1,-1,-1,-1],"split_conditions":[-1.7701863E-1,9.1571194E-1,-2.3502465E-1,2E0,2E0,3.5184848E-1,5.3054816E-1,1E0,2.5807483E-2,1E0,4.3353636E-2,1.4694518E0,6.366782E-1,1E0,1.4103042E-1,2E0,4.513175E-2,1E0,0E0,-4.156094E-1,-4.6142083E-2,1E0,1E0,1E0,-2.8491272E-2,1E0,5.882753E-2,-1.3814877E-2,-3.5069775E-2,9.001642E-3,-2.9284993E-2,3.582696E-3,-1.5827203E-2,-1.3044793E-3,7.83562E-2,-1.3517693E-2,6.707543E-3,-4.235984E-2,-1.01239635E-2,-8.456084E-3,-3.754911E-2,1.0275325E-2,-3.1338565E-2,2.665756E-2,-1.1842124E-3],"split_indices":[36,23,40,1,8,34,24,20,0,20,0,24,34,9,40,21,30,13,21,34,0,13,12,13,0,8,0,0,0,0,0,0,0,0,0,0,0,0,0,0,0,0,0,0,0],"split_type":[0,0,0,0,0,0,0,0,0,0,0,0,0,0,0,0,0,0,0,0,0,0,0,0,0,0,0,0,0,0,0,0,0,0,0,0,0,0,0,0,0,0,0,0,0],"sum_hessian":[6.52E2,2.69E2,3.83E2,1.75E2,9.4E1,9.2E1,2.91E2,1.72E2,3E0,9.1E1,3E0,6.4E1,2.8E1,2.67E2,2.4E1,1.34E2,3.8E1,8.3E1,8E0,6.2E1,2E0,9E0,1.9E1,2.58E2,9E0,1.6E1,8E0,1.18E2,1.6E1,2.8E1,1E1,5.7E1,2.6E1,6E0,2E0,1.6E1,4.6E1,6E0,3E0,1.7E1,2E0,2.51E2,7E0,1.1E1,5E0],"tree_param":{"num_deleted":"0","num_feature":"44","num_nodes":"45","size_leaf_vector":"1"}},{"base_weights":[-3.0390648E-4,-3.8279276E-2,3.777882E-1,-2.219221E-1,2.5960186E-2,-4.42955E-2,4.7548646E-1,-2.517169E-1,3.5411216E-2,-1.5410315E-1,9.171424E-2,-1.7240917E-2,1.0266886E-2,3.0892962E-1,8.6266935E-1,-2.0044208E-1,-4.2083424E-1,-2.3493697E-1,2.2954695E-1,4.366117E-2,3.7493125E-1,4.048128E-1,-2.671696E-2,1.6924206E-2,5.5258144E-2,4.421678E-2,-1.136992E-2,-2.9746592E-2,-6.1242664E-3,-2.3771843E-2,-4.4187265E-3,2.196634E-2,1.3634082E-3,-3.3538179E-3,7.899535E-3,5.130145E-3,2.1279927E-2,2.3917407E-2,-1.1145263E-2],"categories":[],"categories_nodes":[],"categories_segments":[],"categories_sizes":[],"default_left":[0,0,0,0,0,0,0,0,0,0,0,0,0,0,0,0,0,0,0,0,0,0,0,0,0,0,0,0,0,0,0,0,0,0,0,0,0,0,0],"id":29,"left_children":[1,3,5,7,9,11,13,15,-1,17,19,-1,-1,21,23,25,27,29,31,33,35,37,-1,-1,-1,-1,-1,-1,-1,-1,-1,-1,-1,-1,-1,-1,-1,-1,-1],"loss_changes":[9.442555E0,7.1036277E0,2.538393E0,4.4559307E0,5.276647E0,9.8499817E-1,2.776246E0,1.1715822E0,0E0,3.7448847E0,4.3920603E0,0E0,0E0,3.1141458E0,1.261116E0,3.6151571E0,1.6214104E0,3.3911796E0,8.3247507E-1,3.5773087E0,5.5202436E-1,1.6554322E0,0E0,0E0,0E0,0E0,0E0,0E0,0E0,0E0,0E0,0E0,0E0,0E0,0E0,0E0,0E0,0E0,0E0],"parents":[2147483647,0,0,1,1,2,2,3,3,4,4,5,5,6,6,7,7,9,9,10,10,13,13,14,14,15,15,16,16,17,17,18,18,19,19,20,20,21,21],"right_children":[2,4,6,8,10,12,14,16,-1,18,20,-1,-1,22,24,26,28,30,32,34,36,38,-1,-1,-1,-1,-1,-1,-1,-1,-1,-1,-1,-1,-1,-1,-1,-1,-1],"split_conditions":[2E0,-4.7474426E-1,9.764869E-1,1.432526E0,-1.9726577E-1,1E0,1E0,1.116955E0,3.5411216E-2,1.0822304E0,2.1527348E0,-1.7240917E-2,1.0266886E-2,2.0159988E0,-4.2891073E-1,-5.063337E-1,2.0283115E0,1.4312153E-1,1.2658852E0,-6.12711E-2,-1.9092186E-1,1E0,-2.671696E-2,1.6924206E-2,5.5258144E-2,4.421678E-2,-1.136992E-2,-2.9746592E-2,-6.1242664E-3,-2.3771843E-2,-4.4187265E-3,2.196634E-2,1.3634082E-3,-3.3538179E-3,7.899535E-3,5.130145E-3,2.1279927E-2,2.3917407E-2,-1.1145263E-2],"split_indices":[8,32,23,34,26,7,16,27,0,43,28,0,0,23,27,28,38,15,43,41,26,12,0,0,0,0,0,0,0,0,0,0,0,0,0,0,0,0,0],"split_type":[0,0,0,0,0,0,0,0,0,0,0,0,0,0,0,0,0,0,0,0,0,0,0,0,0,0,0,0,0,0,0,0,0,0,0,0,0,0,0],"sum_hessian":[6.58E2,5.99E2,5.9E1,1.55E2,4.44E2,1.1E1,4.8E1,1.51E2,4E0,1.18E2,3.26E2,5E0,6E0,3.5E1,1.3E1,1.18E2,3.3E1,9.8E1,2E1,2.8E2,4.6E1,3.2E1,3E0,5E0,8E0,2E0,1.16E2,2E1,1.3E1,3.6E1,6.2E1,9E0,1.1E1,1.42E2,1.38E2,8E0,3.8E1,2.9E1,3E0],"tree_param":{"num_deleted":"0","num_feature":"44","num_nodes":"39","size_leaf_vector":"1"}},{"base_weights":[-1.4922811E-2,-9.0930425E-2,1.342485E-1,-1.7446464E-1,7.3754646E-2,-1.4455852E-1,2.3510198E-1,-1.406681E-1,-7.645049E-1,-1.05900384E-1,3.9556548E-1,2.6927501E-2,-2.3565854E-1,7.0036165E-2,3.5219204E-1,-1.6317298E-1,3.4845117E-1,-1.1413057E-2,-4.9990032E-2,-2.4056517E-1,3.350889E-1,6.191789E-1,3.1222872E-2,-4.0729827E-1,-4.4507343E-2,-1.2724732E-1,3.2750347E-1,5.128492E-2,4.5466283E-1,-1.2421398E-2,-9.751472E-5,4.167106E-3,3.414677E-2,-3.0850291E-2,-6.8669007E-3,2.6972308E-3,4.039242E-2,-9.165506E-3,3.719692E-2,2.6126787E-2,-1.2230734E-2,-2.6623324E-2,-4.3343934E-3,-5.2959407E-3,1.4736771E-2,3.4061653E-4,-2.1889126E-2,6.0663684E-3,2.7366212E-2,8.232906E-3,-1.5925331E-2,2.536383E-2,-8.283058E-3],"categories":[],"categories_nodes":[],"categories_segments":[],"categories_sizes":[],"default_left":[0,0,0,0,0,0,0,0,0,0,0,0,0,0,0,0,0,0,0,0,0,0,0,0,0,0,0,0,0,0,0,0,0,0,0,0,0,0,0,0,0,0,0,0,0,0,0,0,0,0,0,0,0],"id":30,"left_children":[1,3,5,7,9,11,13,15,17,19,21,-1,23,25,27,29,31,-1,-1,33,35,37,39,41,43,45,47,49,51,-1,-1,-1,-1,-1,-1,-1,-1,-1,-1,-1,-1,-1,-1,-1,-1,-1,-1,-1,-1,-1,-1,-1,-1],"loss_changes":[7.2983093E0,5.897108E0,6.1447906E0,5.4652767E0,8.396208E0,3.7060347E0,3.0255213E0,3.0103736E0,1.5416174E0,5.5940313E0,4.1521654E0,0E0,1.6427674E0,3.5156949E0,2.7936678E0,3.534442E0,9.305526E-1,0E0,0E0,2.6376677E0,2.7943413E0,3.3962135E0,3.0015852E0,9.754424E-1,5.540046E-1,1.6696587E0,1.226383E0,1.0851713E0,2.3701906E0,0E0,0E0,0E0,0E0,0E0,0E0,0E0,0E0,0E0,0E0,0E0,0E0,0E0,0E0,0E0,0E0,0E0,0E0,0E0,0E0,0E0,0E0,0E0,0E0],"parents":[2147483647,0,0,1,1,2,2,3,3,4,4,5,5,6,6,7,7,8,8,9,9,10,10,12,12,13,13,14,14,15,15,16,16,19,19,20,20,21,21,22,22,23,23,24,24,25,25,26,26,27,27,28,28],"right_children":[2,4,6,8,10,12,14,16,18,20,22,-1,24,26,28,30,32,-1,-1,34,36,38,40,42,44,46,48,50,52,-1,-1,-1,-1,-1,-1,-1,-1,-1,-1,-1,-1,-1,-1,-1,-1,-1,-1,-1,-1,-1,-1,-1,-1],"split_conditions":[3.3333334E-1,5.9221786E-1,-1.9092186E-1,5.2808285E-1,3.1630075E-1,-1.1772077E-1,-3.6621988E-1,2E0,-4.2759013E-1,6.672241E-1,-1.7038043E-1,2.6927501E-2,-4.0832233E-1,7.295271E-2,-6.055114E-1,5.208805E-1,4.1672263E-1,-1.1413057E-2,-4.9990032E-2,-7.138747E-1,-2.5681932E-2,-1.8373156E-1,-4.1655418E-1,7.390243E-1,2.3061752E0,-3.3491415E-1,8.844684E-1,7.1343875E-1,7.232731E-1,-1.2421398E-2,-9.751472E-5,4.167106E-3,3.414677E-2,-3.0850291E-2,-6.8669007E-3,2.6972308E-3,4.039242E-2,-9.165506E-3,3.719692E-2,2.6126787E-2,-1.2230734E-2,-2.6623324E-2,-4.3343934E-3,-5.2959407E-3,1.4736771E-2,3.4061653E-4,-2.1889126E-2,6.0663684E-3,2.7366212E-2,8.232906E-3,-1.5925331E-2,2.536383E-2,-8.283058E-3],"split_indices":[2,26,26,26,42,28,42,16,15,36,29,0,27,34,41,24,17,0,0,32,28,29,27,30,15,27,40,36,42,0,0,0,0,0,0,0,0,0,0,0,0,0,0,0,0,0,0,0,0,0,0,0,0],"split_type":[0,0,0,0,0,0,0,0,0,0,0,0,0,0,0,0,0,0,0,0,0,0,0,0,0,0,0,0,0,0,0,0,0,0,0,0,0,0,0,0,0,0,0,0,0,0,0,0,0,0,0,0,0],"sum_hessian":[6.42E2,4.26E2,2.16E2,2.83E2,1.43E2,5.7E1,1.59E2,2.69E2,1.4E1,9.2E1,5.1E1,6E0,5.1E1,6.7E1,9.2E1,2.58E2,1.1E1,5E0,9E0,7.1E1,2.1E1,3.1E1,2E1,2.6E1,2.5E1,3.8E1,2.9E1,2.4E1,6.8E1,1.68E2,9E1,7E0,4E0,1.4E1,5.7E1,1.4E1,7E0,4E0,2.7E1,7E0,1.3E1,1.8E1,8E0,2.2E1,3E0,2.7E1,1.1E1,1.6E1,1.3E1,1.9E1,5E0,6.3E1,5E0],"tree_param":{"num_deleted":"0","num_feature":"44","num_nodes":"53","size_leaf_vector":"1"}},{"base_weights":[1.425561E-2,-3.365143E-2,2.2834365E-1,-1.6287405E-2,-5.842028E-1,3.7522817E-1,-9.199516E-2,3.6412105E-2,-1.7836474E-1,-3.62378E-2,-5.501737E-3,-1.5609353E-2,4.3492132E-1,2.79072E-1,-3.5047686E-1,-1.2207792E-1,1.11411504E-1,-2.272467E-1,1.5034564E-2,5.972673E-1,1.8990594E-1,1.7526606E-2,-1.732075E-2,-4.126708E-1,8.418646E-3,7.4960473E-3,-9.13006E-3,1.4247957E-3,2.5168423E-2,-2.3467695E-2,-5.7801707E-3,7.6335235E-3,3.432837E-2,2.7642502E-2,-7.848853E-3,4.7119604E-3,-2.3812642E-2],"categories":[],"categories_nodes":[],"categories_segments":[],"categories_sizes":[],"default_left":[0,0,0,0,0,0,0,0,0,0,0,0,0,0,0,0,0,0,0,0,0,0,0,0,0,0,0,0,0,0,0,0,0,0,0,0,0],"id":31,"left_children":[1,3,5,7,9,11,13,15,17,-1,-1,-1,19,21,23,25,27,29,-1,31,33,-1,-1,35,-1,-1,-1,-1,-1,-1,-1,-1,-1,-1,-1,-1,-1],"loss_changes":[6.673252E0,4.997124E0,5.662127E0,4.419509E0,9.0310574E-1,3.5128355E0,3.7496834E0,4.6364436E0,3.0349703E0,0E0,0E0,0E0,2.8309317E0,8.369994E-1,8.361063E-1,2.0884259E0,8.544794E0,3.022684E0,0E0,1.5978718E0,4.1551437E0,0E0,0E0,7.599211E-1,0E0,0E0,0E0,0E0,0E0,0E0,0E0,0E0,0E0,0E0,0E0,0E0,0E0],"parents":[2147483647,0,0,1,1,2,2,3,3,4,4,5,5,6,6,7,7,8,8,12,12,13,13,14,14,15,15,16,16,17,17,19,19,20,20,23,23],"right_children":[2,4,6,8,10,12,14,16,18,-1,-1,-1,20,22,24,26,28,30,-1,32,34,-1,-1,36,-1,-1,-1,-1,-1,-1,-1,-1,-1,-1,-1,-1,-1],"split_conditions":[1E0,1E0,1E0,3.946699E-1,-1.9051638E-1,-6.055114E-1,-1.1772077E-1,-3.633218E-1,2E0,-3.62378E-2,-5.501737E-3,-1.5609353E-2,-5.4222517E-2,1.0336324E0,9.6945184E-1,-3.877424E-1,5.208805E-1,-3.804497E-2,1.5034564E-2,-4.714118E-1,8.301041E-1,1.7526606E-2,-1.732075E-2,-6.9758683E-1,8.418646E-3,7.4960473E-3,-9.13006E-3,1.4247957E-3,2.5168423E-2,-2.3467695E-2,-5.7801707E-3,7.6335235E-3,3.432837E-2,2.7642502E-2,-7.848853E-3,4.7119604E-3,-2.3812642E-2],"split_indices":[11,12,19,15,41,41,28,34,16,0,0,0,24,22,24,42,24,42,0,30,29,0,0,38,0,0,0,0,0,0,0,0,0,0,0,0,0],"split_type":[0,0,0,0,0,0,0,0,0,0,0,0,0,0,0,0,0,0,0,0,0,0,0,0,0,0,0,0,0,0,0,0,0,0,0,0,0],"sum_hessian":[6.47E2,5.29E2,1.18E2,5.14E2,1.5E1,8.1E1,3.7E1,3.88E2,1.26E2,1.1E1,4E0,6E0,7.5E1,1.5E1,2.2E1,1.24E2,2.64E2,1.15E2,1.1E1,4.4E1,3.1E1,1.4E1,1E0,2E1,2E0,2.2E1,1.02E2,2.19E2,4.5E1,3.5E1,8E1,8E0,3.6E1,1.5E1,1.6E1,2E0,1.8E1],"tree_param":{"num_deleted":"0","num_feature":"44","num_nodes":"37","size_leaf_vector":"1"}},{"base_weights":[2.4810755E-3,-3.741799E-2,3.1754386E-1,-6.836608E-2,2.540443E-1,-2.0587021E-2,4.0264583E-1,-1.3507591E-2,-2.1645693E-1,3.8449702E-1,-1.12796046E-1,2.4817307E-1,5.877258E-1,-6.586885E-2,2.4052359E-1,-3.9213908E-1,-3.8792063E-2,4.385141E-2,1.9409893E-1,1.19991206E-1,-3.1118441E-2,3.1815764E-2,4.1704252E-1,5.58207E-3,7.590131E-1,-8.384638E-4,-1.5692113E-2,-1.0255707E-2,2.3007436E-2,-1.5489332E-2,-3.7801348E-2,2.4389012E-2,-8.347551E-3,1.394923E-2,-2.1181269E-2,1.5745899E-2,-1.3743006E-2,-5.9459484E-3,1.4997939E-2,9.660439E-3,2.9693622E-2,5.700722E-2,1.4989491E-2],"categories":[],"categories_nodes":[],"categories_segments":[],"categories_sizes":[],"default_left":[0,0,0,0,0,0,0,0,0,0,0,0,0,0,0,0,0,0,0,0,0,0,0,0,0,0,0,0,0,0,0,0,0,0,0,0,0,0,0,0,0,0,0],"id":32,"left_children":[1,3,5,7,9,-1,11,13,15,17,19,21,23,25,27,29,31,-1,33,35,-1,37,39,-1,41,-1,-1,-1,-1,-1,-1,-1,-1,-1,-1,-1,-1,-1,-1,-1,-1,-1,-1],"loss_changes":[8.160573E0,5.1763964E0,4.695514E0,4.1985807E0,2.7025821E0,0E0,1.6574793E0,5.066208E0,4.3114514E0,3.567514E0,1.9042472E0,1.330219E0,2.1930666E0,3.8212743E0,6.481648E0,1.7569046E0,4.840784E0,0E0,1.7292346E0,9.372021E-1,0E0,7.813071E-1,6.377406E-1,0E0,3.1897154E0,0E0,0E0,0E0,0E0,0E0,0E0,0E0,0E0,0E0,0E0,0E0,0E0,0E0,0E0,0E0,0E0,0E0,0E0],"parents":[2147483647,0,0,1,1,2,2,3,3,4,4,6,6,7,7,8,8,9,9,10,10,11,11,12,12,13,13,14,14,15,15,16,16,18,18,19,19,21,21,22,22,24,24],"right_children":[2,4,6,8,10,-1,12,14,16,18,20,22,24,26,28,30,32,-1,34,36,-1,38,40,-1,42,-1,-1,-1,-1,-1,-1,-1,-1,-1,-1,-1,-1,-1,-1,-1,-1,-1,-1],"split_conditions":[1.0336324E0,9.448665E-1,-2.6284668E-1,9.8168665E-1,1.5071455E-1,-2.0587021E-2,2.2234738E0,5.3054816E-1,-5.7523835E-2,-2.9934093E-2,1E0,