{"learner":{"attributes":{"best_iteration":"51","best_score":"0.836187643669942"},"feature_names":["NumN","NumSaturatedHeterocycles","FpDensityMorgan3","NumAromaticRings","fr_ether","NumAromaticHeterocycles","SlogP_VSA2","Chi4n","BCUT2D_MWLOW","MinEStateIndex","PEOE_VSA1","EState_VSA10","fr_aldehyde","SMR_VSA3","EState_VSA2","fr_aryl_methyl","EState_VSA1","VSA_EState2","PEOE_VSA3","PEOE_VSA5","fr_amidine","EState_VSA8","BCUT2D_LOGPLOW","fr_NH0","BCUT2D_MWHI","Chi1n","FpDensityMorgan2","VSA_EState5","FractionCSP3"],"feature_types":["float","int","float","float","int","int","float","float","float","float","float","float","int","float","float","int","float","float","float","float","int","float","float","float","float","float","float","float","float"],"gradient_booster":{"model":{"cats":{"enc":[],"feature_segments":[],"sorted_idx":[]},"gbtree_model_param":{"num_parallel_tree":"1","num_trees":"72"},"iteration_indptr":[0,1,2,3,4,5,6,7,8,9,10,11,12,13,14,15,16,17,18,19,20,21,22,23,24,25,26,27,28,29,30,31,32,33,34,35,36,37,38,39,40,41,42,43,44,45,46,47,48,49,50,51,52,53,54,55,56,57,58,59,60,61,62,63,64,65,66,67,68,69,70,71,72],"tree_info":[0,0,0,0,0,0,0,0,0,0,0,0,0,0,0,0,0,0,0,0,0,0,0,0,0,0,0,0,0,0,0,0,0,0,0,0,0,0,0,0,0,0,0,0,0,0,0,0,0,0,0,0,0,0,0,0,0,0,0,0,0,0,0,0,0,0,0,0,0,0,0,0],"trees":[{"base_weights":[2.0543776E-7,-2.9336807E-1,5.1275694E-1,-5.0354164E-2,-5.259614E-1,-1.18756264E-1,7.9717153E-1,-8.813522E-2,1.0918033E-1,-1.9145124E-1,-3.384533E-2,-6.749119E-2,6.342761E-1,1.4755997E-1,3.0559802E-1],"categories":[],"categories_nodes":[],"categories_segments":[],"categories_sizes":[],"default_left":[0,0,0,0,0,0,0,0,0,0,0,0,0,0,0],"id":0,"left_children":[1,3,5,7,9,11,13,-1,-1,-1,-1,-1,-1,-1,-1],"loss_changes":[1.4260437E2,3.4057133E1,6.206066E1,2.9958586E1,1.4206444E1,2.609084E1,1.55928955E1,0E0,0E0,0E0,0E0,0E0,0E0,0E0,0E0],"parents":[2147483647,0,0,1,1,2,2,3,3,4,4,5,5,6,6],"right_children":[2,4,6,8,10,12,14,-1,-1,-1,-1,-1,-1,-1,-1],"split_conditions":[3.3333334E-1,1E0,-1.9059826E-1,3.1630075E-1,1E0,2.0790238E0,-9.602228E-2,-8.813522E-2,1.0918033E-1,-1.9145124E-1,-3.384533E-2,-6.749119E-2,6.342761E-1,1.4755997E-1,3.0559802E-1],"split_indices":[0,4,22,14,15,18,17,0,0,0,0,0,0,0,0],"split_type":[0,0,0,0,0,0,0,0,0,0,0,0,0,0,0],"sum_hessian":[9.46E2,6.02E2,3.44E2,2.95E2,3.07E2,1.07E2,2.37E2,1.86E2,1.09E2,2.41E2,6.6E1,1.03E2,4E0,1.01E2,1.36E2],"tree_param":{"num_deleted":"0","num_feature":"29","num_nodes":"15","size_leaf_vector":"1"}},{"base_weights":[8.6144835E-4,-1.4662702E-1,5.19174E-1,-3.4283593E-1,1.0376409E-1,-1.6724007E-1,7.181231E-1,-6.2120024E-2,-1.9337326E-1,-1.1842363E-1,7.8040496E-2,-1.9535537E-1,8.0189094E-2,2.5769937E-1,-6.9849784E-3],"categories":[],"categories_nodes":[],"categories_segments":[],"categories_sizes":[],"default_left":[0,0,0,0,0,0,0,0,0,0,0,0,0,0,0],"id":1,"left_children":[1,3,5,7,9,11,13,-1,-1,-1,-1,-1,-1,-1,-1],"loss_changes":[7.2469666E1,3.629275E1,2.8797997E1,1.6826954E1,2.543721E1,1.0268066E1,1.7044617E1,0E0,0E0,0E0,0E0,0E0,0E0,0E0,0E0],"parents":[2147483647,0,0,1,1,2,2,3,3,4,4,5,5,6,6],"right_children":[2,4,6,8,10,12,14,-1,-1,-1,-1,-1,-1,-1,-1],"split_conditions":[1E0,4.756697E-2,-2.4037191E-1,2.884271E-1,-2.0014976E-1,4.805075E-1,7.860672E-1,-6.2120024E-2,-1.9337326E-1,-1.1842363E-1,7.8040496E-2,-1.9535537E-1,8.0189094E-2,2.5769937E-1,-6.9849784E-3],"split_indices":[19,26,9,17,22,13,7,0,0,0,0,0,0,0,0],"split_type":[0,0,0,0,0,0,0,0,0,0,0,0,0,0,0],"sum_hessian":[9.46E2,7.37E2,2.09E2,4.13E2,3.24E2,4.7E1,1.62E2,2.86E2,1.27E2,7.7E1,2.47E2,2.2E1,2.5E1,1.36E2,2.6E1],"tree_param":{"num_deleted":"0","num_feature":"29","num_nodes":"15","size_leaf_vector":"1"}},{"base_weights":[4.3363078E-4,-1.6522795E-1,2.8998002E-1,2.578472E-1,-2.399543E-1,3.7992078E-1,-3.3393127E-1,-1.3804139E-1,2.6479608E-1,-7.876094E-2,2.7665463E-1,1.2444783E-1,-3.4510472E-1,8.608082E-2,-1.6487463E-1],"categories":[],"categories_nodes":[],"categories_segments":[],"categories_sizes":[],"default_left":[0,0,0,0,0,0,0,0,0,0,0,0,0,0,0],"id":2,"left_children":[1,3,5,7,9,11,13,-1,-1,-1,-1,-1,-1,-1,-1],"loss_changes":[4.547239E1,1.912563E1,1.9486565E1,4.1228893E1,1.3705042E1,1.6608383E1,6.048878E0,0E0,0E0,0E0,0E0,0E0,0E0,0E0,0E0],"parents":[2147483647,0,0,1,1,2,2,3,3,4,4,5,5,6,6],"right_children":[2,4,6,8,10,12,14,-1,-1,-1,-1,-1,-1,-1,-1],"split_conditions":[3.3333334E-1,-1.8301256E-1,1E0,-1.8373252E-1,1.5961595E0,1.8021581E0,1.6014727E-2,-1.3804139E-1,2.6479608E-1,-7.876094E-2,2.7665463E-1,1.2444783E-1,-3.4510472E-1,8.608082E-2,-1.6487463E-1],"split_indices":[0,24,1,24,22,27,13,0,0,0,0,0,0,0,0],"split_type":[0,0,0,0,0,0,0,0,0,0,0,0,0,0,0],"sum_hessian":[9.46E2,6.02E2,3.44E2,9E1,5.12E2,3.01E2,4.3E1,4.2E1,4.8E1,5.03E2,9E0,2.95E2,6E0,1.1E1,3.2E1],"tree_param":{"num_deleted":"0","num_feature":"29","num_nodes":"15","size_leaf_vector":"1"}},{"base_weights":[3.3022912E-4,-1.9794162E-1,1.4694165E-1,-2.2582923E-1,1.0480086E0,-2.3998013E-1,2.662845E-1,-3.9819025E-2,-1.4865498E-1,1.4125014E-2,3.5017166E-1,-3.1573143E-2,-2.783695E-1,-1.1769959E-2,1.2575534E-1],"categories":[],"categories_nodes":[],"categories_segments":[],"categories_sizes":[],"default_left":[0,0,0,0,0,0,0,0,0,0,0,0,0,0,0],"id":3,"left_children":[1,3,5,7,9,11,13,-1,-1,-1,-1,-1,-1,-1,-1],"loss_changes":[2.7557348E1,1.4239547E1,2.5230015E1,9.851755E0,1.0191078E0,1.1859038E1,1.949603E1,0E0,0E0,0E0,0E0,0E0,0E0,0E0,0E0],"parents":[2147483647,0,0,1,1,2,2,3,3,4,4,5,5,6,6],"right_children":[2,4,6,8,10,12,14,-1,-1,-1,-1,-1,-1,-1,-1],"split_conditions":[-1.2391304E-1,2E0,-2.420938E-1,4.6724665E-1,-1.3515558E0,9.048544E-1,-4.1691095E-1,-3.9819025E-2,-1.4865498E-1,1.4125014E-2,3.5017166E-1,-3.1573143E-2,-2.783695E-1,-1.1769959E-2,1.2575534E-1],"split_indices":[2,5,9,17,26,26,10,0,0,0,0,0,0,0,0],"split_type":[0,0,0,0,0,0,0,0,0,0,0,0,0,0,0],"sum_hessian":[9.46E2,4.02E2,5.44E2,3.94E2,8E0,1.28E2,4.16E2,2.94E2,1E2,1E0,7E0,1.08E2,2E1,1.39E2,2.77E2],"tree_param":{"num_deleted":"0","num_feature":"29","num_nodes":"15","size_leaf_vector":"1"}},{"base_weights":[2.0996142E-4,-3.0850962E-2,7.2416306E-1,5.80082E-2,-2.1415001E-1,1.0770575E0,-1.5960431E-1,-3.321304E-2,6.5391764E-2,-4.532885E-2,-2.4435629E-1,1.9036609E-1,5.4303277E-1,2.2123473E-2,-1.2157331E-1],"categories":[],"categories_nodes":[],"categories_segments":[],"categories_sizes":[],"default_left":[0,0,0,0,0,0,0,0,0,0,0,0,0,0,0],"id":4,"left_children":[1,3,5,7,9,11,13,-1,-1,-1,-1,-1,-1,-1,-1],"loss_changes":[2.13172E1,1.4818033E1,1.2335091E1,1.6568338E1,1.11200695E1,7.933979E0,7.177237E-1,0E0,0E0,0E0,0E0,0E0,0E0,0E0,0E0],"parents":[2147483647,0,0,1,1,2,2,3,3,4,4,5,5,6,6],"right_children":[2,4,6,8,10,12,14,-1,-1,-1,-1,-1,-1,-1,-1],"split_conditions":[2.4768734E0,2.7757046E-1,1.0412694E0,-3.1855604E-1,4.933196E-1,5.226801E-1,9.974025E-1,-3.321304E-2,6.5391764E-2,-4.532885E-2,-2.4435629E-1,1.9036609E-1,5.4303277E-1,2.2123473E-2,-1.2157331E-1],"split_indices":[19,6,18,25,22,9,26,0,0,0,0,0,0,0,0],"split_type":[0,0,0,0,0,0,0,0,0,0,0,0,0,0,0],"sum_hessian":[9.46E2,9.08E2,3.8E1,6.12E2,2.96E2,2.7E1,1.1E1,2.98E2,3.14E2,2.69E2,2.7E1,1.8E1,9E0,6E0,5E0],"tree_param":{"num_deleted":"0","num_feature":"29","num_nodes":"15","size_leaf_vector":"1"}},{"base_weights":[5.4451934E-4,-7.6234795E-2,2.2831015E-1,-1.6163625E-1,1.09396204E-1,4.5931506E-1,-6.586879E-2,-1.9230807E-1,-3.79304E-2,-4.416551E-2,9.1965705E-2,4.6217162E-2,1.9903155E-1,-5.2884553E-2,2.7111724E-1],"categories":[],"categories_nodes":[],"categories_segments":[],"categories_sizes":[],"default_left":[0,0,0,0,0,0,0,0,0,0,0,0,0,0,0],"id":5,"left_children":[1,3,5,7,9,11,13,-1,-1,-1,-1,-1,-1,-1,-1],"loss_changes":[1.6578247E1,1.1257572E1,1.6271927E1,8.120355E0,1.1377992E1,8.247366E0,1.1507215E1,0E0,0E0,0E0,0E0,0E0,0E0,0E0,0E0],"parents":[2147483647,0,0,1,1,2,2,3,3,4,4,5,5,6,6],"right_children":[2,4,6,8,10,12,14,-1,-1,-1,-1,-1,-1,-1,-1],"split_conditions":[8.27456E-1,3.0435812E-1,-5.4222517E-2,-1.8410634E-1,-5.5869853E-1,-3.9355186E-1,2.0159988E0,-1.9230807E-1,-3.79304E-2,-4.416551E-2,9.1965705E-2,4.6217162E-2,1.9903155E-1,-5.2884553E-2,2.7111724E-1],"split_indices":[24,26,11,24,7,7,18,0,0,0,0,0,0,0,0],"split_type":[0,0,0,0,0,0,0,0,0,0,0,0,0,0,0],"sum_hessian":[9.46E2,7.08E2,2.38E2,4.85E2,2.23E2,1.33E2,1.05E2,3.2E1,4.53E2,9.7E1,1.26E2,5.4E1,7.9E1,9.5E1,1E1],"tree_param":{"num_deleted":"0","num_feature":"29","num_nodes":"15","size_leaf_vector":"1"}},{"base_weights":[6.7801966E-4,1.6675467E-2,-6.726999E-1,-1.9760627E-2,3.017592E-1,-2.6595864E-1,-7.7668506E-1,-1.2782362E-2,1.5330334E-1,3.0108306E-1,5.4826044E-2,-1.14215404E-1,-7.2879796E-3,-2.6884434E-1,-1.2249363E-1],"categories":[],"categories_nodes":[],"categories_segments":[],"categories_sizes":[],"default_left":[0,0,0,0,0,0,0,0,0,0,0,0,0,0,0],"id":6,"left_children":[1,3,5,7,9,11,13,-1,-1,-1,-1,-1,-1,-1,-1],"loss_changes":[1.0212613E1,9.624638E0,7.2392464E-1,9.989901E0,8.5866375E0,1.5715131E-1,3.8220882E-1,0E0,0E0,0E0,0E0,0E0,0E0,0E0,0E0],"parents":[2147483647,0,0,1,1,2,2,3,3,4,4,5,5,6,6],"right_children":[2,4,6,8,10,12,14,-1,-1,-1,-1,-1,-1,-1,-1],"split_conditions":[1E0,9.489787E-1,-2.4190672E-1,1.0449585E0,-2.6115492E-1,-4.1304347E-1,9.2777073E-1,-1.2782362E-2,1.5330334E-1,3.0108306E-1,5.4826044E-2,-1.14215404E-1,-7.2879796E-3,-2.6884434E-1,-1.2249363E-1],"split_indices":[12,13,26,24,6,2,19,0,0,0,0,0,0,0,0],"split_type":[0,0,0,0,0,0,0,0,0,0,0,0,0,0,0],"sum_hessian":[9.46E2,9.25E2,2.1E1,8.21E2,1.04E2,5E0,1.6E1,7.88E2,3.3E1,1.4E1,9E1,3E0,2E0,1.1E1,5E0],"tree_param":{"num_deleted":"0","num_feature":"29","num_nodes":"15","size_leaf_vector":"1"}},{"base_weights":[4.5744292E-4,-2.561844E-1,2.9709851E-2,-8.327529E-1,-1.1427317E-1,-1.5147074E-1,8.596949E-2,-1.1005109E-1,-3.6461806E-1,4.54676E-2,-9.875246E-2,-6.310347E-2,2.1619476E-1,-1.1970201E-1,3.476791E-2],"categories":[],"categories_nodes":[],"categories_segments":[],"categories_sizes":[],"default_left":[0,0,0,0,0,0,0,0,0,0,0,0,0,0,0],"id":7,"left_children":[1,3,5,7,9,11,13,-1,-1,-1,-1,-1,-1,-1,-1],"loss_changes":[7.1171107E0,7.8415284E0,8.687397E0,2.9414377E0,4.562978E0,1.0523339E1,9.479173E0,0E0,0E0,0E0,0E0,0E0,0E0,0E0,0E0],"parents":[2147483647,0,0,1,1,2,2,3,3,4,4,5,5,6,6],"right_children":[2,4,6,8,10,12,14,-1,-1,-1,-1,-1,-1,-1,-1],"split_conditions":[-9.825168E-1,-4.8441344E-1,-4.7014558E-1,-1.8601637E-2,3.941741E-1,1.5612116E0,-9.333335E-1,-1.1005109E-1,-3.6461806E-1,4.54676E-2,-9.875246E-2,-6.310347E-2,2.1619476E-1,-1.1970201E-1,3.476791E-2],"split_indices":[8,10,26,6,6,17,9,0,0,0,0,0,0,0,0],"split_type":[0,0,0,0,0,0,0,0,0,0,0,0,0,0,0],"sum_hessian":[9.46E2,9.6E1,8.5E2,1.8E1,7.8E1,2.01E2,6.49E2,9E0,9E0,3.5E1,4.3E1,1.89E2,1.2E1,3.7E1,6.12E2],"tree_param":{"num_deleted":"0","num_feature":"29","num_nodes":"15","size_leaf_vector":"1"}},{"base_weights":[-1.6539753E-4,1.2088098E-2,-5.159187E-1,-1.08104736E-1,6.069325E-2,-2.1908307E-1,-5.9033597E-1,-1.5811068E-1,-3.4571346E-3,-5.799018E-2,3.1280693E-2,-8.30347E-2,1.0411978E-2,-2.0254448E-1,-9.6696645E-2],"categories":[],"categories_nodes":[],"categories_segments":[],"categories_sizes":[],"default_left":[0,0,0,0,0,0,0,0,0,0,0,0,0,0,0],"id":8,"left_children":[1,3,5,7,9,11,13,-1,-1,-1,-1,-1,-1,-1,-1],"loss_changes":[5.9910684E0,5.4162445E0,3.566413E-1,1.0796946E1,7.3250127E0,9.7467035E-2,1.6880941E-1,0E0,0E0,0E0,0E0,0E0,0E0,0E0,0E0],"parents":[2147483647,0,0,1,1,2,2,3,3,4,4,5,5,6,6],"right_children":[2,4,6,8,10,12,14,-1,-1,-1,-1,-1,-1,-1,-1],"split_conditions":[1E0,-6.9421396E-2,-2.4190672E-1,-2.1487144E-1,-1.0685376E0,-1.4010143E-1,3.3043477E-1,-1.5811068E-1,-3.4571346E-3,-5.799018E-2,3.1280693E-2,-8.30347E-2,1.0411978E-2,-2.0254448E-1,-9.6696645E-2],"split_indices":[12,14,26,22,27,7,2,0,0,0,0,0,0,0,0],"split_type":[0,0,0,0,0,0,0,0,0,0,0,0,0,0,0],"sum_hessian":[9.46E2,9.25E2,2.1E1,2.66E2,6.59E2,5E0,1.6E1,4.9E1,2.17E2,9.6E1,5.63E2,4E0,1E0,1.1E1,5E0],"tree_param":{"num_deleted":"0","num_feature":"29","num_nodes":"15","size_leaf_vector":"1"}},{"base_weights":[-7.071903E-4,-1.3829671E-2,4.8380306E-1,1.2373234E-2,-2.3968565E-1,7.193756E-1,-1.8070869E-1,-1.4326972E-1,9.035417E-3,-2.1380372E-1,-1.0332934E-2,3.0817795E-1,1.3526653E-1],"categories":[],"categories_nodes":[],"categories_segments":[],"categories_sizes":[],"default_left":[0,0,0,0,0,0,0,0,0,0,0,0,0],"id":9,"left_children":[1,3,5,7,9,11,-1,-1,-1,-1,-1,-1,-1],"loss_changes":[6.027694E0,5.4653563E0,6.8300934E0,7.2129145E0,9.294975E0,1.2727413E0,0E0,0E0,0E0,0E0,0E0,0E0,0E0],"parents":[2147483647,0,0,1,1,2,2,3,3,4,4,5,5],"right_children":[2,4,6,8,10,12,-1,-1,-1,-1,-1,-1,-1],"split_conditions":[1.6712803E0,9.441648E-1,2.5867075E-1,-1.8410634E-1,-4.8441344E-1,-3.7712666E-1,-1.8070869E-1,-1.4326972E-1,9.035417E-3,-2.1380372E-1,-1.0332934E-2,3.0817795E-1,1.3526653E-1],"split_indices":[28,28,17,24,10,2,0,0,0,0,0,0,0],"split_type":[0,0,0,0,0,0,0,0,0,0,0,0,0],"sum_hessian":[9.46E2,9.22E2,2.4E1,8.27E2,9.5E1,2E1,4E0,2.8E1,7.99E2,2.8E1,6.7E1,8E0,1.2E1],"tree_param":{"num_deleted":"0","num_feature":"29","num_nodes":"13","size_leaf_vector":"1"}},{"base_weights":[-5.961557E-4,-5.3934626E-2,1.0608267E-1,-6.459736E-2,6.9134116E-1,1.1196806E0,6.2389065E-2,-3.6307912E-2,1.9775787E-2,-1.701994E-2,2.7395442E-1,1.798768E-1,4.4394532E-1,3.063248E-2,-2.3029779E-1],"categories":[],"categories_nodes":[],"categories_segments":[],"categories_sizes":[],"default_left":[0,0,0,0,0,0,0,0,0,0,0,0,0,0,0],"id":10,"left_children":[1,3,5,7,9,11,13,-1,-1,-1,-1,-1,-1,-1,-1],"loss_changes":[5.3942323E0,5.0669594E0,1.3925076E1,4.603692E0,1.5453849E0,1.5476704E0,1.0100914E1,0E0,0E0,0E0,0E0,0E0,0E0,0E0,0E0],"parents":[2147483647,0,0,1,1,2,2,3,3,4,4,5,5,6,6],"right_children":[2,4,6,8,10,12,14,-1,-1,-1,-1,-1,-1,-1,-1],"split_conditions":[3.5258573E-1,3.0842242E0,-1.2947406E-1,5.3054816E-1,-7.9472834E-1,3.9905888E-1,1.2186098E0,-3.6307912E-2,1.9775787E-2,-1.701994E-2,2.7395442E-1,1.798768E-1,4.4394532E-1,3.063248E-2,-2.3029779E-1],"split_indices":[9,18,27,11,6,9,18,0,0,0,0,0,0,0,0],"split_type":[0,0,0,0,0,0,0,0,0,0,0,0,0,0,0],"sum_hessian":[9.46E2,6.31E2,3.15E2,6.23E2,8E0,1.2E1,3.03E2,4.35E2,1.88E2,2E0,6E0,6E0,6E0,2.9E2,1.3E1],"tree_param":{"num_deleted":"0","num_feature":"29","num_nodes":"15","size_leaf_vector":"1"}},{"base_weights":[2.843717E-4,9.540798E-2,-4.9339153E-2,1.4307861E-1,-3.1680477E-1,-2.6067176E-1,1.8821642E-2,-4.114145E-2,6.438701E-2,8.042536E-2,-1.2806761E-1,-1.5198013E-1,-2.4268579E-2,1.02033846E-1,-8.907431E-3],"categories":[],"categories_nodes":[],"categories_segments":[],"categories_sizes":[],"default_left":[0,0,0,0,0,0,0,0,0,0,0,0,0,0,0],"id":11,"left_children":[1,3,5,7,9,11,13,-1,-1,-1,-1,-1,-1,-1,-1],"loss_changes":[4.4748964E0,6.4317217E0,8.9789715E0,5.8834605E0,2.3036647E0,6.6792736E0,7.367079E0,0E0,0E0,0E0,0E0,0E0,0E0,0E0,0E0],"parents":[2147483647,0,0,1,1,2,2,3,3,4,4,5,5,6,6],"right_children":[2,4,6,8,10,12,14,-1,-1,-1,-1,-1,-1,-1,-1],"split_conditions":[-4.694518E-1,1.0447124E0,0E0,-5.2298564E-1,-7.667818E-1,9.1571194E-1,-1.8301256E-1,-4.114145E-2,6.438701E-2,8.042536E-2,-1.2806761E-1,-1.5198013E-1,-2.4268579E-2,1.02033846E-1,-8.907431E-3],"split_indices":[11,18,11,28,6,18,24,0,0,0,0,0,0,0,0],"split_type":[0,0,0,0,0,0,0,0,0,0,0,0,0,0,0],"sum_hessian":[9.46E2,3.24E2,6.22E2,2.91E2,3.3E1,1.51E2,4.71E2,5.9E1,2.32E2,5E0,2.8E1,6.3E1,8.8E1,6.1E1,4.1E2],"tree_param":{"num_deleted":"0","num_feature":"29","num_nodes":"15","size_leaf_vector":"1"}},{"base_weights":[8.5521526E-5,4.7533844E-2,-9.4811395E-2,3.2465445E-4,2.8720814E-1,-3.033028E-1,-1.9240197E-2,-7.939846E-3,1.2517394E-1,-5.235316E-2,1.3541277E-1,1.03428826E-1,-1.24830626E-1,4.1460255E-3,-1.5019128E-1],"categories":[],"categories_nodes":[],"categories_segments":[],"categories_sizes":[],"default_left":[0,0,0,0,0,0,0,0,0,0,0,0,0,0,0],"id":12,"left_children":[1,3,5,7,9,11,13,-1,-1,-1,-1,-1,-1,-1,-1],"loss_changes":[4.268563E0,7.1508784E0,4.9730425E0,5.9197993E0,7.961897E0,6.283969E0,3.715145E0,0E0,0E0,0E0,0E0,0E0,0E0,0E0,0E0],"parents":[2147483647,0,0,1,1,2,2,3,3,4,4,5,5,6,6],"right_children":[2,4,6,8,10,12,14,-1,-1,-1,-1,-1,-1,-1,-1],"split_conditions":[2.7757046E-1,5.3054816E-1,-1.5642525E-1,9.489787E-1,-3.1855604E-1,-4.694518E-1,1.6791813E0,-7.939846E-3,1.2517394E-1,-5.235316E-2,1.3541277E-1,1.03428826E-1,-1.24830626E-1,4.1460255E-3,-1.5019128E-1],"split_indices":[6,11,28,13,25,11,14,0,0,0,0,0,0,0,0],"split_type":[0,0,0,0,0,0,0,0,0,0,0,0,0,0,0],"sum_hessian":[9.46E2,6.31E2,3.15E2,5.28E2,1.03E2,8.3E1,2.32E2,4.97E2,3.1E1,2.7E1,7.6E1,1.2E1,7.1E1,2.18E2,1.4E1],"tree_param":{"num_deleted":"0","num_feature":"29","num_nodes":"15","size_leaf_vector":"1"}},{"base_weights":[9.453259E-5,-7.841872E-2,4.881285E-2,7.0996224E-3,-3.1300613E-1,4.3844447E-1,2.4725374E-2,9.846432E-2,-2.8103119E-2,-1.7790246E-1,-4.7809307E-2,-1.22999586E-1,1.6957104E-1,-1.2178361E-2,4.0646788E-2],"categories":[],"categories_nodes":[],"categories_segments":[],"categories_sizes":[],"default_left":[0,0,0,0,0,0,0,0,0,0,0,0,0,0,0],"id":13,"left_children":[1,3,5,7,9,11,13,-1,-1,-1,-1,-1,-1,-1,-1],"loss_changes":[3.6261346E0,7.284557E0,5.479526E0,8.671101E0,4.078437E0,3.8893337E0,3.999269E0,0E0,0E0,0E0,0E0,0E0,0E0,0E0,0E0],"parents":[2147483647,0,0,1,1,2,2,3,3,4,4,5,5,6,6],"right_children":[2,4,6,8,10,12,14,-1,-1,-1,-1,-1,-1,-1,-1],"split_conditions":[-1.6671038E-1,-2.239491E-2,-8.458087E-1,-1.8301256E-1,0E0,-2.0841637E0,5.402292E-1,9.846432E-2,-2.8103119E-2,-1.7790246E-1,-4.7809307E-2,-1.22999586E-1,1.6957104E-1,-1.2178361E-2,4.0646788E-2],"split_indices":[24,21,26,24,23,9,21,0,0,0,0,0,0,0,0],"split_type":[0,0,0,0,0,0,0,0,0,0,0,0,0,0,0],"sum_hessian":[9.46E2,3.62E2,5.84E2,2.66E2,9.6E1,3.3E1,5.51E2,6.3E1,2.03E2,3.3E1,6.3E1,4E0,2.9E1,3.47E2,2.04E2],"tree_param":{"num_deleted":"0","num_feature":"29","num_nodes":"15","size_leaf_vector":"1"}},{"base_weights":[-1.852666E-5,3.5613567E-1,-1.00619E-2,-3.005449E-2,8.091954E-1,-1.4693087E-1,2.1074612E-2,1.04223765E-1,-9.609017E-2,2.7714348E-1,-6.773737E-2,-8.8113755E-2,1.21232355E-2,2.2756456E-1,3.938142E-3],"categories":[],"categories_nodes":[],"categories_segments":[],"categories_sizes":[],"default_left":[0,0,0,0,0,0,0,0,0,0,0,0,0,0,0],"id":14,"left_children":[1,3,5,7,9,11,13,-1,-1,-1,-1,-1,-1,-1,-1],"loss_changes":[3.3909926E0,4.5734673E0,3.9323127E0,1.7546511E0,1.6321025E0,4.71408E0,4.3975534E0,0E0,0E0,0E0,0E0,0E0,0E0,0E0,0E0],"parents":[2147483647,0,0,1,1,2,2,3,3,4,4,5,5,6,6],"right_children":[2,4,6,8,10,12,14,-1,-1,-1,-1,-1,-1,-1,-1],"split_conditions":[-1.0468986E0,7.6841205E-1,-5.5869853E-1,-8.076313E-1,8.30103E-1,5.402292E-1,-5.4471433E-1,1.04223765E-1,-9.609017E-2,2.7714348E-1,-6.773737E-2,-8.8113755E-2,1.21232355E-2,2.2756456E-1,3.938142E-3],"split_indices":[6,22,7,7,24,21,7,0,0,0,0,0,0,0,0],"split_type":[0,0,0,0,0,0,0,0,0,0,0,0,0,0,0],"sum_hessian":[9.46E2,2.5E1,9.21E2,1.4E1,1.1E1,1.7E2,7.51E2,6E0,8E0,1E1,1E0,9.5E1,7.5E1,7E0,7.44E2],"tree_param":{"num_deleted":"0","num_feature":"29","num_nodes":"15","size_leaf_vector":"1"}},{"base_weights":[3.8093448E-4,-9.236709E-3,3.5544908E-1,-1.7731778E-1,1.3020636E-2,5.057749E-1,-2.0487857E-1,-8.72023E-2,1.339715E-1,-3.3070102E-2,1.8563617E-2,1.8553889E-1,1.32055385E-2,-9.2754476E-2,7.454873E-4],"categories":[],"categories_nodes":[],"categories_segments":[],"categories_sizes":[],"default_left":[0,0,0,0,0,0,0,0,0,0,0,0,0,0,0],"id":15,"left_children":[1,3,5,7,9,11,13,-1,-1,-1,-1,-1,-1,-1,-1],"loss_changes":[3.2372112E0,3.455287E0,2.209416E0,7.767778E0,4.9207478E0,1.013464E0,1.3054016E-1,0E0,0E0,0E0,0E0,0E0,0E0,0E0,0E0],"parents":[2147483647,0,0,1,1,2,2,3,3,4,4,5,5,6,6],"right_children":[2,4,6,8,10,12,14,-1,-1,-1,-1,-1,-1,-1,-1],"split_conditions":[1.6712803E0,-8.4782606E-1,1.5355366E-2,6.955121E-1,-1.9059826E-1,2.5286487E-1,-1.6671038E-1,-8.72023E-2,1.339715E-1,-3.3070102E-2,1.8563617E-2,1.8553889E-1,1.32055385E-2,-9.2754476E-2,7.454873E-4],"split_indices":[28,2,17,17,22,27,24,0,0,0,0,0,0,0,0],"split_type":[0,0,0,0,0,0,0,0,0,0,0,0,0,0,0],"sum_hessian":[9.46E2,9.22E2,2.4E1,1.07E2,8.15E2,1.9E1,5E0,9.1E1,1.6E1,2.31E2,5.84E2,1.5E1,4E0,3E0,2E0],"tree_param":{"num_deleted":"0","num_feature":"29","num_nodes":"15","size_leaf_vector":"1"}},{"base_weights":[4.1332314E-4,-8.754449E-2,3.5621822E-2,-1.2671202E-1,3.6152032E-1,3.1335354E-1,1.4878538E-2,-1.4055796E-2,-1.1888732E-1,2.6810965E-1,-4.6930972E-2,9.282031E-3,1.8986148E-1,-1.3465285E-1,7.6078437E-3],"categories":[],"categories_nodes":[],"categories_segments":[],"categories_sizes":[],"default_left":[0,0,0,0,0,0,0,0,0,0,0,0,0,0,0],"id":16,"left_children":[1,3,5,7,9,11,13,-1,-1,-1,-1,-1,-1,-1,-1],"loss_changes":[2.9358475E0,4.812362E0,3.8955812E0,5.363536E0,6.204007E0,4.2215195E0,3.0781908E0,0E0,0E0,0E0,0E0,0E0,0E0,0E0,0E0],"parents":[2147483647,0,0,1,1,2,2,3,3,4,4,5,5,6,6],"right_children":[2,4,6,8,10,12,14,-1,-1,-1,-1,-1,-1,-1,-1],"split_conditions":[-6.9421396E-2,2.2752821E0,-4.6156444E-2,4.4787064E-1,1.0412694E0,4.8882682E-2,-1.9836464E0,-1.4055796E-2,-1.1888732E-1,2.6810965E-1,-4.6930972E-2,9.282031E-3,1.8986148E-1,-1.3465285E-1,7.6078437E-3],"split_indices":[14,19,14,13,18,27,9,0,0,0,0,0,0,0,0],"split_type":[0,0,0,0,0,0,0,0,0,0,0,0,0,0,0],"sum_hessian":[9.46E2,2.7E2,6.76E2,2.49E2,2.1E1,4.6E1,6.3E2,1.93E2,5.6E1,1E1,1.1E1,2.5E1,2.1E1,1.3E1,6.17E2],"tree_param":{"num_deleted":"0","num_feature":"29","num_nodes":"15","size_leaf_vector":"1"}},{"base_weights":[4.5856225E-4,-4.0746397E-1,5.687848E-3,-8.7188415E-2,-2.1396245E-1,-6.600403E-3,2.1471506E-1,3.3814073E-2,-7.9587996E-2,1.2186467E-4,-1.0323254E-1,9.845661E-2,-1.3512403E-1],"categories":[],"categories_nodes":[],"categories_segments":[],"categories_sizes":[],"default_left":[0,0,0,0,0,0,0,0,0,0,0,0,0],"id":17,"left_children":[1,3,5,7,-1,9,11,-1,-1,-1,-1,-1,-1],"loss_changes":[2.0224047E0,1.1128851E0,2.4056072E0,2.7912682E-1,0E0,2.0929792E0,4.0724964E0,0E0,0E0,0E0,0E0,0E0,0E0],"parents":[2147483647,0,0,1,1,2,2,3,3,5,5,6,6],"right_children":[2,4,6,8,-1,10,12,-1,-1,-1,-1,-1,-1],"split_conditions":[-9.844354E-1,-2.0572817E-1,1.0449585E0,7.6106954E-1,-2.1396245E-1,1.5315409E0,1.0717225E-2,3.3814073E-2,-7.9587996E-2,1.2186467E-4,-1.0323254E-1,9.845661E-2,-1.3512403E-1],"split_indices":[10,6,24,8,0,25,10,0,0,0,0,0,0],"split_type":[0,0,0,0,0,0,0,0,0,0,0,0,0],"sum_hessian":[9.46E2,1.1E1,9.35E2,6E0,5E0,8.84E2,5.1E1,3E0,3E0,8.67E2,1.7E1,4.4E1,7E0],"tree_param":{"num_deleted":"0","num_feature":"29","num_nodes":"13","size_leaf_vector":"1"}},{"base_weights":[-1.0105851E-4,1.6744608E-2,-1.284335E-1,-1.3084622E-2,1.1386959E-1,-1.8909194E-1,4.9706015E-1,-1.1500287E-1,-5.369288E-4,1.8686963E-2,1.5639943E-1,-3.722326E-2,-2.3049459E-1,-6.962643E-2,1.8115926E-1],"categories":[],"categories_nodes":[],"categories_segments":[],"categories_sizes":[],"default_left":[0,0,0,0,0,0,0,0,0,0,0,0,0,0,0],"id":18,"left_children":[1,3,5,7,9,11,13,-1,-1,-1,-1,-1,-1,-1,-1],"loss_changes":[2.0494182E0,2.4293127E0,4.267552E0,2.6841679E0,4.107829E0,3.7081127E0,9.189093E-1,0E0,0E0,0E0,0E0,0E0,0E0,0E0,0E0],"parents":[2147483647,0,0,1,1,2,2,3,3,4,4,5,5,6,6],"right_children":[2,4,6,8,10,12,14,-1,-1,-1,-1,-1,-1,-1,-1],"split_conditions":[9.048544E-1,3.717775E-1,1.2627248E0,-9.3716455E-1,7.6841205E-1,1E0,-9.844354E-1,-1.1500287E-1,-5.369288E-4,1.8686963E-2,1.5639943E-1,-3.722326E-2,-2.3049459E-1,-6.962643E-2,1.8115926E-1],"split_indices":[26,26,9,10,22,15,10,0,0,0,0,0,0,0,0],"split_type":[0,0,0,0,0,0,0,0,0,0,0,0,0,0,0],"sum_hessian":[9.46E2,8.37E2,1.09E2,6.41E2,1.96E2,1E2,9E0,1.8E1,6.23E2,1.75E2,2.1E1,9.1E1,9E0,1E0,8E0],"tree_param":{"num_deleted":"0","num_feature":"29","num_nodes":"15","size_leaf_vector":"1"}},{"base_weights":[-1.7274698E-4,-2.5727661E-2,7.606322E-2,-3.3332337E-2,7.427607E-1,2.5018522E-1,-8.603428E-2,6.251935E-4,-4.991907E-2,2.4646457E-1,4.0505078E-2,-1.1424555E-1,9.41723E-2,5.8746647E-2,-5.5859942E-2],"categories":[],"categories_nodes":[],"categories_segments":[],"categories_sizes":[],"default_left":[0,0,0,0,0,0,0,0,0,0,0,0,0,0,0],"id":19,"left_children":[1,3,5,7,9,11,13,-1,-1,-1,-1,-1,-1,-1,-1],"loss_changes":[1.8469058E0,4.1740723E0,6.7390127E0,3.3180566E0,2.2425652E-1,4.7435884E0,3.5372667E0,0E0,0E0,0E0,0E0,0E0,0E0,0E0,0E0],"parents":[2147483647,0,0,1,1,2,2,3,3,4,4,5,5,6,6],"right_children":[2,4,6,8,10,12,14,-1,-1,-1,-1,-1,-1,-1,-1],"split_conditions":[4.6650532E-1,1.501108E0,7.860672E-1,3.0595234E-1,2.419199E-1,-9.3716455E-1,-7.404447E-1,6.251935E-4,-4.991907E-2,2.4646457E-1,4.0505078E-2,-1.1424555E-1,9.41723E-2,5.8746647E-2,-5.5859942E-2],"split_indices":[7,13,7,6,7,10,26,0,0,0,0,0,0,0,0],"split_type":[0,0,0,0,0,0,0,0,0,0,0,0,0,0,0],"sum_hessian":[9.46E2,7.09E2,2.37E2,7.03E2,6E0,1.14E2,1.23E2,5.56E2,1.47E2,5E0,1E0,1E1,1.04E2,3.2E1,9.1E1],"tree_param":{"num_deleted":"0","num_feature":"29","num_nodes":"15","size_leaf_vector":"1"}},{"base_weights":[1.11932364E-4,3.3980114E-3,-5.1582116E-1,-3.147726E-3,5.10955E-1,-1.7676312E-1,-2.2331215E-2,-1.5190357E-1,3.6371066E-4,1.9292687E-1,2.5774026E-2],"categories":[],"categories_nodes":[],"categories_segments":[],"categories_sizes":[],"default_left":[0,0,0,0,0,0,0,0,0,0,0],"id":20,"left_children":[1,3,5,7,9,-1,-1,-1,-1,-1,-1],"loss_changes":[1.6072936E0,3.1312475E0,1.5049767E-1,2.0432174E0,6.187022E-1,0E0,0E0,0E0,0E0,0E0,0E0],"parents":[2147483647,0,0,1,1,2,2,3,3,4,4],"right_children":[2,4,6,8,10,-1,-1,-1,-1,-1,-1],"split_conditions":[3.4433682E0,4.5431795E0,1E0,-2.978074E0,6.666667E-1,-1.7676312E-1,-2.2331215E-2,-1.5190357E-1,3.6371066E-4,1.9292687E-1,2.5774026E-2],"split_indices":[10,16,3,27,0,0,0,0,0,0,0],"split_type":[0,0,0,0,0,0,0,0,0,0,0],"sum_hessian":[9.46E2,9.41E2,5E0,9.3E2,1.1E1,4E0,1E0,7E0,9.23E2,8E0,3E0],"tree_param":{"num_deleted":"0","num_feature":"29","num_nodes":"11","size_leaf_vector":"1"}},{"base_weights":[-6.107745E-5,-2.1838829E-2,7.789725E-2,-4.9142474E-3,-4.37197E-1,1.9087729E-1,-1.2774089E-1,-1.6105058E-2,1.7597696E-2,3.822062E-2,-1.6803908E-1,-9.740351E-2,7.757751E-2,1.4639097E-1,-7.289745E-2],"categories":[],"categories_nodes":[],"categories_segments":[],"categories_sizes":[],"default_left":[0,0,0,0,0,0,0,0,0,0,0,0,0,0,0],"id":21,"left_children":[1,3,5,7,9,11,13,-1,-1,-1,-1,-1,-1,-1,-1],"loss_changes":[1.6094772E0,5.2069063E0,4.8336153E0,2.213749E0,2.0841937E0,4.761972E0,5.3696895E0,0E0,0E0,0E0,0E0,0E0,0E0,0E0,0E0],"parents":[2147483647,0,0,1,1,2,2,3,3,4,4,5,5,6,6],"right_children":[2,4,6,8,10,12,14,-1,-1,-1,-1,-1,-1,-1,-1],"split_conditions":[5.3054816E-1,1.0966213E0,-9.8620564E-2,3.3333334E-1,1.5355366E-2,-2.9714826E-1,-9.124088E-1,-1.6105058E-2,1.7597696E-2,3.822062E-2,-1.6803908E-1,-9.740351E-2,7.757751E-2,1.4639097E-1,-7.289745E-2],"split_indices":[11,14,8,0,17,25,22,0,0,0,0,0,0,0,0],"split_type":[0,0,0,0,0,0,0,0,0,0,0,0,0,0,0],"sum_hessian":[9.46E2,7.4E2,2.06E2,7.12E2,2.8E1,1.33E2,7.3E1,4.03E2,3.09E2,5E0,2.3E1,1.5E1,1.18E2,1.1E1,6.2E1],"tree_param":{"num_deleted":"0","num_feature":"29","num_nodes":"15","size_leaf_vector":"1"}},{"base_weights":[-1.2154262E-4,-6.7996187E-3,2.4643788E-1,1.1277249E-2,-1.16174854E-1,2.999629E-1,-3.2867756E-2,-6.5515237E-3,2.8183136E-2,-6.4677484E-2,4.8801262E-2,1.10582136E-1,-2.144637E-3],"categories":[],"categories_nodes":[],"categories_segments":[],"categories_sizes":[],"default_left":[0,0,0,0,0,0,0,0,0,0,0,0,0],"id":22,"left_children":[1,3,5,7,9,11,-1,-1,-1,-1,-1,-1,-1],"loss_changes":[1.5609516E0,1.8262303E0,5.092325E-1,2.172934E0,3.6666443E0,4.6642673E-1,0E0,0E0,0E0,0E0,0E0,0E0,0E0],"parents":[2147483647,0,0,1,1,2,2,3,3,4,4,5,5],"right_children":[2,4,6,8,10,12,-1,-1,-1,-1,-1,-1,-1],"split_conditions":[1.6712803E0,7.87005E-1,4.084161E-1,1.8569781E-1,7.5178444E-1,1.5355366E-2,-3.2867756E-2,-6.5515237E-3,2.8183136E-2,-6.4677484E-2,4.8801262E-2,1.10582136E-1,-2.144637E-3],"split_indices":[28,28,27,28,27,17,0,0,0,0,0,0,0],"split_type":[0,0,0,0,0,0,0,0,0,0,0,0,0],"sum_hessian":[9.46E2,9.22E2,2.4E1,7.92E2,1.3E2,2.1E1,3E0,5.66E2,2.26E2,9.6E1,3.4E1,1.7E1,4E0],"tree_param":{"num_deleted":"0","num_feature":"29","num_nodes":"13","size_leaf_vector":"1"}},{"base_weights":[9.763329E-7,3.8669458E-1,-4.121558E-3,4.6628106E-1,-4.943755E-2,8.302143E-3,-1.5366638E-1,6.266933E-2,2.2073573E-1,1.2962546E-3,2.598559E-1,-7.986638E-2,3.427235E-2],"categories":[],"categories_nodes":[],"categories_segments":[],"categories_sizes":[],"default_left":[0,0,0,0,0,0,0,0,0,0,0,0,0],"id":23,"left_children":[1,3,5,7,-1,9,11,-1,-1,-1,-1,-1,-1],"loss_changes":[1.5112609E0,5.157479E-1,1.7439859E0,4.705901E-1,0E0,2.9574869E0,2.2015233E0,0E0,0E0,0E0,0E0,0E0,0E0],"parents":[2147483647,0,0,1,1,2,2,3,3,5,5,6,6],"right_children":[2,4,6,8,-1,10,12,-1,-1,-1,-1,-1,-1],"split_conditions":[-1.1124498E0,8.30103E-1,8.927915E-1,1.6217453E0,-4.943755E-2,2.081848E0,6.536525E-1,6.266933E-2,2.2073573E-1,1.2962546E-3,2.598559E-1,-7.986638E-2,3.427235E-2],"split_indices":[6,24,9,22,0,27,26,0,0,0,0,0,0],"split_type":[0,0,0,0,0,0,0,0,0,0,0,0,0],"sum_hessian":[9.46E2,9E0,9.37E2,8E0,1E0,8.66E2,7.1E1,5E0,3E0,8.63E2,3E0,5E1,2.1E1],"tree_param":{"num_deleted":"0","num_feature":"29","num_nodes":"13","size_leaf_vector":"1"}},{"base_weights":[4.755645E-4,-2.0625594E-1,8.400128E-3,1.5718845E-1,-4.027134E-1,-2.65497E-1,1.4831752E-2,1.2809053E-1,-4.051411E-2,-7.1999945E-2,-2.821447E-1,1.6008368E-1,-9.963992E-2,-2.7556433E-3,3.4887467E-2],"categories":[],"categories_nodes":[],"categories_segments":[],"categories_sizes":[],"default_left":[0,0,0,0,0,0,0,0,0,0,0,0,0,0,0],"id":24,"left_children":[1,3,5,7,9,11,13,-1,-1,-1,-1,-1,-1,-1,-1],"loss_changes":[1.553162E0,2.5623493E0,1.6122814E0,1.0825715E0,1.7868369E0,1.2954699E0,2.1771157E0,0E0,0E0,0E0,0E0,0E0,0E0,0E0,0E0],"parents":[2147483647,0,0,1,1,2,2,3,3,4,4,5,5,6,6],"right_children":[2,4,6,8,10,12,14,-1,-1,-1,-1,-1,-1,-1,-1],"split_conditions":[-1.4348812E0,-1.6949053E0,-1.8247136E0,6.6413455E-2,6.7501783E-1,-4.034444E-1,5.3054816E-1,1.2809053E-1,-4.051411E-2,-7.1999945E-2,-2.821447E-1,1.6008368E-1,-9.963992E-2,-2.7556433E-3,3.4887467E-2],"split_indices":[8,8,9,6,27,14,11,0,0,0,0,0,0,0,0],"split_type":[0,0,0,0,0,0,0,0,0,0,0,0,0,0,0],"sum_hessian":[9.46E2,3.4E1,9.12E2,1.2E1,2.2E1,2E1,8.92E2,6E0,6E0,1.8E1,4E0,1E0,1.9E1,7.22E2,1.7E2],"tree_param":{"num_deleted":"0","num_feature":"29","num_nodes":"15","size_leaf_vector":"1"}},{"base_weights":[1.4919187E-4,3.1061368E-3,-4.64116E-1,1.6154725E-2,-9.5735505E-2,-1.5243292E-1,-3.6622167E-2,8.537811E-2,2.9630451E-3,-1.2068544E-1,-3.0209313E-3],"categories":[],"categories_nodes":[],"categories_segments":[],"categories_sizes":[],"default_left":[0,0,0,0,0,0,0,0,0,0,0],"id":25,"left_children":[1,3,5,7,9,-1,-1,-1,-1,-1,-1],"loss_changes":[1.3014895E0,1.2164853E0,2.8259158E-2,1.40099E0,2.8846335E0,0E0,0E0,0E0,0E0,0E0,0E0],"parents":[2147483647,0,0,1,1,2,2,3,3,4,4],"right_children":[2,4,6,8,10,-1,-1,-1,-1,-1,-1],"split_conditions":[2.7672772E0,9.048544E-1,-4.5652175E-1,-1.0468986E0,4.884951E-1,-1.5243292E-1,-3.6622167E-2,8.537811E-2,2.9630451E-3,-1.2068544E-1,-3.0209313E-3],"split_indices":[14,26,2,6,8,0,0,0,0,0,0],"split_type":[0,0,0,0,0,0,0,0,0,0,0],"sum_hessian":[9.46E2,9.41E2,5E0,8.32E2,1.09E2,4E0,1E0,1.8E1,8.14E2,2.3E1,8.6E1],"tree_param":{"num_deleted":"0","num_feature":"29","num_nodes":"11","size_leaf_vector":"1"}},{"base_weights":[-1.3257659E-4,-2.1381835E-3,1.8950336E-1,-5.864586E-2,2.1622008E-2,-1.2364107E-2,-1.4435849E-1,1.1595099E-1,1.8584382E-3],"categories":[],"categories_nodes":[],"categories_segments":[],"categories_sizes":[],"default_left":[0,0,0,0,0,0,0,0,0],"id":26,"left_children":[1,3,-1,5,7,-1,-1,-1,-1],"loss_changes":[1.2013541E0,1.2700564E0,0E0,2.0426335E0,3.7465875E0,0E0,0E0,0E0,0E0],"parents":[2147483647,0,0,1,1,3,3,4,4],"right_children":[2,4,-1,6,8,-1,-1,-1,-1],"split_conditions":[3.807911E0,-2.4037191E-1,1.8950336E-1,9.293478E-1,-2.0391886E-1,-1.2364107E-2,-1.4435849E-1,1.1595099E-1,1.8584382E-3],"split_indices":[18,9,0,2,9,0,0,0,0],"split_type":[0,0,0,0,0,0,0,0,0],"sum_hessian":[9.46E2,9.44E2,2E0,2.79E2,6.65E2,2.69E2,1E1,2.6E1,6.39E2],"tree_param":{"num_deleted":"0","num_feature":"29","num_nodes":"9","size_leaf_vector":"1"}},{"base_weights":[6.6294466E-5,3.0913847E-2,-4.0065635E-2,6.0435537E-2,-1.5135196E-1,6.715451E-2,-1.1491073E-1,5.949344E-3,6.216754E-2,-1.1588179E-1,1.5442373E-3,-6.386144E-2,3.575791E-2,-5.2534316E-2,3.9994437E-2],"categories":[],"categories_nodes":[],"categories_segments":[],"categories_sizes":[],"default_left":[0,0,0,0,0,0,0,0,0,0,0,0,0,0,0],"id":27,"left_children":[1,3,5,7,9,11,13,-1,-1,-1,-1,-1,-1,-1,-1],"loss_changes":[1.1735977E0,2.893253E0,3.3139765E0,2.7495499E0,2.7593594E0,2.5026357E0,3.654757E0,0E0,0E0,0E0,0E0,0E0,0E0,0E0,0E0],"parents":[2147483647,0,0,1,1,2,2,3,3,4,4,5,5,6,6],"right_children":[2,4,6,8,10,12,14,-1,-1,-1,-1,-1,-1,-1,-1],"split_conditions":[3.7342746E-2,7.855366E-1,-4.694518E-1,5.8193576E-1,1.2187297E0,-2.1487144E-1,5.969556E-1,5.949344E-3,6.216754E-2,-1.1588179E-1,1.5442373E-3,-6.386144E-2,3.575791E-2,-5.2534316E-2,3.9994437E-2],"split_indices":[27,8,11,22,8,22,6,0,0,0,0,0,0,0,0],"split_type":[0,0,0,0,0,0,0,0,0,0,0,0,0,0,0],"sum_hessian":[9.46E2,5.35E2,4.11E2,4.61E2,7.4E1,1.69E2,2.42E2,3.62E2,9.9E1,2.9E1,4.5E1,2.6E1,1.43E2,1.95E2,4.7E1],"tree_param":{"num_deleted":"0","num_feature":"29","num_nodes":"15","size_leaf_vector":"1"}},{"base_weights":[-4.5447818E-5,-1.00666426E-1,1.2487467E-2,1.2703402E-1,-2.6063663E-1,1.4132734E-3,3.6041838E-1,1.1741765E-1,-2.1311006E-2,-9.579328E-2,1.4163366E-1,-2.507135E-2,9.78717E-3,1.5142399E-1,-6.144006E-2],"categories":[],"categories_nodes":[],"categories_segments":[],"categories_sizes":[],"default_left":[0,0,0,0,0,0,0,0,0,0,0,0,0,0,0],"id":28,"left_children":[1,3,5,7,9,11,13,-1,-1,-1,-1,-1,-1,-1,-1],"loss_changes":[1.1954944E0,3.8577647E0,3.2476156E0,2.3317137E0,2.816348E0,2.1724038E0,2.2243745E0,0E0,0E0,0E0,0E0,0E0,0E0,0E0,0E0],"parents":[2147483647,0,0,1,1,2,2,3,3,4,4,5,5,6,6],"right_children":[2,4,6,8,10,12,14,-1,-1,-1,-1,-1,-1,-1,-1],"split_conditions":[-1.0685376E0,-4.1477433E-1,1.4903324E0,3.5729757E-1,1E0,-1.9059826E-1,-1.8782333E-1,1.1741765E-1,-2.1311006E-2,-9.579328E-2,1.4163366E-1,-2.507135E-2,9.78717E-3,1.5142399E-1,-6.144006E-2],"split_indices":[27,22,11,14,15,22,9,0,0,0,0,0,0,0,0],"split_type":[0,0,0,0,0,0,0,0,0,0,0,0,0,0,0],"sum_hessian":[9.46E2,1.04E2,8.42E2,4.3E1,6.1E1,8.17E2,2.5E1,1.8E1,2.5E1,5.7E1,4E0,2.19E2,5.98E2,2E1,5E0],"tree_param":{"num_deleted":"0","num_feature":"29","num_nodes":"15","size_leaf_vector":"1"}},{"base_weights":[1.9695741E-4,-3.0957381E-3,3.4371296E-1,2.9694445E-3,-2.8193936E-1,-1.6348171E-1,1.8736719E-1,4.3689046E-2,-2.3063389E-3,-1.3962641E-1,1.0847732E-1,-1.3066421E-1,2.1716785E-2],"categories":[],"categories_nodes":[],"categories_segments":[],"categories_sizes":[],"default_left":[0,0,0,0,0,0,0,0,0,0,0,0,0],"id":29,"left_children":[1,3,5,7,9,11,-1,-1,-1,-1,-1,-1,-1],"loss_changes":[1.0722097E0,1.5889091E0,1.384088E0,1.3998595E0,2.5298176E0,2.8821856E-1,0E0,0E0,0E0,0E0,0E0,0E0,0E0],"parents":[2147483647,0,0,1,1,2,2,3,3,4,4,5,5],"right_children":[2,4,6,8,10,12,-1,-1,-1,-1,-1,-1,-1],"split_conditions":[2.0257452E0,1.6852418E0,2.419199E-1,-1.8372647E-1,3.3794466E-1,-9.531773E-1,1.8736719E-1,4.3689046E-2,-2.3063389E-3,-1.3962641E-1,1.0847732E-1,-1.3066421E-1,2.1716785E-2],"split_indices":[21,21,7,24,2,2,0,0,0,0,0,0,0],"split_type":[0,0,0,0,0,0,0,0,0,0,0,0,0],"sum_hessian":[9.46E2,9.38E2,8E0,9.19E2,1.9E1,3E0,5E0,6.3E1,8.56E2,1.5E1,4E0,1E0,2E0],"tree_param":{"num_deleted":"0","num_feature":"29","num_nodes":"13","size_leaf_vector":"1"}},{"base_weights":[2.3158349E-4,-4.751627E-2,2.456133E-2,-2.0675112E-1,1.3774327E-2,4.8570067E-1,1.8581176E-2,5.1129915E-2,-7.863864E-2,1.0077079E-2,-1.4428581E-1,2.4731936E-2,2.1335079E-1,-9.648866E-2,8.259888E-3],"categories":[],"categories_nodes":[],"categories_segments":[],"categories_sizes":[],"default_left":[0,0,0,0,0,0,0,0,0,0,0,0,0,0,0],"id":30,"left_children":[1,3,5,7,9,11,13,-1,-1,-1,-1,-1,-1,-1,-1],"loss_changes":[1.1012906E0,3.1259193E0,1.722801E0,1.9036705E0,2.2905622E0,6.6875243E-1,1.9001021E0,0E0,0E0,0E0,0E0,0E0,0E0,0E0,0E0],"parents":[2147483647,0,0,1,1,2,2,3,3,4,4,5,5,6,6],"right_children":[2,4,6,8,10,12,14,-1,-1,-1,-1,-1,-1,-1,-1],"split_conditions":[-2.3875433E-1,-1.1347378E-1,-1.7525975E0,-8.4205323E-1,1.0555466E0,-3.3333334E-1,-1.4546313E0,5.1129915E-2,-7.863864E-2,1.0077079E-2,-1.4428581E-1,2.4731936E-2,2.1335079E-1,-9.648866E-2,8.259888E-3],"split_indices":[28,17,26,6,10,0,2,0,0,0,0,0,0,0,0],"split_type":[0,0,0,0,0,0,0,0,0,0,0,0,0,0,0],"sum_hessian":[9.46E2,3.19E2,6.27E2,8.8E1,2.31E2,7E0,6.2E2,1.1E1,7.7E1,2.23E2,8E0,3E0,4E0,1.5E1,6.05E2],"tree_param":{"num_deleted":"0","num_feature":"29","num_nodes":"15","size_leaf_vector":"1"}},{"base_weights":[1.4966191E-4,-1.7630821E-1,6.9140387E-3,-2.5288993E-1,1.4412679E-1,3.0548358E-1,-4.629459E-3,5.560783E-3,-1.2500168E-1,2.1366263E-2,2.1870905E-1,-1.6649316E-1,1.2573657E-4],"categories":[],"categories_nodes":[],"categories_segments":[],"categories_sizes":[],"default_left":[0,0,0,0,0,0,0,0,0,0,0,0,0],"id":31,"left_children":[1,3,5,7,-1,9,11,-1,-1,-1,-1,-1,-1],"loss_changes":[1.1315844E0,1.8817691E0,3.1481028E0,1.4302759E0,0E0,3.3215969E0,2.4452908E0,0E0,0E0,0E0,0E0,0E0,0E0],"parents":[2147483647,0,0,1,1,2,2,3,3,5,5,6,6],"right_children":[2,4,6,8,-1,10,12,-1,-1,-1,-1,-1,-1],"split_conditions":[-1.8410634E-1,2E0,-1.8372647E-1,-8.015558E-1,1.4412679E-1,-4.1655418E-1,-1.8369667E-1,5.560783E-3,-1.2500168E-1,2.1366263E-2,2.1870905E-1,-1.6649316E-1,1.2573657E-4],"split_indices":[24,1,24,26,0,10,24,0,0,0,0,0,0],"split_type":[0,0,0,0,0,0,0,0,0,0,0,0,0],"sum_hessian":[9.46E2,3.4E1,9.12E2,3.1E1,3E0,3.3E1,8.79E2,1.2E1,1.9E1,2.2E1,1.1E1,7E0,8.72E2],"tree_param":{"num_deleted":"0","num_feature":"29","num_nodes":"13","size_leaf_vector":"1"}},{"base_weights":[2.0853418E-4,-6.1432044E-3,1.4824755E-1,1.786895E-2,-5.3989332E-2,1.458838E-2,5.3440034E-1,-4.008748E-3,3.600453E-2,-7.899482E-3,-1.1722493E-1,-6.675757E-2,9.0441E-2,4.120617E-2,2.0548235E-1],"categories":[],"categories_nodes":[],"categories_segments":[],"categories_sizes":[],"default_left":[0,0,0,0,0,0,0,0,0,0,0,0,0,0,0],"id":32,"left_children":[1,3,5,7,9,11,13,-1,-1,-1,-1,-1,-1,-1,-1],"loss_changes":[8.9137965E-1,1.0453044E0,2.0051055E0,1.9348475E0,2.8211756E0,2.1077907E0,5.036373E-1,0E0,0E0,0E0,0E0,0E0,0E0,0E0,0E0],"parents":[2147483647,0,0,1,1,2,2,3,3,4,4,5,5,6,6],"right_children":[2,4,6,8,10,12,14,-1,-1,-1,-1,-1,-1,-1,-1],"split_conditions":[1.5248618E0,2.1040446E-1,8.667949E-1,5.8193576E-1,9.6083254E-1,-4.595894E-1,-8.279528E-1,-4.008748E-3,3.600453E-2,-7.899482E-3,-1.1722493E-1,-6.675757E-2,9.0441E-2,4.120617E-2,2.0548235E-1],"split_indices":[27,27,8,22,14,11,7,0,0,0,0,0,0,0,0],"split_type":[0,0,0,0,0,0,0,0,0,0,0,0,0,0,0],"sum_hessian":[9.46E2,9.08E2,3.8E1,6.05E2,3.03E2,2.9E1,9E0,4.64E2,1.41E2,2.81E2,2.2E1,1.6E1,1.3E1,3E0,6E0],"tree_param":{"num_deleted":"0","num_feature":"29","num_nodes":"15","size_leaf_vector":"1"}},{"base_weights":[3.330846E-4,-3.036806E-2,3.7003126E-2,-7.51398E-2,8.146397E-2,7.00752E-2,-1.6528891E-1,-1.663468E-2,-9.983254E-2,-2.5805016E-3,1.1867692E-1,2.8423825E-2,-4.8845466E-2,-6.6376515E-2,1.1538292E-1],"categories":[],"categories_nodes":[],"categories_segments":[],"categories_sizes":[],"default_left":[0,0,0,0,0,0,0,0,0,0,0,0,0,0,0],"id":33,"left_children":[1,3,5,7,9,11,13,-1,-1,-1,-1,-1,-1,-1,-1],"loss_changes":[1.0672679E0,2.589689E0,2.9017568E0,1.853508E0,4.1906095E0,2.1528215E0,1.962414E0,0E0,0E0,0E0,0E0,0E0,0E0,0E0,0E0],"parents":[2147483647,0,0,1,1,2,2,3,3,4,4,5,5,6,6],"right_children":[2,4,6,8,10,12,14,-1,-1,-1,-1,-1,-1,-1,-1],"split_conditions":[1.0689312E-2,6.6606396E-1,5.3031313E-1,7.146737E-1,5.982287E-1,5.2813363E-1,1.1176735E0,-1.663468E-2,-9.983254E-2,-2.5805016E-3,1.1867692E-1,2.8423825E-2,-4.8845466E-2,-6.6376515E-2,1.1538292E-1],"split_indices":[13,14,10,21,22,22,27,0,0,0,0,0,0,0,0],"split_type":[0,0,0,0,0,0,0,0,0,0,0,0,0,0,0],"sum_hessian":[9.46E2,5.15E2,4.31E2,3.68E2,1.47E2,3.71E2,6E1,3.43E2,2.5E1,1.15E2,3.2E1,3.36E2,3.5E1,5.5E1,5E0],"tree_param":{"num_deleted":"0","num_feature":"29","num_nodes":"15","size_leaf_vector":"1"}},{"base_weights":[2.6289865E-4,-1.0854445E-3,1.9136932E-1,1.1581905E-3,-3.527813E-1,-7.9669314E-4,8.899015E-2,-1.22564085E-1,-1.1092973E-2],"categories":[],"categories_nodes":[],"categories_segments":[],"categories_sizes":[],"default_left":[0,0,0,0,0,0,0,0,0],"id":34,"left_children":[1,3,-1,5,7,-1,-1,-1,-1],"loss_changes":[8.1487614E-1,7.468756E-1,0E0,1.0611961E0,9.05596E-2,0E0,0E0,0E0,0E0],"parents":[2147483647,0,0,1,1,3,3,4,4],"right_children":[2,4,-1,6,8,-1,-1,-1,-1],"split_conditions":[4.108148E0,3.4433682E0,1.9136932E-1,4.5431795E0,1E0,-7.9669314E-4,8.899015E-2,-1.22564085E-1,-1.1092973E-2],"split_indices":[18,10,0,16,3,0,0,0,0],"split_type":[0,0,0,0,0,0,0,0,0],"sum_hessian":[9.46E2,9.45E2,1E0,9.4E2,5E0,9.29E2,1.1E1,4E0,1E0],"tree_param":{"num_deleted":"0","num_feature":"29","num_nodes":"9","size_leaf_vector":"1"}},{"base_weights":[3.3820016E-4,-3.1823704E-3,2.1929516E-1,8.130699E-3,-1.01902895E-1,-2.0386636E-2,4.3156505E-1,-9.016612E-3,9.426757E-3,-4.6921097E-2,7.742835E-2,-8.082629E-2,3.225849E-2,3.3042885E-2,1.3852434E-1],"categories":[],"categories_nodes":[],"categories_segments":[],"categories_sizes":[],"default_left":[0,0,0,0,0,0,0,0,0,0,0,0,0,0,0],"id":35,"left_children":[1,3,5,7,9,11,13,-1,-1,-1,-1,-1,-1,-1,-1],"loss_changes":[7.306961E-1,1.042833E0,7.7195656E-1,7.4628115E-1,1.9238989E0,2.8381202E-1,2.6752949E-2,0E0,0E0,0E0,0E0,0E0,0E0,0E0,0E0],"parents":[2147483647,0,0,1,1,2,2,3,3,4,4,5,5,6,6],"right_children":[2,4,6,8,10,12,14,-1,-1,-1,-1,-1,-1,-1,-1],"split_conditions":[1.4456521E0,9.048544E-1,-8.313992E-1,-1.8685122E-1,1.0425606E0,9.2777073E-1,6.9416E-1,-9.016612E-3,9.426757E-3,-4.6921097E-2,7.742835E-2,-8.082629E-2,3.225849E-2,3.3042885E-2,1.3852434E-1],"split_indices":[2,26,7,28,28,19,8,0,0,0,0,0,0,0,0],"split_type":[0,0,0,0,0,0,0,0,0,0,0,0,0,0,0],"sum_hessian":[9.46E2,9.32E2,1.4E1,8.37E2,9.5E1,7E0,7E0,3.17E2,5.2E2,8.3E1,1.2E1,2E0,5E0,1E0,6E0],"tree_param":{"num_deleted":"0","num_feature":"29","num_nodes":"15","size_leaf_vector":"1"}},{"base_weights":[3.993365E-4,-3.4122057E-2,2.115815E-2,-7.775671E-2,8.318857E-2,1.0202401E-2,2.6922643E-1,-3.1414684E-2,6.1377004E-2,-2.1175804E-2,1.1932471E-1,-4.0273465E-2,8.25821E-3,3.9517492E-2,2.8745335E-1],"categories":[],"categories_nodes":[],"categories_segments":[],"categories_sizes":[],"default_left":[0,0,0,0,0,0,0,0,0,0,0,0,0,0,0],"id":36,"left_children":[1,3,5,7,9,11,13,-1,-1,-1,-1,-1,-1,-1,-1],"loss_changes":[6.793641E-1,1.8287643E0,1.6061751E0,2.0004802E0,4.7201014E0,1.4251401E0,2.2420795E0,0E0,0E0,0E0,0E0,0E0,0E0,0E0,0E0],"parents":[2147483647,0,0,1,1,2,2,3,3,4,4,5,5,6,6],"right_children":[2,4,6,8,10,12,14,-1,-1,-1,-1,-1,-1,-1,-1],"split_conditions":[-1.66761E-1,3.9538136E-1,1.0788012E0,8.5615355E-1,3.1531018E-1,-5.3979236E-1,-4.3714258E-1,-3.1414684E-2,6.1377004E-2,-2.1175804E-2,1.1932471E-1,-4.0273465E-2,8.25821E-3,3.9517492E-2,2.8745335E-1],"split_indices":[24,9,22,22,14,28,10,0,0,0,0,0,0,0,0],"split_type":[0,0,0,0,0,0,0,0,0,0,0,0,0,0,0],"sum_hessian":[9.46E2,3.55E2,5.91E2,2.59E2,9.6E1,5.67E2,2.4E1,2.37E2,2.2E1,6.5E1,3.1E1,6E1,5.07E2,2.1E1,3E0],"tree_param":{"num_deleted":"0","num_feature":"29","num_nodes":"15","size_leaf_vector":"1"}},{"base_weights":[7.26188E-4,4.676398E-3,-1.7368194E-1,1.5259939E-4,2.6224065E-1,2.447772E-2,-6.7316073E-1,2.523972E-3,-2.847103E-2,1.0837366E-1,-3.7525624E-2,-7.277836E-2,4.0115405E-2,-8.320775E-2,-2.4051651E-1],"categories":[],"categories_nodes":[],"categories_segments":[],"categories_sizes":[],"default_left":[0,0,0,0,0,0,0,0,0,0,0,0,0,0,0],"id":37,"left_children":[1,3,5,7,9,11,13,-1,-1,-1,-1,-1,-1,-1,-1],"loss_changes":[6.532466E-1,1.0800713E0,2.094985E0,7.169224E-1,6.5874124E-1,4.9924007E-1,8.294296E-2,0E0,0E0,0E0,0E0,0E0,0E0,0E0,0E0],"parents":[2147483647,0,0,1,1,2,2,3,3,4,4,5,5,6,6],"right_children":[2,4,6,8,10,12,14,-1,-1,-1,-1,-1,-1,-1,-1],"split_conditions":[1.5315409E0,1.2436826E0,6.0104835E-1,1.0849122E0,-9.8620564E-2,-1.6535853E-1,2.6774447E-2,2.523972E-3,-2.847103E-2,1.0837366E-1,-3.7525624E-2,-7.277836E-2,4.0115405E-2,-8.320775E-2,-2.4051651E-1],"split_indices":[25,25,27,21,8,24,14,0,0,0,0,0,0,0,0],"split_type":[0,0,0,0,0,0,0,0,0,0,0,0,0,0,0],"sum_hessian":[9.46E2,9.26E2,2E1,9.11E2,1.5E1,1.5E1,5E0,8.39E2,7.2E1,1.2E1,3E0,4E0,1.1E1,2E0,3E0],"tree_param":{"num_deleted":"0","num_feature":"29","num_nodes":"15","size_leaf_vector":"1"}},{"base_weights":[1.7947481E-4,-1.9043088E-2,3.214458E-2,-2.832124E-2,5.2377754E-1,-2.9134208E-1,4.52544E-2,-1.1533957E-2,1.3700323E-1,-1.2548805E-2,3.293251E-1,3.3847857E-2,-1.104317E-1,2.8958231E-2,-8.400595E-3],"categories":[],"categories_nodes":[],"categories_segments":[],"categories_sizes":[],"default_left":[0,0,0,0,0,0,0,0,0,0,0,0,0,0,0],"id":38,"left_children":[1,3,5,7,9,11,13,-1,-1,-1,-1,-1,-1,-1,-1],"loss_changes":[5.824975E-1,2.9963667E0,1.522928E0,2.8805242E0,3.2923477E0,4.7588754E-1,1.2910373E0,0E0,0E0,0E0,0E0,0E0,0E0,0E0,0E0],"parents":[2147483647,0,0,1,1,2,2,3,3,4,4,5,5,6,6],"right_children":[2,4,6,8,10,12,14,-1,-1,-1,-1,-1,-1,-1,-1],"split_conditions":[1.801181E-1,1.3937128E0,-9.3716455E-1,1E0,-1.0046409E0,6.666667E-1,6.9670016E-1,-1.1533957E-2,1.3700323E-1,-1.2548805E-2,3.293251E-1,3.3847857E-2,-1.104317E-1,2.8958231E-2,-8.400595E-3],"split_indices":[25,14,10,0,27,0,7,0,0,0,0,0,0,0,0],"split_type":[0,0,0,0,0,0,0,0,0,0,0,0,0,0,0],"sum_hessian":[9.46E2,5.91E2,3.55E2,5.82E2,9E0,1.3E1,3.42E2,5.71E2,1.1E1,5E0,4E0,2E0,1.1E1,2.01E2,1.41E2],"tree_param":{"num_deleted":"0","num_feature":"29","num_nodes":"15","size_leaf_vector":"1"}},{"base_weights":[5.332948E-4,7.0910595E-2,-1.0255115E-2,1.1587682E-1,-4.0972513E-1,-8.1663646E-2,1.43812485E-2,-4.257696E-2,6.1032444E-2,-1.6991173E-1,1.8002272E-3,-3.6992837E-2,5.84776E-2,4.107911E-2,-4.7361287E-3],"categories":[],"categories_nodes":[],"categories_segments":[],"categories_sizes":[],"default_left":[0,0,0,0,0,0,0,0,0,0,0,0,0,0,0],"id":39,"left_children":[1,3,5,7,9,11,13,-1,-1,-1,-1,-1,-1,-1,-1],"loss_changes":[7.1974564E-1,2.770637E0,1.447275E0,2.6474762E0,7.197443E-1,2.4544964E0,2.264789E0,0E0,0E0,0E0,0E0,0E0,0E0,0E0,0E0],"parents":[2147483647,0,0,1,1,2,2,3,3,4,4,5,5,6,6],"right_children":[2,4,6,8,10,12,14,-1,-1,-1,-1,-1,-1,-1,-1],"split_conditions":[-7.667818E-1,8.2229696E-2,-2.7925444E-1,-3.2608697E-1,1.0449585E0,2.2234738E0,-1.1223052E-1,-4.257696E-2,6.1032444E-2,-1.6991173E-1,1.8002272E-3,-3.6992837E-2,5.84776E-2,4.107911E-2,-4.7361287E-3],"split_indices":[6,17,6,2,24,19,6,0,0,0,0,0,0,0,0],"split_type":[0,0,0,0,0,0,0,0,0,0,0,0,0,0,0],"sum_hessian":[9.46E2,1.25E2,8.21E2,1.15E2,1E1,2.1E2,6.11E2,2.9E1,8.6E1,7E0,3E0,1.83E2,2.7E1,1.2E2,4.91E2],"tree_param":{"num_deleted":"0","num_feature":"29","num_nodes":"15","size_leaf_vector":"1"}},{"base_weights":[2.76308E-4,-1.2545773E-2,5.2454527E-2,-7.6815076E-3,-4.181286E-1,2.9959258E-1,-1.8999264E-2,2.1312686E-3,-3.268362E-2,8.183923E-2,-1.9635214E-1,9.142733E-3,1.2991878E-1,-1.072002E-2,1.7519875E-1],"categories":[],"categories_nodes":[],"categories_segments":[],"categories_sizes":[],"default_left":[0,0,0,0,0,0,0,0,0,0,0,0,0,0,0],"id":40,"left_children":[1,3,5,7,9,11,13,-1,-1,-1,-1,-1,-1,-1,-1],"loss_changes":[6.342327E-1,1.4981365E0,3.3079162E0,1.1282116E0,1.6484284E0,1.4954009E0,1.4940958E0,0E0,0E0,0E0,0E0,0E0,0E0,0E0,0E0],"parents":[2147483647,0,0,1,1,2,2,3,3,4,4,5,5,6,6],"right_children":[2,4,6,8,10,12,14,-1,-1,-1,-1,-1,-1,-1,-1],"split_conditions":[5.790979E-1,5.534557E-1,6.9670016E-1,6.666667E-1,0E0,-1.2391304E-1,2.081848E0,2.1312686E-3,-3.268362E-2,8.183923E-2,-1.9635214E-1,9.142733E-3,1.2991878E-1,-1.072002E-2,1.7519875E-1],"split_indices":[7,7,7,0,3,2,27,0,0,0,0,0,0,0,0],"split_type":[0,0,0,0,0,0,0,0,0,0,0,0,0,0,0],"sum_hessian":[9.46E2,7.6E2,1.86E2,7.52E2,8E0,4.1E1,1.45E2,6.57E2,9.5E1,2E0,6E0,1.4E1,2.7E1,1.42E2,3E0],"tree_param":{"num_deleted":"0","num_feature":"29","num_nodes":"15","size_leaf_vector":"1"}},{"base_weights":[3.60686E-4,-1.5615155E-2,4.801819E-2,-3.9999303E-3,-2.3950878E-1,1.6070075E-1,-7.918934E-3,-4.7472306E-3,5.848143E-2,-1.4090967E-1,-2.9696371E-2,-3.712545E-2,6.404834E-2,2.3340303E-3,-1.4884353E-1],"categories":[],"categories_nodes":[],"categories_segments":[],"categories_sizes":[],"default_left":[0,0,0,0,0,0,0,0,0,0,0,0,0,0,0],"id":41,"left_children":[1,3,5,7,9,11,13,-1,-1,-1,-1,-1,-1,-1,-1],"loss_changes":[7.21766E-1,1.8454499E0,1.5014195E0,1.593224E0,1.0856338E0,1.212786E0,1.2302088E0,0E0,0E0,0E0,0E0,0E0,0E0,0E0,0E0],"parents":[2147483647,0,0,1,1,2,2,3,3,4,4,5,5,6,6],"right_children":[2,4,6,8,10,12,14,-1,-1,-1,-1,-1,-1,-1,-1],"split_conditions":[5.402292E-1,4.3787643E-1,7.0049536E-1,1E0,-3.281055E-2,-9.5789677E-1,5.3031313E-1,-4.7472306E-3,5.848143E-2,-1.4090967E-1,-2.9696371E-2,-3.712545E-2,6.404834E-2,2.3340303E-3,-1.4884353E-1],"split_indices":[21,21,21,3,14,7,10,0,0,0,0,0,0,0,0],"split_type":[0,0,0,0,0,0,0,0,0,0,0,0,0,0,0],"sum_hessian":[9.46E2,7.09E2,2.37E2,6.75E2,3.4E1,7.8E1,1.59E2,6.38E2,3.7E1,1.2E1,2.2E1,1.2E1,6.6E1,1.55E2,4E0],"tree_param":{"num_deleted":"0","num_feature":"29","num_nodes":"15","size_leaf_vector":"1"}},{"base_weights":[2.8965214E-6,2.1479404E-2,-2.5004001E-2,-2.8319662E-3,2.667687E-1,8.384939E-3,-1.456439E-1,2.1520192E-3,-1.0537877E-1,1.0911732E-1,-5.167224E-2,-4.7373872E-2,1.0962777E-2,-5.615869E-2,8.166159E-2],"categories":[],"categories_nodes":[],"categories_segments":[],"categories_sizes":[],"default_left":[0,0,0,0,0,0,0,0,0,0,0,0,0,0,0],"id":42,"left_children":[1,3,5,7,9,11,13,-1,-1,-1,-1,-1,-1,-1,-1],"loss_changes":[5.091337E-1,3.042048E0,1.7655021E0,1.6235908E0,2.020614E0,1.6165699E0,1.7003791E0,0E0,0E0,0E0,0E0,0E0,0E0,0E0,0E0],"parents":[2147483647,0,0,1,1,2,2,3,3,4,4,5,5,6,6],"right_children":[2,4,6,8,10,12,14,-1,-1,-1,-1,-1,-1,-1,-1],"split_conditions":[8.260869E-2,5.374033E-1,6.666667E-1,1.6852418E0,0E0,-4.0070093E-1,1.8533231E0,2.1520192E-3,-1.0537877E-1,1.0911732E-1,-5.167224E-2,-4.7373872E-2,1.0962777E-2,-5.615869E-2,8.166159E-2],"split_indices":[2,13,0,21,2,9,21,0,0,0,0,0,0,0,0],"split_type":[0,0,0,0,0,0,0,0,0,0,0,0,0,0,0],"sum_hessian":[9.46E2,5.09E2,4.37E2,4.64E2,4.5E1,3.43E2,9.4E1,4.52E2,1.2E1,3.7E1,8E0,4.9E1,2.94E2,8.6E1,8E0],"tree_param":{"num_deleted":"0","num_feature":"29","num_nodes":"15","size_leaf_vector":"1"}},{"base_weights":[-5.7890396E-5,-6.6031136E-2,9.140371E-3,-1.6291715E-2,-3.7588426E-1,3.34899E-1,2.3425322E-3,5.5334512E-2,-2.4376648E-2,-1.5972853E-1,-2.9565617E-2,2.2658566E-1,2.9039253E-2,-6.3762916E-3,1.4806427E-2],"categories":[],"categories_nodes":[],"categories_segments":[],"categories_sizes":[],"default_left":[0,0,0,0,0,0,0,0,0,0,0,0,0,0,0],"id":43,"left_children":[1,3,5,7,9,11,13,-1,-1,-1,-1,-1,-1,-1,-1],"loss_changes":[5.7528025E-1,1.7816582E0,1.8416419E0,1.3321115E0,6.421635E-1,1.6284994E0,9.062702E-1,0E0,0E0,0E0,0E0,0E0,0E0,0E0,0E0],"parents":[2147483647,0,0,1,1,2,2,3,3,4,4,5,5,6,6],"right_children":[2,4,6,8,10,12,14,-1,-1,-1,-1,-1,-1,-1,-1],"split_conditions":[-8.4782606E-1,5.2404207E-1,-8.015558E-1,-6.2289244E-1,9.509177E-2,8.5792495E-3,3.829031E-1,5.5334512E-2,-2.4376648E-2,-1.5972853E-1,-2.9565617E-2,2.2658566E-1,2.9039253E-2,-6.3762916E-3,1.4806427E-2],"split_indices":[2,27,26,22,25,7,9,0,0,0,0,0,0,0,0],"split_type":[0,0,0,0,0,0,0,0,0,0,0,0,0,0,0],"sum_hessian":[9.46E2,1.15E2,8.31E2,1E2,1.5E1,1.6E1,8.15E2,2.4E1,7.6E1,9E0,6E0,5E0,1.1E1,5.43E2,2.72E2],"tree_param":{"num_deleted":"0","num_feature":"29","num_nodes":"15","size_leaf_vector":"1"}},{"base_weights":[7.115372E-5,7.379832E-3,-8.032521E-2,4.295663E-3,4.0266582E-1,9.519452E-2,-1.4973974E-1,-4.8221112E-4,7.63994E-2,-1.4868964E-2,1.11843206E-1,-5.9398417E-3,-8.508409E-2],"categories":[],"categories_nodes":[],"categories_segments":[],"categories_sizes":[],"default_left":[0,0,0,0,0,0,0,0,0,0,0,0,0],"id":44,"left_children":[1,3,5,7,-1,9,11,-1,-1,-1,-1,-1,-1],"loss_changes":[5.5704165E-1,3.571795E0,9.767604E-1,1.2832582E0,0E0,9.427806E-1,9.8593426E-1,0E0,0E0,0E0,0E0,0E0,0E0],"parents":[2147483647,0,0,1,1,2,2,3,3,5,5,6,6],"right_children":[2,4,6,8,-1,10,12,-1,-1,-1,-1,-1,-1],"split_conditions":[1.0555466E0,2.974217E0,-3.9735276E-2,1.4903324E0,4.0266582E-1,-9.6070504E-1,-1.1399033E0,-4.8221112E-4,7.63994E-2,-1.4868964E-2,1.11843206E-1,-5.9398417E-3,-8.508409E-2],"split_indices":[10,16,17,11,0,9,9,0,0,0,0,0,0],"split_type":[0,0,0,0,0,0,0,0,0,0,0,0,0],"sum_hessian":[9.46E2,8.68E2,7.8E1,8.67E2,1E0,2.2E1,5.6E1,8.48E2,1.9E1,1.5E1,7E0,2.9E1,2.7E1],"tree_param":{"num_deleted":"0","num_feature":"29","num_nodes":"13","size_leaf_vector":"1"}},{"base_weights":[5.6134834E-4,-6.536971E-2,8.772736E-3,-3.3492142E-1,1.4320661E-2,6.587408E-2,-1.3016765E-2,-1.5950413E-1,3.751697E-2,1.0834665E-1,-1.687775E-2,3.156817E-2,-7.544541E-2,6.2232336E-4,-4.968377E-2],"categories":[],"categories_nodes":[],"categories_segments":[],"categories_sizes":[],"default_left":[0,0,0,0,0,0,0,0,0,0,0,0,0,0,0],"id":45,"left_children":[1,3,5,7,9,11,13,-1,-1,-1,-1,-1,-1,-1,-1],"loss_changes":[5.132655E-1,2.2602673E0,1.0497264E0,2.2386053E0,2.0276408E0,2.9364157E0,1.4073848E0,0E0,0E0,0E0,0E0,0E0,0E0,0E0,0E0],"parents":[2147483647,0,0,1,1,2,2,3,3,4,4,5,5,6,6],"right_children":[2,4,6,8,10,12,14,-1,-1,-1,-1,-1,-1,-1,-1],"split_conditions":[-1.0685376E0,6.6413455E-2,-1.8485615E-1,5.8348966E-1,-4.0621617E-1,7.6106954E-1,7.5576466E-1,-1.5950413E-1,3.751697E-2,1.0834665E-1,-1.687775E-2,3.156817E-2,-7.544541E-2,6.2232336E-4,-4.968377E-2],"split_indices":[27,6,27,10,25,8,14,0,0,0,0,0,0,0,0],"split_type":[0,0,0,0,0,0,0,0,0,0,0,0,0,0,0],"sum_hessian":[9.46E2,1.04E2,8.42E2,2.3E1,8.1E1,2.32E2,6.1E2,1.6E1,7E0,1.3E1,6.8E1,2.07E2,2.5E1,5.56E2,5.4E1],"tree_param":{"num_deleted":"0","num_feature":"29","num_nodes":"15","size_leaf_vector":"1"}},{"base_weights":[2.626129E-4,-6.7950855E-3,6.289695E-2,-3.1610306E-3,-2.8434774E-1,2.0522946E-1,-3.3893824E-2,-3.8967237E-3,3.2668892E-2,-2.0063078E-2,-1.595812E-1,1.2306821E-1,-9.644618E-3,1.2947567E-1,-2.0139186E-2],"categories":[],"categories_nodes":[],"categories_segments":[],"categories_sizes":[],"default_left":[0,0,0,0,0,0,0,0,0,0,0,0,0,0,0],"id":46,"left_children":[1,3,5,7,9,11,13,-1,-1,-1,-1,-1,-1,-1,-1],"loss_changes":[4.1905275E-1,8.5846376E-1,1.3294976E0,9.287131E-1,5.5670434E-1,1.9110073E0,9.262931E-1,0E0,0E0,0E0,0E0,0E0,0E0,0E0,0E0],"parents":[2147483647,0,0,1,1,2,2,3,3,4,4,5,5,6,6],"right_children":[2,4,6,8,10,12,14,-1,-1,-1,-1,-1,-1,-1,-1],"split_conditions":[1.9552239E0,1.5315409E0,-1.4756112E-1,1.1176735E0,2.5286487E-1,2.5785467E-1,-7.667818E-1,-3.8967237E-3,3.2668892E-2,-2.0063078E-2,-1.595812E-1,1.2306821E-1,-9.644618E-3,1.2947567E-1,-2.0139186E-2],"split_indices":[18,25,8,27,27,28,6,0,0,0,0,0,0,0,0],"split_type":[0,0,0,0,0,0,0,0,0,0,0,0,0,0,0],"sum_hessian":[9.46E2,8.51E2,9.5E1,8.41E2,1E1,3.8E1,5.7E1,7.74E2,6.7E1,6E0,4E0,2E1,1.8E1,3E0,5.4E1],"tree_param":{"num_deleted":"0","num_feature":"29","num_nodes":"15","size_leaf_vector":"1"}},{"base_weights":[2.5971665E-4,3.6259284E-3,-1.4834686E-1,-7.6168897E-3,5.483646E-2,-4.5030087E-2,-1.19740136E-1,-1.1838896E-3,-9.416302E-2,2.5689872E-2,-6.658025E-2,4.8560917E-2,-3.824575E-2],"categories":[],"categories_nodes":[],"categories_segments":[],"categories_sizes":[],"default_left":[0,0,0,0,0,0,0,0,0,0,0,0,0],"id":47,"left_children":[1,3,5,7,9,11,-1,-1,-1,-1,-1,-1,-1],"loss_changes":[4.7426632E-1,5.3413856E-1,5.261473E-1,8.5424304E-1,1.4424381E0,2.9359734E-1,0E0,0E0,0E0,0E0,0E0,0E0,0E0],"parents":[2147483647,0,0,1,1,2,2,3,3,4,4,5,5],"right_children":[2,4,6,8,10,12,-1,-1,-1,-1,-1,-1,-1],"split_conditions":[1.5315409E0,5.790979E-1,6.0104835E-1,5.534557E-1,2.707815E-1,3.511692E-1,-1.19740136E-1,-1.1838896E-3,-9.416302E-2,2.5689872E-2,-6.658025E-2,4.8560917E-2,-3.824575E-2],"split_indices":[25,7,27,7,22,14,0,0,0,0,0,0,0],"split_type":[0,0,0,0,0,0,0,0,0,0,0,0,0],"sum_hessian":[9.46E2,9.26E2,2E1,7.6E2,1.66E2,1.5E1,5E0,7.52E2,8E0,1.5E2,1.6E1,4E0,1.1E1],"tree_param":{"num_deleted":"0","num_feature":"29","num_nodes":"13","size_leaf_vector":"1"}},{"base_weights":[-7.756711E-5,-3.3885267E-2,1.4309886E-2,-2.1697192E-1,-1.9698734E-3,2.2816986E-1,-8.449829E-3,-9.049502E-2,-1.4612125E-3,4.7433246E-3,-8.780245E-2,-4.5421705E-2,8.101402E-2,-9.505305E-3,3.2551296E-2],"categories":[],"categories_nodes":[],"categories_segments":[],"categories_sizes":[],"default_left":[0,0,0,0,0,0,0,0,0,0,0,0,0,0,0],"id":48,"left_children":[1,3,5,7,9,11,13,-1,-1,-1,-1,-1,-1,-1,-1],"loss_changes":[4.6111202E-1,1.6532215E0,3.2387438E0,7.5286484E-1,1.2555283E0,1.0581949E0,1.6392968E0,0E0,0E0,0E0,0E0,0E0,0E0,0E0,0E0],"parents":[2147483647,0,0,1,1,2,2,3,3,4,4,5,5,6,6],"right_children":[2,4,6,8,10,12,14,-1,-1,-1,-1,-1,-1,-1,-1],"split_conditions":[-1.9059826E-1,-3.9964357E-1,-1.782143E-1,-2.0425317E-1,-2.5104517E-1,-4.0215108E-1,5.6752443E-1,-9.049502E-2,-1.4612125E-3,4.7433246E-3,-8.780245E-2,-4.5421705E-2,8.101402E-2,-9.505305E-3,3.2551296E-2],"split_indices":[22,6,22,22,22,26,10,0,0,0,0,0,0,0,0],"split_type":[0,0,0,0,0,0,0,0,0,0,0,0,0,0,0],"sum_hessian":[9.46E2,2.82E2,6.64E2,4.1E1,2.41E2,6.3E1,6.01E2,2.9E1,1.2E1,2.28E2,1.3E1,6E0,5.7E1,5.02E2,9.9E1],"tree_param":{"num_deleted":"0","num_feature":"29","num_nodes":"15","size_leaf_vector":"1"}},{"base_weights":[-1.7716238E-4,4.169633E-2,-1.3056626E-2,-8.315286E-3,2.063175E-1,-1.18149966E-1,6.5409183E-3,8.242159E-3,-8.938743E-2,7.75675E-2,-7.118654E-2,-1.4088668E-1,-5.7617975E-3,5.704999E-3,-3.6045033E-2],"categories":[],"categories_nodes":[],"categories_segments":[],"categories_sizes":[],"default_left":[0,0,0,0,0,0,0,0,0,0,0,0,0,0,0],"id":49,"left_children":[1,3,5,7,9,11,13,-1,-1,-1,-1,-1,-1,-1,-1],"loss_changes":[5.1126915E-1,1.8376682E0,1.4939619E0,1.7911501E0,1.2664182E0,3.955452E0,9.695906E-1,0E0,0E0,0E0,0E0,0E0,0E0,0E0,0E0],"parents":[2147483647,0,0,1,1,2,2,3,3,4,4,5,5,6,6],"right_children":[2,4,6,8,10,12,14,-1,-1,-1,-1,-1,-1,-1,-1],"split_conditions":[-4.9279928E-1,2.9041263E-1,-2.7925444E-1,2.0656675E-1,8.322778E-1,-2.239491E-2,2.2234738E0,8.242159E-3,-8.938743E-2,7.75675E-2,-7.118654E-2,-1.4088668E-1,-5.7617975E-3,5.704999E-3,-3.6045033E-2],"split_indices":[6,27,6,27,24,21,19,0,0,0,0,0,0,0,0],"split_type":[0,0,0,0,0,0,0,0,0,0,0,0,0,0,0],"sum_hessian":[9.46E2,2.22E2,7.24E2,1.71E2,5.1E1,1.13E2,6.11E2,1.53E2,1.8E1,4.6E1,5E0,2.4E1,8.9E1,5.57E2,5.4E1],"tree_param":{"num_deleted":"0","num_feature":"29","num_nodes":"15","size_leaf_vector":"1"}},{"base_weights":[-3.897955E-4,1.5220428E-2,-3.580751E-2,-1.1225534E-3,1.7234203E-1,-7.204547E-2,5.0990034E-2,5.0422276E-4,-1.670206E-1,6.8590246E-2,-9.078455E-2,-1.0562304E-2,-1.2331038E-1,6.8891376E-2,-1.4644462E-2],"categories":[],"categories_nodes":[],"categories_segments":[],"categories_sizes":[],"default_left":[0,0,0,0,0,0,0,0,0,0,0,0,0,0,0],"id":50,"left_children":[1,3,5,7,9,11,13,-1,-1,-1,-1,-1,-1,-1,-1],"loss_changes":[5.241209E-1,1.6898291E0,9.1582966E-1,9.3079126E-1,1.7268414E0,2.545488E0,1.5445843E0,0E0,0E0,0E0,0E0,0E0,0E0,0E0,0E0],"parents":[2147483647,0,0,1,1,2,2,3,3,4,4,5,5,6,6],"right_children":[2,4,6,8,10,12,14,-1,-1,-1,-1,-1,-1,-1,-1],"split_conditions":[3.3634937E-1,1.7735896E-1,2.399905E-1,1.7564216E-1,1E0,1.04387835E-1,-3.0393678E-1,5.0422276E-4,-1.670206E-1,6.8590246E-2,-9.078455E-2,-1.0562304E-2,-1.2331038E-1,6.8891376E-2,-1.4644462E-2],"split_indices":[6,6,9,6,23,9,26,0,0,0,0,0,0,0,0],"split_type":[0,0,0,0,0,0,0,0,0,0,0,0,0,0,0],"sum_hessian":[9.46E2,6.57E2,2.89E2,5.96E2,6.1E1,2.04E2,8.5E1,5.94E2,2E0,5.5E1,6E0,1.85E2,1.9E1,3E1,5.5E1],"tree_param":{"num_deleted":"0","num_feature":"29","num_nodes":"15","size_leaf_vector":"1"}},{"base_weights":[-5.560518E-4,-1.2596594E-2,4.1760504E-2,-1.9247157E-2,2.1538913E-1,1.6061087E-1,-2.9686004E-2,-1.0921989E-2,1.2841295E-2,9.5804684E-2,-9.188315E-2,6.322496E-2,-1.1556345E-1,-7.363626E-2,2.106766E-2],"categories":[],"categories_nodes":[],"categories_segments":[],"categories_sizes":[],"default_left":[0,0,0,0,0,0,0,0,0,0,0,0,0,0,0],"id":51,"left_children":[1,3,5,7,9,11,13,-1,-1,-1,-1,-1,-1,-1,-1],"loss_changes":[4.8303607E-1,1.1231258E0,1.7879708E0,7.660637E-1,1.2366878E0,2.2431743E0,2.8628576E0,0E0,0E0,0E0,0E0,0E0,0E0,0E0,0E0],"parents":[2147483647,0,0,1,1,2,2,3,3,4,4,5,5,6,6],"right_children":[2,4,6,8,10,12,14,-1,-1,-1,-1,-1,-1,-1,-1],"split_conditions":[1E0,1.0449585E0,2.3363134E-1,1E0,1.7195922E-1,6.9550174E-1,4.808751E-1,-1.0921989E-2,1.2841295E-2,9.5804684E-2,-9.188315E-2,6.322496E-2,-1.1556345E-1,-7.363626E-2,2.106766E-2],"split_indices":[19,24,21,15,27,28,21,0,0,0,0,0,0,0,0],"split_type":[0,0,0,0,0,0,0,0,0,0,0,0,0,0,0],"sum_hessian":[9.46E2,7.37E2,2.09E2,7.17E2,2E1,7.8E1,1.31E2,5.62E2,1.55E2,1.7E1,3E0,7.2E1,6E0,4.1E1,9E1],"tree_param":{"num_deleted":"0","num_feature":"29","num_nodes":"15","size_leaf_vector":"1"}},{"base_weights":[-4.938487E-4,-8.960461E-3,5.5772137E-2,6.417328E-4,-2.631199E-1,1.2468193E-1,-1.8494293E-1,5.9660736E-2,-1.4191254E-3,-1.4556254E-2,-1.1544233E-1,6.6102095E-2,-1.5319642E-2,-6.9305584E-2,1.5886503E-1],"categories":[],"categories_nodes":[],"categories_segments":[],"categories_sizes":[],"default_left":[0,0,0,0,0,0,0,0,0,0,0,0,0,0,0],"id":52,"left_children":[1,3,5,7,9,11,13,-1,-1,-1,-1,-1,-1,-1,-1],"loss_changes":[4.5163375E-1,2.0111313E0,2.0799246E0,8.475421E-1,7.647517E-1,1.6419873E0,1.044117E0,0E0,0E0,0E0,0E0,0E0,0E0,0E0,0E0],"parents":[2147483647,0,0,1,1,2,2,3,3,4,4,5,5,6,6],"right_children":[2,4,6,8,10,12,14,-1,-1,-1,-1,-1,-1,-1,-1],"split_conditions":[8.0521774E-1,7.3778385E-1,1E0,-1.6521739E0,-7.358697E-2,1.2110207E0,1.3476746E-1,5.9660736E-2,-1.4191254E-3,-1.4556254E-2,-1.1544233E-1,6.6102095E-2,-1.5319642E-2,-6.9305584E-2,1.5886503E-1],"split_indices":[22,22,4,2,17,22,7,0,0,0,0,0,0,0,0],"split_type":[0,0,0,0,0,0,0,0,0,0,0,0,0,0,0],"sum_hessian":[9.46E2,8.23E2,1.23E2,7.94E2,2.9E1,9.6E1,2.7E1,2E1,7.74E2,1.1E1,1.8E1,6.2E1,3.4E1,2.6E1,1E0],"tree_param":{"num_deleted":"0","num_feature":"29","num_nodes":"15","size_leaf_vector":"1"}},{"base_weights":[-2.7331454E-4,7.50262E-2,-5.090148E-3,-1.2400819E-2,2.8146628E-1,-1.037886E-1,6.5423637E-3,-6.249628E-2,3.2592706E-2,1.3630158E-1,-9.119899E-3,-1.7747043E-2,-1.4183399E-1,3.8502235E-2,-1.1676615E-3],"categories":[],"categories_nodes":[],"categories_segments":[],"categories_sizes":[],"default_left":[0,0,0,0,0,0,0,0,0,0,0,0,0,0,0],"id":53,"left_children":[1,3,5,7,9,11,13,-1,-1,-1,-1,-1,-1,-1,-1],"loss_changes":[3.4386376E-1,1.0322515E0,1.0236459E0,9.9493885E-1,9.3033266E-1,1.5200939E0,1.0146888E0,0E0,0E0,0E0,0E0,0E0,0E0,0E0,0E0],"parents":[2147483647,0,0,1,1,2,2,3,3,4,4,5,5,6,6],"right_children":[2,4,6,8,10,12,14,-1,-1,-1,-1,-1,-1,-1,-1],"split_conditions":[-9.134646E-1,-3.5550255E-1,-7.076952E-1,-6.6795766E-1,8.7198067E-1,-6.291413E-1,-5.285706E-1,-6.249628E-2,3.2592706E-2,1.3630158E-1,-9.119899E-3,-1.7747043E-2,-1.4183399E-1,3.8502235E-2,-1.1676615E-3],"split_indices":[7,10,25,17,2,7,25,0,0,0,0,0,0,0,0],"split_type":[0,0,0,0,0,0,0,0,0,0,0,0,0,0,0],"sum_hessian":[9.46E2,5.6E1,8.9E2,4E1,1.6E1,9.3E1,7.97E2,1.5E1,2.5E1,1E1,6E0,8.4E1,9E0,6.2E1,7.35E2],"tree_param":{"num_deleted":"0","num_feature":"29","num_nodes":"15","size_leaf_vector":"1"}},{"base_weights":[-2.1761398E-4,-3.9068464E-2,9.013551E-3,1.6906515E-2,-3.610325E-1,3.990443E-1,2.8024483E-3,2.6390256E-2,-1.8303681E-2,-1.6654764E-1,7.349453E-3,-4.685181E-2,1.8044075E-1,-6.437924E-2,2.24976E-3],"categories":[],"categories_nodes":[],"categories_segments":[],"categories_sizes":[],"default_left":[0,0,0,0,0,0,0,0,0,0,0,0,0,0,0],"id":54,"left_children":[1,3,5,7,9,11,13,-1,-1,-1,-1,-1,-1,-1,-1],"loss_changes":[3.399829E-1,3.286095E0,1.8545328E0,8.6913705E-1,2.034325E0,1.4426098E0,7.7251965E-1,0E0,0E0,0E0,0E0,0E0,0E0,0E0,0E0],"parents":[2147483647,0,0,1,1,2,2,3,3,4,4,5,5,6,6],"right_children":[2,4,6,8,10,12,14,-1,-1,-1,-1,-1,-1,-1,-1],"split_conditions":[-1.7101154E-1,-1.7728944E-1,-1.7085691E-1,-5.550311E-2,3.829031E-1,-1.2983787E-1,-1.7047946E-1,2.6390256E-2,-1.8303681E-2,-1.6654764E-1,7.349453E-3,-4.685181E-2,1.8044075E-1,-6.437924E-2,2.24976E-3],"split_indices":[24,24,24,7,9,6,24,0,0,0,0,0,0,0,0],"split_type":[0,0,0,0,0,0,0,0,0,0,0,0,0,0,0],"sum_hessian":[9.46E2,1.81E2,7.65E2,1.55E2,2.6E1,1.1E1,7.54E2,8.1E1,7.4E1,1.7E1,9E0,3E0,8E0,1.5E1,7.39E2],"tree_param":{"num_deleted":"0","num_feature":"29","num_nodes":"15","size_leaf_vector":"1"}},{"base_weights":[-2.3637881E-4,-5.1169507E-2,6.107886E-3,-1.3366431E-1,9.186437E-2,9.011896E-4,1.6968364E-1,-6.0247418E-2,4.8227318E-2,3.4039223E-1,1.0369178E-2,-5.220163E-2,2.1274304E-3,7.0413746E-2,-2.1840556E-1],"categories":[],"categories_nodes":[],"categories_segments":[],"categories_sizes":[],"default_left":[0,0,0,0,0,0,0,0,0,0,0,0,0,0,0],"id":55,"left_children":[1,3,5,7,9,11,13,-1,-1,-1,-1,-1,-1,-1,-1],"loss_changes":[3.0631974E-1,1.251232E0,7.178211E-1,1.3571088E0,2.2910929E0,8.868946E-1,1.6886647E0,0E0,0E0,0E0,0E0,0E0,0E0,0E0,0E0],"parents":[2147483647,0,0,1,1,2,2,3,3,4,4,5,5,6,6],"right_children":[2,4,6,8,10,12,14,-1,-1,-1,-1,-1,-1,-1,-1],"split_conditions":[-1.0685376E0,6.983455E-1,1.4903324E0,1.0689312E-2,7.039951E-1,-1.0913564E0,4.6813436E-2,-6.0247418E-2,4.8227318E-2,3.4039223E-1,1.0369178E-2,-5.220163E-2,2.1274304E-3,7.0413746E-2,-2.1840556E-1],"split_indices":[27,17,11,13,17,22,8,0,0,0,0,0,0,0,0],"split_type":[0,0,0,0,0,0,0,0,0,0,0,0,0,0,0],"sum_hessian":[9.46E2,1.04E2,8.42E2,6.6E1,3.8E1,8.17E2,2.5E1,5.4E1,1.2E1,1E0,3.7E1,2.7E1,7.9E2,2.4E1,1E0],"tree_param":{"num_deleted":"0","num_feature":"29","num_nodes":"15","size_leaf_vector":"1"}},{"base_weights":[-1.708935E-5,2.3509853E-2,-1.29934605E-2,-1.736527E-2,1.2055755E-1,-2.6731867E-1,-6.144137E-3,-3.8788415E-4,-1.1510549E-1,9.850555E-2,2.5610945E-3,-2.3921345E-1,-7.255197E-3,8.119797E-2,-3.5434996E-3],"categories":[],"categories_nodes":[],"categories_segments":[],"categories_sizes":[],"default_left":[0,0,0,0,0,0,0,0,0,0,0,0,0,0,0],"id":56,"left_children":[1,3,5,7,9,11,13,-1,-1,-1,-1,-1,-1,-1,-1],"loss_changes":[2.894192E-1,1.3389173E0,1.0626923E0,1.4007545E0,2.3249202E0,2.0427294E0,9.381985E-1,0E0,0E0,0E0,0E0,0E0,0E0,0E0,0E0],"parents":[2147483647,0,0,1,1,2,2,3,3,4,4,5,5,6,6],"right_children":[2,4,6,8,10,12,14,-1,-1,-1,-1,-1,-1,-1,-1],"split_conditions":[-1.8485615E-1,-4.8327577E-1,-1.5884882E-1,3.8834226E0,-7.351792E-2,-4.9862474E-1,-1.4966814E-1,-3.8788415E-4,-1.1510549E-1,9.850555E-2,2.5610945E-3,-2.3921345E-1,-7.255197E-3,8.119797E-2,-3.5434996E-3],"split_indices":[27,27,27,24,13,8,27,0,0,0,0,0,0,0,0],"split_type":[0,0,0,0,0,0,0,0,0,0,0,0,0,0,0],"sum_hessian":[9.46E2,3.36E2,6.1E2,2.37E2,9.9E1,1.5E1,5.95E2,2.28E2,9E0,3.4E1,6.5E1,4E0,1.1E1,1.1E1,5.84E2],"tree_param":{"num_deleted":"0","num_feature":"29","num_nodes":"15","size_leaf_vector":"1"}},{"base_weights":[-2.055732E-4,2.3885174E-1,-1.4728913E-3,1.4249182E-1,1.8323494E-2,2.5320766E-3,-8.335921E-2,-3.9276658E-4,3.8034767E-2,-6.593362E-3,-1.6732144E-1],"categories":[],"categories_nodes":[],"categories_segments":[],"categories_sizes":[],"default_left":[0,0,0,0,0,0,0,0,0,0,0],"id":57,"left_children":[1,3,5,-1,-1,7,9,-1,-1,-1,-1],"loss_changes":[2.8725648E-1,1.8086967E-1,3.094699E-1,0E0,0E0,4.2972082E-1,1.2689347E0,0E0,0E0,0E0,0E0],"parents":[2147483647,0,0,1,1,2,2,5,5,6,6],"right_children":[2,4,6,-1,-1,8,10,-1,-1,-1,-1],"split_conditions":[-1.1936692E0,-2.6633527E-2,1.3588984E0,1.4249182E-1,1.8323494E-2,1.1322101E0,1E0,-3.9276658E-4,3.8034767E-2,-6.593362E-3,-1.6732144E-1],"split_indices":[7,9,8,0,0,8,15,0,0,0,0],"split_type":[0,0,0,0,0,0,0,0,0,0,0],"sum_hessian":[9.46E2,4E0,9.42E2,1E0,3E0,8.99E2,4.3E1,8.73E2,2.6E1,3.9E1,4E0],"tree_param":{"num_deleted":"0","num_feature":"29","num_nodes":"11","size_leaf_vector":"1"}},{"base_weights":[-1.17865384E-4,-8.9217996E-4,1.0985757E-1,1.9287564E-2,-1.5839873E-2,3.6507691E-3,1.10770255E-1,-2.0342644E-2,4.959957E-3],"categories":[],"categories_nodes":[],"categories_segments":[],"categories_sizes":[],"default_left":[0,0,0,0,0,0,0,0,0],"id":58,"left_children":[1,3,-1,5,7,-1,-1,-1,-1],"loss_changes":[2.6893285E-1,2.856575E-1,0E0,9.9939466E-1,9.1634333E-1,0E0,0E0,0E0,0E0],"parents":[2147483647,0,0,1,1,3,3,4,4],"right_children":[2,4,-1,6,8,-1,-1,-1,-1],"split_conditions":[4.108148E0,-5.4222517E-2,1.0985757E-1,1E0,3.1630075E-1,3.6507691E-3,1.10770255E-1,-2.0342644E-2,4.959957E-3],"split_indices":[18,11,0,16,14,0,0,0,0],"split_type":[0,0,0,0,0,0,0,0,0],"sum_hessian":[9.46E2,9.45E2,1E0,4.02E2,5.43E2,3.95E2,7E0,2.08E2,3.35E2],"tree_param":{"num_deleted":"0","num_feature":"29","num_nodes":"9","size_leaf_vector":"1"}},{"base_weights":[1.3812743E-4,-9.088946E-3,2.9275646E-2,-5.7005774E-2,1.252566E-2,8.93136E-2,-1.6583394E-1,-2.5713207E-2,5.9273027E-2,-1.61548E-2,1.2411962E-2,5.4057818E-2,1.1731398E-2,-5.9925456E-2,6.195262E-2],"categories":[],"categories_nodes":[],"categories_segments":[],"categories_sizes":[],"default_left":[0,0,0,0,0,0,0,0,0,0,0,0,0,0,0],"id":59,"left_children":[1,3,5,7,9,11,13,-1,-1,-1,-1,-1,-1,-1,-1],"loss_changes":[2.5487083E-1,7.4642044E-1,2.6855984E0,1.6538746E0,9.5386136E-1,7.9146886E-1,7.232146E-1,0E0,0E0,0E0,0E0,0E0,0E0,0E0,0E0],"parents":[2147483647,0,0,1,1,2,2,3,3,4,4,5,5,6,6],"right_children":[2,4,6,8,10,12,14,-1,-1,-1,-1,-1,-1,-1,-1],"split_conditions":[8.274566E-1,-3.916994E-1,4.2647716E-2,7.7942085E-1,-4.7014558E-1,8.3221775E-1,9.0864223E-1,-2.5713207E-2,5.9273027E-2,-1.61548E-2,1.2411962E-2,5.4057818E-2,1.1731398E-2,-5.9925456E-2,6.195262E-2],"split_indices":[24,10,10,17,26,24,22,0,0,0,0,0,0,0,0],"split_type":[0,0,0,0,0,0,0,0,0,0,0,0,0,0,0],"sum_hessian":[9.46E2,7.19E2,2.27E2,2.23E2,4.96E2,1.74E2,5.3E1,2.01E2,2.2E1,1.5E2,3.46E2,6.1E1,1.13E2,4.9E1,4E0],"tree_param":{"num_deleted":"0","num_feature":"29","num_nodes":"15","size_leaf_vector":"1"}},{"base_weights":[1.997774E-4,1.7918477E-2,-1.908048E-2,4.0082997E-3,1.6372037E-1,-2.873986E-1,-1.2389985E-2,-3.245476E-4,1.3778456E-1,1.6369106E-1,1.8250668E-2,-1.040062E-1,-4.119897E-3,3.0002946E-3,-2.777782E-2],"categories":[],"categories_nodes":[],"categories_segments":[],"categories_sizes":[],"default_left":[0,0,0,0,0,0,0,0,0,0,0,0,0,0,0],"id":60,"left_children":[1,3,5,7,9,11,13,-1,-1,-1,-1,-1,-1,-1,-1],"loss_changes":[3.2385707E-1,1.00124E0,8.114515E-1,1.0479612E0,1.6564223E0,1.737169E-1,7.982688E-1,0E0,0E0,0E0,0E0,0E0,0E0,0E0,0E0],"parents":[2147483647,0,0,1,1,2,2,3,3,4,4,5,5,6,6],"right_children":[2,4,6,8,10,12,14,-1,-1,-1,-1,-1,-1,-1,-1],"split_conditions":[5.3875238E-2,5.4276717E-1,-2.4190672E-1,4.589372E-2,6.6413455E-2,-4.879442E-1,6.666667E-1,-3.245476E-4,1.3778456E-1,1.6369106E-1,1.8250668E-2,-1.040062E-1,-4.119897E-3,3.0002946E-3,-2.777782E-2],"split_indices":[2,13,26,2,6,6,0,0,0,0,0,0,0,0,0],"split_type":[0,0,0,0,0,0,0,0,0,0,0,0,0,0,0],"sum_hessian":[9.46E2,4.93E2,4.53E2,4.51E2,4.2E1,1E1,4.43E2,4.47E2,4E0,8E0,3.4E1,8E0,2E0,3.47E2,9.6E1],"tree_param":{"num_deleted":"0","num_feature":"29","num_nodes":"15","size_leaf_vector":"1"}},{"base_weights":[3.3686607E-4,9.320643E-2,-3.329407E-3,2.4665062E-1,-1.9724488E-1,-6.812909E-2,6.763872E-3,1.4520343E-1,3.613277E-2,-1.1342826E-1,-1.1085696E-2,-1.2792609E-2,-1.0556061E-1,2.0936424E-2,-1.7956025E-3],"categories":[],"categories_nodes":[],"categories_segments":[],"categories_sizes":[],"default_left":[0,0,0,0,0,0,0,0,0,0,0,0,0,0,0],"id":61,"left_children":[1,3,5,7,9,11,13,-1,-1,-1,-1,-1,-1,-1,-1],"loss_changes":[3.227498E-1,1.653101E0,5.969465E-1,6.606685E-1,3.628829E-1,8.744933E-1,6.351898E-1,0E0,0E0,0E0,0E0,0E0,0E0,0E0,0E0],"parents":[2147483647,0,0,1,1,2,2,3,3,4,4,5,5,6,6],"right_children":[2,4,6,8,10,12,14,-1,-1,-1,-1,-1,-1,-1,-1],"split_conditions":[-8.4230465E-1,-7.363259E-1,-7.076952E-1,8.304798E-2,-3.2954853E-2,-6.291413E-1,-3.8776055E-1,1.4520343E-1,3.613277E-2,-1.1342826E-1,-1.1085696E-2,-1.2792609E-2,-1.0556061E-1,2.0936424E-2,-1.7956025E-3],"split_indices":[6,7,25,9,17,7,25,0,0,0,0,0,0,0,0],"split_type":[0,0,0,0,0,0,0,0,0,0,0,0,0,0,0],"sum_hessian":[9.46E2,3.5E1,9.11E2,2.3E1,1.2E1,1.22E2,7.89E2,7E0,1.6E1,5E0,7E0,1.13E2,9E0,1.32E2,6.57E2],"tree_param":{"num_deleted":"0","num_feature":"29","num_nodes":"15","size_leaf_vector":"1"}},{"base_weights":[1.9113894E-4,2.7910245E-3,-1.0924909E-1,-1.7607442E-1,4.7385306E-3,1.6408904E-2,-2.925783E-1,-8.620557E-2,-1.6199233E-2,7.5085496E-4,7.753648E-2,-6.1730523E-2,2.8712682E-2,-1.006676E-1,-2.8429413E-2],"categories":[],"categories_nodes":[],"categories_segments":[],"categories_sizes":[],"default_left":[0,0,0,0,0,0,0,0,0,0,0,0,0,0,0],"id":62,"left_children":[1,3,5,7,9,11,13,-1,-1,-1,-1,-1,-1,-1,-1],"loss_changes":[2.697568E-1,3.233986E-1,5.1161003E-1,1.2032795E-1,5.1950204E-1,2.6635522E-1,4.4719756E-2,0E0,0E0,0E0,0E0,0E0,0E0,0E0,0E0],"parents":[2147483647,0,0,1,1,2,2,3,3,4,4,5,5,6,6],"right_children":[2,4,6,8,10,12,14,-1,-1,-1,-1,-1,-1,-1,-1],"split_conditions":[1E0,-9.844354E-1,-1.3055189E-1,1.0412694E0,2E0,-4.653723E-1,-2.0296887E-1,-8.620557E-2,-1.6199233E-2,7.5085496E-4,7.753648E-2,-6.1730523E-2,2.8712682E-2,-1.006676E-1,-2.8429413E-2],"split_indices":[12,10,7,18,1,22,9,0,0,0,0,0,0,0,0],"split_type":[0,0,0,0,0,0,0,0,0,0,0,0,0,0,0],"sum_hessian":[9.46E2,9.25E2,2.1E1,9E0,9.16E2,1.3E1,8E0,4E0,5E0,9.09E2,7E0,3E0,1E1,6E0,2E0],"tree_param":{"num_deleted":"0","num_feature":"29","num_nodes":"15","size_leaf_vector":"1"}},{"base_weights":[-6.3008214E-5,4.2901542E-2,-6.4685554E-3,3.8415334E-1,9.302681E-3,-1.8128987E-3,-3.857233E-1,1.3137688E-1,2.8438045E-2,-1.5166236E-2,4.3242674E-2,-9.656037E-2,4.80348E-5,-2.1655345E-2,-1.365255E-1],"categories":[],"categories_nodes":[],"categories_segments":[],"categories_sizes":[],"default_left":[0,0,0,0,0,0,0,0,0,0,0,0,0,0,0],"id":63,"left_children":[1,3,5,7,9,11,13,-1,-1,-1,-1,-1,-1,-1,-1],"loss_changes":[2.6090276E-1,1.4067038E0,1.4559867E0,1.2963402E-1,9.1931725E-1,5.1533365E-1,1.8462563E-1,0E0,0E0,0E0,0E0,0E0,0E0,0E0,0E0],"parents":[2147483647,0,0,1,1,2,2,3,3,4,4,5,5,6,6],"right_children":[2,4,6,8,10,12,14,-1,-1,-1,-1,-1,-1,-1,-1],"split_conditions":[-7.898533E-1,-3.9468163E-1,2.0094776E0,2.5880453E-1,-9.404505E-1,-1.2018794E0,-2.6916661E0,1.3137688E-1,2.8438045E-2,-1.5166236E-2,4.3242674E-2,-9.656037E-2,4.80348E-5,-2.1655345E-2,-1.365255E-1],"split_indices":[9,14,16,26,9,22,27,0,0,0,0,0,0,0,0],"split_type":[0,0,0,0,0,0,0,0,0,0,0,0,0,0,0],"sum_hessian":[9.46E2,1.22E2,8.24E2,1E1,1.12E2,8.15E2,9E0,8E0,2E0,7.8E1,3.4E1,4E0,8.11E2,2E0,7E0],"tree_param":{"num_deleted":"0","num_feature":"29","num_nodes":"15","size_leaf_vector":"1"}},{"base_weights":[-1.14732204E-4,-3.3666506E-2,8.295495E-3,-4.29216E-3,-2.3666024E-1,-9.3191415E-3,5.7486925E-2,2.3632268E-3,-8.5073814E-2,-1.4837703E-1,-1.4678904E-2,4.225816E-3,-3.3922505E-2,1.14043206E-1,1.3144404E-2],"categories":[],"categories_nodes":[],"categories_segments":[],"categories_sizes":[],"default_left":[0,0,0,0,0,0,0,0,0,0,0,0,0,0,0],"id":64,"left_children":[1,3,5,7,9,11,13,-1,-1,-1,-1,-1,-1,-1,-1],"loss_changes":[2.6750192E-1,1.1319177E0,6.5733457E-1,5.6983495E-1,1.1379114E0,1.3590832E0,8.656335E-1,0E0,0E0,0E0,0E0,0E0,0E0,0E0,0E0],"parents":[2147483647,0,0,1,1,2,2,3,3,4,4,5,5,6,6],"right_children":[2,4,6,8,10,12,14,-1,-1,-1,-1,-1,-1,-1,-1],"split_conditions":[-5.5869853E-1,-6.14988E-1,3.9538136E-1,5.2138853E-1,-5.767238E-1,5.20185E-1,-1.2947406E-1,2.3632268E-3,-8.5073814E-2,-1.4837703E-1,-1.4678904E-2,4.225816E-3,-3.3922505E-2,1.14043206E-1,1.3144404E-2],"split_indices":[7,7,9,13,25,22,27,0,0,0,0,0,0,0,0],"split_type":[0,0,0,0,0,0,0,0,0,0,0,0,0,0,0],"sum_hessian":[9.46E2,1.89E2,7.57E2,1.66E2,2.3E1,5.58E2,1.99E2,1.6E2,6E0,9E0,1.4E1,4.56E2,1.02E2,7E0,1.92E2],"tree_param":{"num_deleted":"0","num_feature":"29","num_nodes":"15","size_leaf_vector":"1"}},{"base_weights":[-2.368423E-4,-5.3112056E-2,5.0386856E-3,-3.2961708E-1,-3.8191178E-3,-8.74409E-3,6.9476284E-2,-1.6843529E-1,-1.52085135E-2,8.859528E-3,-9.8176055E-2,-2.91745E-4,-4.7645804E-2,3.6797713E-2,-4.526667E-2],"categories":[],"categories_nodes":[],"categories_segments":[],"categories_sizes":[],"default_left":[0,0,0,0,0,0,0,0,0,0,0,0,0,0,0],"id":65,"left_children":[1,3,5,7,9,11,13,-1,-1,-1,-1,-1,-1,-1,-1],"loss_changes":[2.6442823E-1,1.1708992E0,7.661747E-1,8.121636E-1,8.0788904E-1,8.2910323E-1,1.7998912E0,0E0,0E0,0E0,0E0,0E0,0E0,0E0,0E0],"parents":[2147483647,0,0,1,1,2,2,3,3,4,4,5,5,6,6],"right_children":[2,4,6,8,10,12,14,-1,-1,-1,-1,-1,-1,-1,-1],"split_conditions":[-1.0432408E0,-1.9324207E-1,6.749857E-1,1.2633801E-4,2.7342446E-7,6.4388955E-1,1.4599637E0,-1.6843529E-1,-1.52085135E-2,8.859528E-3,-9.8176055E-2,-2.91745E-4,-4.7645804E-2,3.6797713E-2,-4.526667E-2],"split_indices":[8,6,14,21,24,14,16,0,0,0,0,0,0,0,0],"split_type":[0,0,0,0,0,0,0,0,0,0,0,0,0,0,0],"sum_hessian":[9.46E2,8.5E1,8.61E2,1.2E1,7.3E1,7.1E2,1.51E2,6E0,6E0,6.7E1,6E0,6.76E2,3.4E1,1.22E2,2.9E1],"tree_param":{"num_deleted":"0","num_feature":"29","num_nodes":"15","size_leaf_vector":"1"}},{"base_weights":[-5.135274E-4,8.771072E-3,-3.0520387E-2,7.274243E-2,-6.9620474E-3,-2.1841977E-2,-2.6210722E-1,3.0778702E-3,7.7451125E-2,-5.664645E-2,1.2939995E-3,-1.7736051E-2,1.769216E-2,2.9506922E-2,-1.19596355E-1],"categories":[],"categories_nodes":[],"categories_segments":[],"categories_sizes":[],"default_left":[0,0,0,0,0,0,0,0,0,0,0,0,0,0,0],"id":66,"left_children":[1,3,5,7,9,11,13,-1,-1,-1,-1,-1,-1,-1,-1],"loss_changes":[2.6410347E-1,7.2919005E-1,4.4447154E-1,1.6541593E0,1.1942254E0,6.572356E-1,4.329729E-1,0E0,0E0,0E0,0E0,0E0,0E0,0E0,0E0],"parents":[2147483647,0,0,1,1,2,2,3,3,4,4,5,5,6,6],"right_children":[2,4,6,8,10,12,14,-1,-1,-1,-1,-1,-1,-1,-1],"split_conditions":[5.681694E-1,-3.14642E-1,5E-1,3.1691736E-1,-2.3243116E-1,-4.5717058E-1,-6.3529456E-1,3.0778702E-3,7.7451125E-2,-5.664645E-2,1.2939995E-3,-1.7736051E-2,1.769216E-2,2.9506922E-2,-1.19596355E-1],"split_indices":[8,7,11,14,7,7,9,0,0,0,0,0,0,0,0],"split_type":[0,0,0,0,0,0,0,0,0,0,0,0,0,0,0],"sum_hessian":[9.46E2,7.23E2,2.23E2,1.42E2,5.81E2,2.16E2,7E0,1.07E2,3.5E1,3.3E1,5.48E2,1.48E2,6.8E1,2E0,5E0],"tree_param":{"num_deleted":"0","num_feature":"29","num_nodes":"15","size_leaf_vector":"1"}},{"base_weights":[-4.2816778E-4,4.630705E-2,-6.688833E-3,-5.4257163E-3,2.176318E-1,-7.769944E-2,2.9553312E-3,1.9458983E-2,-4.2341076E-2,6.954575E-3,1.7470509E-1,-4.944094E-2,3.8100916E-3,3.6341205E-2,-2.4813255E-3],"categories":[],"categories_nodes":[],"categories_segments":[],"categories_sizes":[],"default_left":[0,0,0,0,0,0,0,0,0,0,0,0,0,0,0],"id":67,"left_children":[1,3,5,7,9,11,13,-1,-1,-1,-1,-1,-1,-1,-1],"loss_changes":[2.7739584E-1,9.938482E-1,5.727541E-1,8.390478E-1,1.8304058E0,7.895081E-1,9.788245E-1,0E0,0E0,0E0,0E0,0E0,0E0,0E0,0E0],"parents":[2147483647,0,0,1,1,2,2,3,3,4,4,5,5,6,6],"right_children":[2,4,6,8,10,12,14,-1,-1,-1,-1,-1,-1,-1,-1],"split_conditions":[-7.874533E-1,1E0,-4.7474426E-1,2.1040446E-1,5.8193576E-1,1.7565332E-1,-3.432225E-1,1.9458983E-2,-4.2341076E-2,6.954575E-3,1.7470509E-1,-4.944094E-2,3.8100916E-3,3.6341205E-2,-2.4813255E-3],"split_indices":[26,5,26,27,22,7,26,0,0,0,0,0,0,0,0],"split_type":[0,0,0,0,0,0,0,0,0,0,0,0,0,0,0],"sum_hessian":[9.46E2,1.11E2,8.35E2,8.6E1,2.5E1,9.9E1,7.36E2,5.7E1,2.9E1,1.7E1,8E0,5E1,4.9E1,6.3E1,6.73E2],"tree_param":{"num_deleted":"0","num_feature":"29","num_nodes":"15","size_leaf_vector":"1"}},{"base_weights":[-1.443734E-4,1.188345E-3,-2.093571E-1,-1.6537681E-3,1.0550321E-1,-2.2598147E-2,-9.54834E-2,5.3371023E-4,-9.405904E-2,9.2853464E-2,-2.6121857E-3],"categories":[],"categories_nodes":[],"categories_segments":[],"categories_sizes":[],"default_left":[0,0,0,0,0,0,0,0,0,0,0],"id":68,"left_children":[1,3,5,7,9,-1,-1,-1,-1,-1,-1],"loss_changes":[2.6429293E-1,2.794536E-1,6.361699E-2,9.8337764E-1,5.851924E-1,0E0,0E0,0E0,0E0,0E0,0E0],"parents":[2147483647,0,0,1,1,2,2,3,3,4,4],"right_children":[2,4,6,8,10,-1,-1,-1,-1,-1,-1],"split_conditions":[2.7672772E0,1.7422104E0,-3.979239E-2,1.5207893E0,6.6413455E-2,-2.2598147E-2,-9.54834E-2,5.3371023E-4,-9.405904E-2,9.2853464E-2,-2.6121857E-3],"split_indices":[14,14,28,14,6,0,0,0,0,0,0],"split_type":[0,0,0,0,0,0,0,0,0,0,0],"sum_hessian":[9.46E2,9.41E2,5E0,9.17E2,2.4E1,3E0,2E0,9.08E2,9E0,8E0,1.6E1],"tree_param":{"num_deleted":"0","num_feature":"29","num_nodes":"11","size_leaf_vector":"1"}},{"base_weights":[-2.2910791E-4,2.863537E-2,-9.107107E-3,-8.529526E-3,1.5101473E-1,-2.8976703E-3,-1.9850393E-1,-5.6545634E-2,4.514962E-3,-1.8923184E-2,6.104726E-2,9.542856E-2,-1.6958311E-3,-1.4329755E-1,-2.8327327E-2],"categories":[],"categories_nodes":[],"categories_segments":[],"categories_sizes":[],"default_left":[0,0,0,0,0,0,0,0,0,0,0,0,0,0,0],"id":69,"left_children":[1,3,5,7,9,11,13,-1,-1,-1,-1,-1,-1,-1,-1],"loss_changes":[2.4293786E-1,1.0155402E0,8.520593E-1,7.326761E-1,5.970409E-1,6.235084E-1,6.231456E-1,0E0,0E0,0E0,0E0,0E0,0E0,0E0,0E0],"parents":[2147483647,0,0,1,1,2,2,3,3,4,4,5,5,6,6],"right_children":[2,4,6,8,10,12,14,-1,-1,-1,-1,-1,-1,-1,-1],"split_conditions":[-4.9279928E-1,2.9041263E-1,1.3588984E0,-4.16173E-1,-6.885766E-1,-9.431505E-1,-3.8192186E-1,-5.6545634E-2,4.514962E-3,-1.8923184E-2,6.104726E-2,9.542856E-2,-1.6958311E-3,-1.4329755E-1,-2.8327327E-2],"split_indices":[6,27,8,8,7,7,14,0,0,0,0,0,0,0,0],"split_type":[0,0,0,0,0,0,0,0,0,0,0,0,0,0,0],"sum_hessian":[9.46E2,2.22E2,7.24E2,1.71E2,5.1E1,7.02E2,2.2E1,1.9E1,1.52E2,1E1,4.1E1,5E0,6.97E2,5E0,1.7E1],"tree_param":{"num_deleted":"0","num_feature":"29","num_nodes":"15","size_leaf_vector":"1"}},{"base_weights":[-2.5324535E-4,1.5428992E-2,-1.4972865E-2,-1.4054042E-2,8.067859E-2,-1.5625066E-1,1.8340262E-3,1.3006524E-5,-8.3779216E-2,1.1061429E-2,1.0447473E-1,4.2010263E-2,-6.1635386E-2,-8.9777475E-3,2.111018E-2],"categories":[],"categories_nodes":[],"categories_segments":[],"categories_sizes":[],"default_left":[0,0,0,0,0,0,0,0,0,0,0,0,0,0,0],"id":70,"left_children":[1,3,5,7,9,11,13,-1,-1,-1,-1,-1,-1,-1,-1],"loss_changes":[2.1883324E-1,8.84138E-1,1.161388E0,1.1852025E0,1.6633346E0,7.867949E-1,9.5545894E-1,0E0,0E0,0E0,0E0,0E0,0E0,0E0,0E0],"parents":[2147483647,0,0,1,1,2,2,3,3,4,4,5,5,6,6],"right_children":[2,4,6,8,10,12,14,-1,-1,-1,-1,-1,-1,-1,-1],"split_conditions":[-4.532251E-2,2.815921E-1,3.5496067E-2,4.6043083E-1,1E0,-4.694518E-1,9.091083E-1,1.3006524E-5,-8.3779216E-2,1.1061429E-2,1.0447473E-1,4.2010263E-2,-6.1635386E-2,-8.9777475E-3,2.111018E-2],"split_indices":[7,14,7,11,15,11,16,0,0,0,0,0,0,0,0],"split_type":[0,0,0,0,0,0,0,0,0,0,0,0,0,0,0],"sum_hessian":[9.46E2,4.58E2,4.88E2,3.16E2,1.42E2,5.1E1,4.37E2,3.01E2,1.5E1,1.23E2,1.9E1,7E0,4.4E1,2.99E2,1.38E2],"tree_param":{"num_deleted":"0","num_feature":"29","num_nodes":"15","size_leaf_vector":"1"}},{"base_weights":[-1.5149776E-4,-1.9353727E-2,1.2582878E-2,2.5582492E-2,-5.7807084E-2,2.3784496E-1,6.4830324E-3,-1.1797794E-2,3.848886E-2,-2.7327733E-2,1.9590257E-2,-2.5060039E-2,1.3841362E-1,1.8956576E-2,-3.083989E-3],"categories":[],"categories_nodes":[],"categories_segments":[],"categories_sizes":[],"default_left":[0,0,0,0,0,0,0,0,0,0,0,0,0,0,0],"id":71,"left_children":[1,3,5,7,9,11,13,-1,-1,-1,-1,-1,-1,-1,-1],"loss_changes":[2.3181191E-1,6.5464336E-1,7.816745E-1,1.1717685E0,8.418776E-1,1.1161244E0,5.291581E-1,0E0,0E0,0E0,0E0,0E0,0E0,0E0,0E0],"parents":[2147483647,0,0,1,1,2,2,3,3,4,4,5,5,6,6],"right_children":[2,4,6,8,10,12,14,-1,-1,-1,-1,-1,-1,-1,-1],"split_conditions":[-1.6652377E-1,-6.000664E-3,-1.654504E-1,3.1531018E-1,1.8883201E-1,7.289003E-2,-2.9166E-1,-1.1797794E-2,3.848886E-2,-2.7327733E-2,1.9590257E-2,-2.5060039E-2,1.3841362E-1,1.8956576E-2,-3.083989E-3],"split_indices":[24,17,24,14,8,2,26,0,0,0,0,0,0,0,0],"split_type":[0,0,0,0,0,0,0,0,0,0,0,0,0,0,0],"sum_hessian":[9.46E2,3.77E2,5.69E2,1.74E2,2.03E2,1.4E1,5.55E2,1.07E2,6.7E1,1.6E2,4.3E1,6E0,8E0,1.26E2,4.29E2],"tree_param":{"num_deleted":"0","num_feature":"29","num_nodes":"15","size_leaf_vector":"1"}}]},"name":"gbtree"},"learner_model_param":{"base_score":"[5.3909717E0]","boost_from_average":"1","num_class":"0","num_feature":"29","num_target":"1"},"objective":{"name":"reg:squarederror","reg_loss_param":{"scale_pos_weight":"1"}}},"version":[3,1,2]}